{"learner":{"attributes":{"best_iteration":"199","best_ntree_limit":"200","scikit_learn":"{\"use_label_encoder\": false, \"n_estimators\": 200, \"objective\": \"binary:logistic\", \"max_depth\": 4, \"max_leaves\": null, \"max_bin\": null, \"grow_policy\": null, \"learning_rate\": 0.3, \"verbosity\": null, \"booster\": null, \"tree_method\": \"gpu_hist\", \"gamma\": null, \"min_child_weight\": null, \"max_delta_step\": null, \"subsample\": 0.5, \"sampling_method\": null, \"colsample_bytree\": 1, \"colsample_bylevel\": null, \"colsample_bynode\": null, \"reg_alpha\": null, \"reg_lambda\": null, \"scale_pos_weight\": null, \"base_score\": null, \"missing\": NaN, \"num_parallel_tree\": null, \"random_state\": null, \"n_jobs\": null, \"monotone_constraints\": null, \"interaction_constraints\": null, \"importance_type\": null, \"gpu_id\": 0, \"validate_parameters\": null, \"predictor\": null, \"enable_categorical\": false, \"max_cat_to_onehot\": null, \"eval_metric\": null, \"early_stopping_rounds\": null, \"callbacks\": null, \"kwargs\": {\"seed\": 9735}, \"classes_\": [0, 1], \"n_classes_\": 2, \"_estimator_type\": \"classifier\"}"},"feature_names":[],"feature_types":[],"gradient_booster":{"model":{"gbtree_model_param":{"num_parallel_tree":"1","num_trees":"200","size_leaf_vector":"0"},"tree_info":[0,0,0,0,0,0,0,0,0,0,0,0,0,0,0,0,0,0,0,0,0,0,0,0,0,0,0,0,0,0,0,0,0,0,0,0,0,0,0,0,0,0,0,0,0,0,0,0,0,0,0,0,0,0,0,0,0,0,0,0,0,0,0,0,0,0,0,0,0,0,0,0,0,0,0,0,0,0,0,0,0,0,0,0,0,0,0,0,0,0,0,0,0,0,0,0,0,0,0,0,0,0,0,0,0,0,0,0,0,0,0,0,0,0,0,0,0,0,0,0,0,0,0,0,0,0,0,0,0,0,0,0,0,0,0,0,0,0,0,0,0,0,0,0,0,0,0,0,0,0,0,0,0,0,0,0,0,0,0,0,0,0,0,0,0,0,0,0,0,0,0,0,0,0,0,0,0,0,0,0,0,0,0,0,0,0,0,0,0,0,0,0,0,0,0,0,0,0,0,0],"trees":[{"base_weights":[-1.1252437E0,-1.6860609E0,-8.42602E-1,-1.8953667E0,-1.4418854E0,-5.1608765E-1,-1.2433083E0,-1.9607891E0,-1.7843821E0,-1.2133704E0,-1.6522934E0,-2.234297E-1,-6.715185E-1,-1.1208792E0,-1.4567901E0,-5.454546E-2,-5.8866817E-1,-4.8895523E-1,-5.670032E-1,-1.0756973E-1,-3.7625536E-1,-5.055646E-1,-2.867647E-1,-3.0287736E-4,-1.1739131E-1,-1.2980232E-1,-2.3352574E-1,-3.657882E-1,-2.4818026E-1,-4.614659E-1,-3.3253497E-1],"categories":[],"categories_nodes":[],"categories_segments":[],"categories_sizes":[],"default_left":[0,0,0,0,0,0,0,0,0,0,0,0,0,0,0,0,0,0,0,0,0,0,0,0,0,0,0,0,0,0,0],"id":0,"left_children":[1,3,5,7,9,11,13,15,17,19,21,23,25,27,29,-1,-1,-1,-1,-1,-1,-1,-1,-1,-1,-1,-1,-1,-1,-1,-1],"loss_changes":[2.8648809E3,3.069004E2,1.5726982E3,2.0164062E1,1.3264697E2,3.013335E2,1.3946387E2,4.862793E0,1.682959E1,4.651831E1,3.1753906E1,8.5897285E1,1.1017456E2,9.825537E1,5.401123E1,0E0,0E0,0E0,0E0,0E0,0E0,0E0,0E0,0E0,0E0,0E0,0E0,0E0,0E0,0E0,0E0],"parents":[2147483647,0,0,1,1,2,2,3,3,4,4,5,5,6,6,7,7,8,8,9,9,10,10,11,11,12,12,13,13,14,14],"right_children":[2,4,6,8,10,12,14,16,18,20,22,24,26,28,30,-1,-1,-1,-1,-1,-1,-1,-1,-1,-1,-1,-1,-1,-1,-1,-1],"split_conditions":[1.665687E-1,4.019775E-2,2.53E2,9.940739E-3,2.73E2,1.2E2,3.9E2,-1.619406E0,2.66E2,8.7E1,1E0,-8.787769E-2,-3.7167522E-1,4.9417475E-1,1.3803465E0,-5.454546E-2,-5.8866817E-1,-4.8895523E-1,-5.670032E-1,-1.0756973E-1,-3.7625536E-1,-5.055646E-1,-2.867647E-1,-3.0287736E-4,-1.1739131E-1,-1.2980232E-1,-2.3352574E-1,-3.657882E-1,-2.4818026E-1,-4.614659E-1,-3.3253497E-1],"split_indices":[535,535,533,535,533,533,533,249,533,533,526,163,428,326,108,0,0,0,0,0,0,0,0,0,0,0,0,0,0,0,0],"split_type":[0,0,0,0,0,0,0,0,0,0,0,0,0,0,0,0,0,0,0,0,0,0,0,0,0,0,0,0,0,0,0],"sum_hessian":[1.808175E4,6.0575E3,1.202425E4,3.258E3,2.7995E3,6.62675E3,5.3975E3,2.03925E3,1.21875E3,1.34525E3,1.45425E3,2.2995E3,4.32725E3,3.43425E3,1.96325E3,1.75E0,2.0375E3,5.015E2,7.1725E2,6.175E1,1.2835E3,1.38725E3,6.7E1,9.895E2,1.31E3,1.3395E3,2.98775E3,2.56975E3,8.645E2,1.5885E3,3.7475E2],"tree_param":{"num_deleted":"0","num_feature":"536","num_nodes":"31","size_leaf_vector":"0"}},{"base_weights":[-8.2270086E-1,-1.3239495E0,-6.217371E-1,-1.4747531E0,-1.1331661E0,-3.8296413E-1,-9.076004E-1,-8.009052E-1,-1.4829099E0,-9.438955E-1,-1.2747563E0,-1.4065148E-1,-5.125118E-1,-1.0331719E0,-7.1579635E-1,3.2057625E-1,-3.5538283E-1,-4.4594148E-1,-2.2343206E-1,-3.443412E-1,-2.4372242E-1,2.3890589E-1,-3.8447618E-1,-6.1760042E-2,1.0702279E-1,-8.274876E-2,-1.8191622E-1,-2.7842075E-1,-3.6662698E-1,-1.3536242E-1,-2.4125476E-1],"categories":[],"categories_nodes":[],"categories_segments":[],"categories_sizes":[],"default_left":[0,0,0,0,0,0,1,0,0,0,0,0,0,0,0,0,0,0,0,0,0,0,0,0,0,0,0,0,0,0,0],"id":1,"left_children":[1,3,5,7,9,11,13,15,17,19,21,23,25,27,29,-1,-1,-1,-1,-1,-1,-1,-1,-1,-1,-1,-1,-1,-1,-1,-1],"loss_changes":[1.7687988E3,1.4295117E2,8.5571045E2,1.4225098E1,5.8384033E1,2.1450104E2,1.3672119E2,2.6883486E1,6.173828E0,2.46828E1,1.8975098E1,7.736299E1,9.879004E1,6.730737E1,5.252173E1,0E0,0E0,0E0,0E0,0E0,0E0,0E0,0E0,0E0,0E0,0E0,0E0,0E0,0E0,0E0,0E0],"parents":[2147483647,0,0,1,1,2,2,3,3,4,4,5,5,6,6,7,7,8,8,9,9,10,10,11,11,12,12,13,13,14,14],"right_children":[2,4,6,8,10,12,14,16,18,20,22,24,26,28,30,-1,-1,-1,-1,-1,-1,-1,-1,-1,-1,-1,-1,-1,-1,-1,-1],"split_conditions":[1.2859392E-1,3.1934995E-2,2.48E2,-9.136234E-1,2.4E2,1.2E2,4.7931322E-1,-7.767275E-1,7.989467E-1,-4.1400778E-1,-8.475673E-1,3.3461773E-1,-3.1067875E-1,3.9E2,-5.178343E-1,3.2057625E-1,-3.5538283E-1,-4.4594148E-1,-2.2343206E-1,-3.443412E-1,-2.4372242E-1,2.3890589E-1,-3.8447618E-1,-6.1760042E-2,1.0702279E-1,-8.274876E-2,-1.8191622E-1,-2.7842075E-1,-3.6662698E-1,-1.3536242E-1,-2.4125476E-1],"split_indices":[535,535,533,238,533,533,535,386,270,326,473,392,390,533,428,0,0,0,0,0,0,0,0,0,0,0,0,0,0,0,0],"split_type":[0,0,0,0,0,0,0,0,0,0,0,0,0,0,0,0,0,0,0,0,0,0,0,0,0,0,0,0,0,0,0],"sum_hessian":[1.7566484E4,5.025692E3,1.2540793E4,2.8031934E3,2.2224988E3,6.8344893E3,5.706303E3,3.4712364E1,2.768481E3,9.54388E2,1.2681107E3,2.3817068E3,4.4527827E3,3.4459202E3,2.260383E3,5.6073203E0,2.9105043E1,2.7541777E3,1.4303252E1,3.7112497E2,5.83263E2,3.7887566E0,1.264322E3,2.1061475E3,2.7555923E2,1.2656691E3,3.1871135E3,2.2179163E3,1.2280042E3,5.675373E2,1.6928458E3],"tree_param":{"num_deleted":"0","num_feature":"536","num_nodes":"31","size_leaf_vector":"0"}},{"base_weights":[-6.240986E-1,-1.1660696E0,-4.765591E-1,-1.3118734E0,-1.043666E0,-2.96197E-1,-7.1014696E-1,-1.1485168E-2,-1.3130896E0,-9.244739E-1,-1.1966646E0,-4.1633844E-1,-1.1032539E-1,-9.0996253E-1,-5.746214E-1,-1.5043324E-1,-3.9463863E-1,-2.1692058E-1,-3.059042E-1,2.2274524E-1,-3.609908E-1,-5.5620395E-2,-1.4774369E-1,1.8127792E-2,-9.294091E-2,-1.8870752E-1,-2.943238E-1,-2.5005966E-1,-1.3886759E-1],"categories":[],"categories_nodes":[],"categories_segments":[],"categories_sizes":[],"default_left":[0,0,0,0,0,1,1,0,0,0,0,0,0,0,0,0,0,0,0,0,0,0,0,0,0,0,0,0,0],"id":2,"left_children":[1,3,5,7,9,11,13,-1,15,17,19,21,23,25,27,-1,-1,-1,-1,-1,-1,-1,-1,-1,-1,-1,-1,-1,-1],"loss_changes":[1.3054116E3,6.098877E1,5.407136E2,2.4135742E0,3.3621826E1,1.6178125E2,1.5094946E2,0E0,2.4006348E0,1.987268E1,1.158374E1,7.730017E1,9.697247E1,4.4513184E1,9.610718E1,0E0,0E0,0E0,0E0,0E0,0E0,0E0,0E0,0E0,0E0,0E0,0E0,0E0,0E0],"parents":[2147483647,0,0,1,1,2,2,3,3,4,4,5,5,6,6,8,8,9,9,10,10,11,11,12,12,13,13,14,14],"right_children":[2,4,6,8,10,12,14,-1,16,18,20,22,24,26,28,-1,-1,-1,-1,-1,-1,-1,-1,-1,-1,-1,-1,-1,-1],"split_conditions":[8.3172835E-2,9.940739E-3,2.55E2,-1.5665667E-1,3.16E2,5.166337E-1,3.119693E-1,-1.1485168E-2,-1.040047E0,-1.4485696E-1,-8.5301334E-1,-1.070165E-1,1.56E2,-4.3027952E-1,-2.0882286E-2,-1.5043324E-1,-3.9463863E-1,-2.1692058E-1,-3.059042E-1,2.2274524E-1,-3.609908E-1,-5.5620395E-2,-1.4774369E-1,1.8127792E-2,-9.294091E-2,-1.8870752E-1,-2.943238E-1,-2.5005966E-1,-1.3886759E-1],"split_indices":[535,535,533,252,533,535,535,0,279,81,180,234,533,164,359,0,0,0,0,0,0,0,0,0,0,0,0,0,0],"split_type":[0,0,0,0,0,0,0,0,0,0,0,0,0,0,0,0,0,0,0,0,0,0,0,0,0,0,0,0,0],"sum_hessian":[1.6331326E4,3.4930527E3,1.2838273E4,1.5897135E3,1.9033391E3,7.2457905E3,5.5924834E3,1.5475764E0,1.5881659E3,1.0738269E3,8.2951227E2,4.400323E3,2.8454673E3,2.2578506E3,3.3346328E3,5.2476387E0,1.5829183E3,3.474366E2,7.2639026E2,2.4516659E0,8.270606E2,1.0919205E3,3.3084026E3,1.5335E3,1.3119673E3,4.5808597E2,1.7997646E3,1.003277E3,2.3313557E3],"tree_param":{"num_deleted":"0","num_feature":"536","num_nodes":"29","size_leaf_vector":"0"}},{"base_weights":[-4.831449E-1,-1.0627211E0,-3.694018E-1,-1.171263E0,-9.048505E-1,-2.1900263E-1,-5.9060806E-1,-1.0092794E0,-1.2003834E0,-9.5798475E-1,-4.8740068E-1,-4.4525468E-1,-1.2687013E-1,-7.686329E-1,-4.688731E-1,-3.0972272E-1,1.9842154E-1,2.736772E-3,-3.6080986E-1,-3.1279096E-1,-2.300795E-1,5.4810673E-1,-1.7666093E-1,-7.1656935E-2,-1.6318895E-1,-5.6651467E-3,-1.03966385E-1,-1.5690564E-1,-2.5452435E-1,-1.9757235E-1,-1.0075015E-1],"categories":[],"categories_nodes":[],"categories_segments":[],"categories_sizes":[],"default_left":[0,0,0,0,0,0,1,0,0,0,0,0,0,0,0,0,0,0,0,0,0,0,0,0,0,0,0,0,0,0,0],"id":3,"left_children":[1,3,5,7,9,11,13,15,17,19,21,23,25,27,29,-1,-1,-1,-1,-1,-1,-1,-1,-1,-1,-1,-1,-1,-1,-1,-1],"loss_changes":[1.0056018E3,4.1830566E1,4.243263E2,5.768799E0,2.2250061E1,1.5828735E2,1.1153174E2,9.639236E0,3.5100098E0,1.3877197E1,2.871115E1,4.4645355E1,1.2808394E2,4.0612305E1,7.722931E1,0E0,0E0,0E0,0E0,0E0,0E0,0E0,0E0,0E0,0E0,0E0,0E0,0E0,0E0,0E0,0E0],"parents":[2147483647,0,0,1,1,2,2,3,3,4,4,5,5,6,6,7,7,8,8,9,9,10,10,11,11,12,12,13,13,14,14],"right_children":[2,4,6,8,10,12,14,16,18,20,22,24,26,28,30,-1,-1,-1,-1,-1,-1,-1,-1,-1,-1,-1,-1,-1,-1,-1,-1],"split_conditions":[5.6998707E-2,1.5233132E-2,2.73E2,1.69E2,4.736187E-1,-8.553646E-2,3.0414578E-1,7.871263E-1,7.511E1,2.1279028E-1,-6.302433E-1,-1.7458883E-1,4.4367048E-1,-3.4629261E-1,1.8098186E-1,-3.0972272E-1,1.9842154E-1,2.736772E-3,-3.6080986E-1,-3.1279096E-1,-2.300795E-1,5.4810673E-1,-1.7666093E-1,-7.1656935E-2,-1.6318895E-1,-5.6651467E-3,-1.03966385E-1,-1.5690564E-1,-2.5452435E-1,-1.9757235E-1,-1.0075015E-1],"split_indices":[535,535,533,533,422,388,535,50,532,76,187,349,19,329,316,0,0,0,0,0,0,0,0,0,0,0,0,0,0,0,0],"split_type":[0,0,0,0,0,0,0,0,0,0,0,0,0,0,0,0,0,0,0,0,0,0,0,0,0,0,0,0,0,0,0],"sum_hessian":[1.5259194E4,2.5019917E3,1.2757203E4,1.4788252E3,1.0231664E3,7.5951885E3,5.1620146E3,2.3077675E2,1.2480485E3,9.0649054E2,1.1667579E2,2.1967483E3,5.3984404E3,2.0941794E3,3.0678354E3,2.2800224E2,2.7745163E0,2.3797638E0,1.2456687E3,6.2507513E2,2.8141544E2,4.1862116E0,1.1248958E2,7.1180084E2,1.4849474E3,3.6200728E3,1.7783673E3,5.153102E2,1.5788691E3,1.2629865E3,1.804849E3],"tree_param":{"num_deleted":"0","num_feature":"536","num_nodes":"31","size_leaf_vector":"0"}},{"base_weights":[-3.585769E-1,-9.3337697E-1,-2.5697553E-1,-1.0781103E0,-7.535141E-1,-1.9064322E-1,-6.490734E-1,-2.4811716E-3,-1.08263E0,-5.926139E-1,-9.5276904E-1,-3.7990263E-1,-1.0686237E-1,-5.506206E-1,-1.0044713E0,4.8944035E-1,-2.2391601E-1,-3.2595214E-1,2.2639274E-3,2.2951587E-1,-1.8839741E-1,3.4107435E-1,-2.9019907E-1,-1.5656847E-1,-7.247148E-2,-1.4058092E-3,-9.2551894E-2,-2.7021715E-1,-1.2989087E-1,2.3292394E-1,-3.1445754E-1],"categories":[],"categories_nodes":[],"categories_segments":[],"categories_sizes":[],"default_left":[0,0,0,0,0,0,0,0,0,0,0,0,0,0,0,0,0,0,0,0,0,0,0,0,0,0,0,0,0,0,0],"id":4,"left_children":[1,3,5,7,9,11,13,15,17,19,21,23,25,27,29,-1,-1,-1,-1,-1,-1,-1,-1,-1,-1,-1,-1,-1,-1,-1,-1],"loss_changes":[8.324271E2,5.4929688E1,3.150401E2,5.7543945E0,3.0151917E1,1.6432071E2,6.078192E1,8.458952E0,4.9923096E0,2.6066727E1,1.4073914E1,6.2340332E1,1.4806198E2,5.6241608E1,3.0326874E1,0E0,0E0,0E0,0E0,0E0,0E0,0E0,0E0,0E0,0E0,0E0,0E0,0E0,0E0,0E0,0E0],"parents":[2147483647,0,0,1,1,2,2,3,3,4,4,5,5,6,6,7,7,8,8,9,9,10,10,11,11,12,12,13,13,14,14],"right_children":[2,4,6,8,10,12,14,16,18,20,22,24,26,28,30,-1,-1,-1,-1,-1,-1,-1,-1,-1,-1,-1,-1,-1,-1,-1,-1],"split_conditions":[6.255497E-2,1.5233132E-2,3.9E2,7.653E1,3E2,3.0414578E-1,3.549787E-2,-2.351879E-1,9.4253E-1,-9.136234E-1,-8.2990545E-1,-5.081072E-2,4.2961374E-1,-6.122931E-1,-1.0333493E0,4.8944035E-1,-2.2391601E-1,-3.2595214E-1,2.2639274E-3,2.2951587E-1,-1.8839741E-1,3.4107435E-1,-2.9019907E-1,-1.5656847E-1,-7.247148E-2,-1.4058092E-3,-9.2551894E-2,-2.7021715E-1,-1.2989087E-1,2.3292394E-1,-3.1445754E-1],"split_indices":[535,535,533,532,533,535,464,439,266,238,73,67,19,411,406,0,0,0,0,0,0,0,0,0,0,0,0,0,0,0,0],"split_type":[0,0,0,0,0,0,0,0,0,0,0,0,0,0,0,0,0,0,0,0,0,0,0,0,0,0,0,0,0,0,0],"sum_hessian":[1.4256883E4,2.140278E3,1.21166045E4,1.1831876E3,9.5709033E2,1.0364671E4,1.751934E3,4.9574037E0,1.1782302E3,5.317065E2,4.2538385E2,3.1792554E3,7.185415E3,1.3738871E3,3.780469E2,1.1776488E0,3.7797549E0,1.1740582E3,4.1720014E0,1.2979288E1,5.187272E2,2.4102464E0,4.229736E2,1.5674983E3,1.6117572E3,4.7696016E3,2.4158135E3,3.4389044E2,1.0299966E3,8.657064E0,3.6938983E2],"tree_param":{"num_deleted":"0","num_feature":"536","num_nodes":"31","size_leaf_vector":"0"}},{"base_weights":[-2.7404875E-1,-7.873248E-1,-1.8696633E-1,-9.9650925E-1,-5.7959795E-1,1.8057358E-2,-2.7965108E-1,-6.6229284E-1,-1.0236292E0,-3.3116892E-1,-7.080285E-1,-1.4909811E-1,1.4531906E-1,-6.579777E-2,-3.664178E-1,-2.272638E-1,5.795853E-1,-3.0834845E-1,1.6680232E-1,-1.1607813E-1,4.228761E-1,-5.053518E-2,-2.3351885E-1,-9.424256E-2,2.0841569E-2,-3.7203513E-2,7.140541E-2,4.803526E-2,-7.1458936E-2,-1.6533038E-1,-8.544098E-2],"categories":[],"categories_nodes":[],"categories_segments":[],"categories_sizes":[],"default_left":[0,0,0,0,0,0,0,0,0,0,0,0,0,0,0,0,0,0,0,0,0,0,0,0,0,0,0,0,0,0,0],"id":5,"left_children":[1,3,5,7,9,11,13,15,17,19,21,23,25,27,29,-1,-1,-1,-1,-1,-1,-1,-1,-1,-1,-1,-1,-1,-1,-1,-1],"loss_changes":[6.0481537E2,8.47168E1,2.1991702E2,8.174072E0,3.126529E1,7.668456E1,1.4786023E2,2.0276821E1,6.5509033E0,3.3384415E1,2.4546295E1,5.623378E1,5.112621E1,8.967731E1,8.529651E1,0E0,0E0,0E0,0E0,0E0,0E0,0E0,0E0,0E0,0E0,0E0,0E0,0E0,0E0,0E0,0E0],"parents":[2147483647,0,0,1,1,2,2,3,3,4,4,5,5,6,6,7,7,8,8,9,9,10,10,11,11,12,12,13,13,14,14],"right_children":[2,4,6,8,10,12,14,16,18,20,22,24,26,28,30,-1,-1,-1,-1,-1,-1,-1,-1,-1,-1,-1,-1,-1,-1,-1,-1],"split_conditions":[7.6893255E-2,1.8175378E-2,1.58E2,1.18E2,-1.4485696E-1,8.467873E-2,-2.4454091E-1,7.749582E-1,8.3465856E-1,8.55313E-1,1.22E2,2.2101778E-1,-3.7097245E-1,-4.615679E-3,7.388675E-2,-2.272638E-1,5.795853E-1,-3.0834845E-1,1.6680232E-1,-1.1607813E-1,4.228761E-1,-5.053518E-2,-2.3351885E-1,-9.424256E-2,2.0841569E-2,-3.7203513E-2,7.140541E-2,4.803526E-2,-7.1458936E-2,-1.6533038E-1,-8.544098E-2],"split_indices":[535,535,533,533,81,370,510,119,377,361,533,157,137,55,509,0,0,0,0,0,0,0,0,0,0,0,0,0,0,0,0],"split_type":[0,0,0,0,0,0,0,0,0,0,0,0,0,0,0,0,0,0,0,0,0,0,0,0,0,0,0,0,0,0,0],"sum_hessian":[1.3533651E4,1.9618994E3,1.1571752E4,9.7562787E2,9.862715E2,3.6028518E3,7.9689E3,7.51333E1,9.0049457E2,3.3733246E2,6.48939E2,1.557257E3,2.0455947E3,2.3005386E3,5.6683613E3,7.315524E1,1.9780576E0,8.984557E2,2.0389163E0,3.276163E2,9.716158E0,7.5257706E1,5.7368134E2,8.8702277E2,6.7023425E2,5.236952E2,1.5218995E3,9.957524E2,1.3047863E3,1.7354664E3,3.932895E3],"tree_param":{"num_deleted":"0","num_feature":"536","num_nodes":"31","size_leaf_vector":"0"}},{"base_weights":[-2.179879E-1,-8.148275E-1,-1.583072E-1,-9.8244625E-1,-6.3198787E-1,-1.1960245E-1,-5.143703E-1,8.7864816E-1,-9.902878E-1,3.3688822E-1,-6.91023E-1,-1.6694896E-1,1.260323E-1,-2.069428E-1,-6.710303E-1,5.642532E-1,-1.6852087E-1,-2.9849747E-1,1.596336E-1,5.3626025E-1,-1.3208494E-1,-7.3787816E-2,-2.3209272E-1,-3.3928238E-2,-1.1592115E-1,7.967034E-2,-6.380926E-2,-2.048435E-1,9.478479E-3,-2.0989147E-1,5.2706313E-1],"categories":[],"categories_nodes":[],"categories_segments":[],"categories_sizes":[],"default_left":[0,0,0,0,0,1,0,0,0,0,0,0,0,0,0,0,0,0,0,0,0,0,0,0,0,0,0,0,0,0,0],"id":6,"left_children":[1,3,5,7,9,11,13,15,17,19,21,23,25,27,29,-1,-1,-1,-1,-1,-1,-1,-1,-1,-1,-1,-1,-1,-1,-1,-1],"loss_changes":[4.5700342E2,3.51261E1,1.6074265E2,9.724548E0,3.2301987E1,1.22432724E2,5.4943726E1,5.496175E0,4.859253E0,3.7847923E1,1.9254135E1,1.04256744E2,8.047886E1,4.401011E1,5.3821075E1,0E0,0E0,0E0,0E0,0E0,0E0,0E0,0E0,0E0,0E0,0E0,0E0,0E0,0E0,0E0,0E0],"parents":[2147483647,0,0,1,1,2,2,3,3,4,4,5,5,6,6,7,7,8,8,9,9,10,10,11,11,12,12,13,13,14,14],"right_children":[2,4,6,8,10,12,14,16,18,20,22,24,26,28,30,-1,-1,-1,-1,-1,-1,-1,-1,-1,-1,-1,-1,-1,-1,-1,-1],"split_conditions":[4.2503837E-2,8.865627E-3,4.33E2,6E1,-4.6991667E-1,6.9553906E-1,-5.681646E-1,-7.644487E-2,1.1251435E0,4.003369E-1,1.45E2,2.7518174E-1,9.401224E-2,-3.645712E-2,9.289526E-1,5.642532E-1,-1.6852087E-1,-2.9849747E-1,1.596336E-1,5.3626025E-1,-1.3208494E-1,-7.3787816E-2,-2.3209272E-1,-3.3928238E-2,-1.1592115E-1,7.967034E-2,-6.380926E-2,-2.048435E-1,9.478479E-3,-2.0989147E-1,5.2706313E-1],"split_indices":[535,535,533,533,454,535,101,364,451,252,533,386,372,431,321,0,0,0,0,0,0,0,0,0,0,0,0,0,0,0,0],"split_type":[0,0,0,0,0,0,0,0,0,0,0,0,0,0,0,0,0,0,0,0,0,0,0,0,0,0,0,0,0,0,0],"sum_hessian":[1.2832657E4,1.165397E3,1.1667261E4,6.0572424E2,5.596727E2,1.0524557E4,1.1427037E3,2.0755057E0,6.0364874E2,3.1872885E1,5.277998E2,8.82403E3,1.7005266E3,3.865209E2,7.5618286E2,1.0435959E0,1.0319098E0,6.0213477E2,1.5139709E0,1.0665297E1,2.1207588E1,8.326032E1,4.445395E2,7.0864985E3,1.7375317E3,1.2045453E3,4.959813E2,1.2843602E2,2.5808487E2,7.4808014E2,8.102754E0],"tree_param":{"num_deleted":"0","num_feature":"536","num_nodes":"31","size_leaf_vector":"0"}},{"base_weights":[-1.614775E-1,-7.9670364E-1,-1.1679573E-1,-8.133867E-1,1.1396793E0,-2.082722E-1,1.9549385E-4,-9.6478426E-1,-6.505564E-1,-2.4637768E-1,2.5597005E0,-1.2110038E-1,-3.683144E-1,6.1528885E-1,-3.0609215E-2,-2.9751068E-1,-1.4583546E-1,6.135391E-2,-2.1322592E-1,1.1576924E0,-8.765888E-2,-5.273334E-2,6.606652E-2,-1.3844833E-1,-4.476898E-2,6.567631E-2,2.8898206E-1,3.1908102E-2,-4.808554E-2],"categories":[],"categories_nodes":[],"categories_segments":[],"categories_sizes":[],"default_left":[0,0,0,0,0,0,0,0,0,0,0,0,0,0,0,0,0,0,0,0,0,0,0,0,0,0,0,0,0],"id":7,"left_children":[1,3,5,7,9,11,13,15,17,-1,19,21,23,25,27,-1,-1,-1,-1,-1,-1,-1,-1,-1,-1,-1,-1,-1,-1],"loss_changes":[3.5146674E2,2.7217285E1,1.238584E2,1.9277771E1,2.2619183E1,9.056787E1,9.626356E1,4.882416E0,2.0328064E1,0E0,1.7862488E1,7.8537865E1,4.6674683E1,3.32098E1,8.595098E1,0E0,0E0,0E0,0E0,0E0,0E0,0E0,0E0,0E0,0E0,0E0,0E0,0E0,0E0],"parents":[2147483647,0,0,1,1,2,2,3,3,4,4,5,5,6,6,7,7,8,8,10,10,11,11,12,12,13,13,14,14],"right_children":[2,4,6,8,10,12,14,16,18,-1,20,22,24,26,28,-1,-1,-1,-1,-1,-1,-1,-1,-1,-1,-1,-1,-1,-1],"split_conditions":[3.1934995E-2,7.989467E-1,1.6799338E-1,5.9579313E-3,2.3952182E-1,2.79E2,7.8E1,5.958888E-1,-4.8108408E-1,-2.4637768E-1,4.833946E-2,3.7120897E-1,2.7605772E-1,8.360584E-3,-1.4435E-1,-2.9751068E-1,-1.4583546E-1,6.135391E-2,-2.1322592E-1,1.1576924E0,-8.765888E-2,-5.273334E-2,6.606652E-2,-1.3844833E-1,-4.476898E-2,6.567631E-2,2.8898206E-1,3.1908102E-2,-4.808554E-2],"split_indices":[535,270,359,535,342,533,533,58,454,0,33,422,31,80,366,0,0,0,0,0,0,0,0,0,0,0,0,0,0],"split_type":[0,0,0,0,0,0,0,0,0,0,0,0,0,0,0,0,0,0,0,0,0,0,0,0,0,0,0,0,0],"sum_hessian":[1.2385269E4,8.128213E2,1.1572447E4,8.0645325E2,6.368096E0,6.493973E3,5.078474E3,4.1534518E2,3.9110803E2,2.8517332E0,3.516363E0,4.205226E3,2.2887466E3,2.4130191E2,4.8371724E3,3.9221692E2,2.3128288E1,2.5565311E1,3.6554272E2,2.1731765E0,1.3431865E0,3.62501E3,5.8021625E2,1.6050063E3,6.8374036E2,1.13570206E2,1.27731705E2,2.3525173E3,2.484655E3],"tree_param":{"num_deleted":"0","num_feature":"536","num_nodes":"29","size_leaf_vector":"0"}},{"base_weights":[-1.1301692E-1,-3.9762276E-1,-3.0349486E-2,-8.24358E-1,-3.0236855E-1,-1.2633428E-1,9.760904E-2,6.321451E-1,-8.4017324E-1,5.8746997E-2,-3.8453668E-1,2.2695577E-1,-1.7083342E-1,1.9950119E-1,-1.18612416E-1,-2.5036687E-1,1.0843523E0,2.51814E-1,-2.5539315E-1,1.0013699E-1,-1.6106118E-1,-1.3705757E-1,-2.663265E-2,1.361212E-1,-3.20402E-2,-4.0644895E-2,-1.7347643E-1,1.2664814E-1,2.7880117E-2,-8.114272E-2,5.086337E-2],"categories":[],"categories_nodes":[],"categories_segments":[],"categories_sizes":[],"default_left":[0,0,0,0,0,0,0,0,0,0,0,0,0,0,0,0,0,0,0,0,0,0,0,0,0,0,0,0,0,0,0],"id":8,"left_children":[1,3,5,7,9,11,13,15,17,19,21,23,25,27,29,-1,-1,-1,-1,-1,-1,-1,-1,-1,-1,-1,-1,-1,-1,-1,-1],"loss_changes":[2.828162E2,1.0973212E2,1.1443739E2,1.1891083E1,6.570253E1,8.37337E1,8.800989E1,2.8684767E1,9.848389E0,6.7537346E1,3.853305E1,4.515766E1,6.8027695E1,6.438017E1,5.6051086E1,0E0,0E0,0E0,0E0,0E0,0E0,0E0,0E0,0E0,0E0,0E0,0E0,0E0,0E0,0E0,0E0],"parents":[2147483647,0,0,1,1,2,2,3,3,4,4,5,5,6,6,7,7,8,8,9,9,10,10,11,11,12,12,13,13,14,14],"right_children":[2,4,6,8,10,12,14,16,18,20,22,24,26,28,30,-1,-1,-1,-1,-1,-1,-1,-1,-1,-1,-1,-1,-1,-1,-1,-1],"split_conditions":[1.8868819E-1,1.8175378E-2,1.0689471E-1,-8.8532495E-1,-1.9033854E-1,9.9E1,1.6944693E-1,3.2778093E-1,-1.1098341E0,1.9248036E-1,4.041971E-1,-2.0012195E-1,3.6026123E-1,-2.3071672E-1,1.3427414E-1,-2.5036687E-1,1.0843523E0,2.51814E-1,-2.5539315E-1,1.0013699E-1,-1.6106118E-1,-1.3705757E-1,-2.663265E-2,1.361212E-1,-3.20402E-2,-4.0644895E-2,-1.7347643E-1,1.2664814E-1,2.7880117E-2,-8.114272E-2,5.086337E-2],"split_indices":[535,535,155,94,234,533,349,123,231,81,34,177,464,72,51,0,0,0,0,0,0,0,0,0,0,0,0,0,0,0,0],"split_type":[0,0,0,0,0,0,0,0,0,0,0,0,0,0,0,0,0,0,0,0,0,0,0,0,0,0,0,0,0,0,0],"sum_hessian":[1.2020109E4,2.70468E3,9.31543E3,4.9216138E2,2.2125186E3,5.322732E3,3.9926975E3,4.8680563E0,4.8729333E2,4.1017062E2,1.802348E3,5.949748E2,4.7277573E3,2.7138845E3,1.2788129E3,3.7459824E0,1.1220739E0,2.7201166E0,4.845732E2,2.8089783E2,1.2927278E2,1.4477805E3,3.5456744E2,3.5404684E2,2.4092798E2,4.3515244E3,3.7623306E2,8.774992E2,1.8363854E3,8.3749896E2,4.4131396E2],"tree_param":{"num_deleted":"0","num_feature":"536","num_nodes":"31","size_leaf_vector":"0"}},{"base_weights":[-8.992685E-2,-4.3080798E-1,-5.292181E-2,-8.7308824E-1,-3.56067E-1,-7.972124E-2,3.4980765E-1,-9.2119545E-1,8.592825E-1,2.03866E0,-3.719234E-1,-2.0278014E-2,-2.648235E-1,5.485367E-1,-5.1590465E-2,1.661216E-1,-2.887929E-1,-2.1534011E-1,5.8024967E-1,-1.8913053E-1,8.3959717E-1,-1.7535096E-1,-6.186697E-2,-7.3529646E-2,1.1357867E-2,3.1275515E-2,-9.731948E-2,4.198986E-1,1.2841845E-1,2.7480933E-1,-7.300461E-2],"categories":[],"categories_nodes":[],"categories_segments":[],"categories_sizes":[],"default_left":[0,1,0,0,0,0,0,0,0,0,0,0,0,0,0,0,0,0,0,0,0,0,0,0,0,0,0,0,0,0,0],"id":9,"left_children":[1,3,5,7,9,11,13,15,17,19,21,23,25,27,29,-1,-1,-1,-1,-1,-1,-1,-1,-1,-1,-1,-1,-1,-1,-1,-1],"loss_changes":[1.479548E2,3.765866E1,1.14252556E2,1.4572411E1,3.81326E1,1.0918681E2,5.271644E1,1.0398132E1,9.8392105E0,1.5210573E1,3.435161E1,9.820341E1,5.3071228E1,4.470981E1,4.0976414E1,0E0,0E0,0E0,0E0,0E0,0E0,0E0,0E0,0E0,0E0,0E0,0E0,0E0,0E0,0E0,0E0],"parents":[2147483647,0,0,1,1,2,2,3,3,4,4,5,5,6,6,7,7,8,8,9,9,10,10,11,11,12,12,13,13,14,14],"right_children":[2,4,6,8,10,12,14,16,18,20,22,24,26,28,30,-1,-1,-1,-1,-1,-1,-1,-1,-1,-1,-1,-1,-1,-1,-1,-1],"split_conditions":[-1.3382962E0,4.303929E-3,1E0,6.160882E-1,-9.97633E-1,1.615696E-1,8.952912E-3,9.073E1,1.0351993E-1,9.2350855E-2,-5.891406E-2,-4.177634E-1,-5.0296235E-1,-5.6734127E-1,-4.5641693E-1,1.661216E-1,-2.887929E-1,-2.1534011E-1,5.8024967E-1,-1.8913053E-1,8.3959717E-1,-1.7535096E-1,-6.186697E-2,-7.3529646E-2,1.1357867E-2,3.1275515E-2,-9.731948E-2,4.198986E-1,1.2841845E-1,2.7480933E-1,-7.300461E-2],"split_indices":[411,535,526,429,58,390,322,532,422,535,80,137,163,21,291,0,0,0,0,0,0,0,0,0,0,0,0,0,0,0,0],"split_type":[0,0,0,0,0,0,0,0,0,0,0,0,0,0,0,0,0,0,0,0,0,0,0,0,0,0,0,0,0,0,0],"sum_hessian":[1.172992E4,1.147627E3,1.0582293E4,1.6435768E2,9.832693E2,9.922788E3,6.59505E2,1.6037245E2,3.985234E0,5.628629E0,9.776407E2,7.511633E3,2.4111555E3,4.408681E2,2.1863692E2,4.0456495E0,1.563268E2,1.7499256E0,2.2353084E0,1.2852683E0,4.343361E0,4.271345E2,5.5050616E2,1.5427045E3,5.968928E3,3.3500357E2,2.0761519E3,5.3349632E1,3.8751846E2,3.553724E1,1.8309967E2],"tree_param":{"num_deleted":"0","num_feature":"536","num_nodes":"31","size_leaf_vector":"0"}},{"base_weights":[-5.7215054E-2,-7.829393E-1,-3.9334737E-2,-2.9977176E-1,-8.8115865E-1,5.913258E-2,-1.351363E-1,2.03697E0,-5.3000045E-1,3.0123585E-1,-9.0142405E-1,-3.0011406E-2,2.2483553E-1,-2.7502656E-1,-3.5240103E-2,1.4470102E0,-2.1409963E-1,-1.940607E-1,4.2201856E-1,2.6171857E-1,-2.7538374E-1,-8.659613E-2,1.1076991E-2,8.654166E-3,1.1759867E-1,-5.4281328E-2,-1.5298693E-1,1.2450553E-2,-1.0058227E-1],"categories":[],"categories_nodes":[],"categories_segments":[],"categories_sizes":[],"default_left":[0,0,0,0,0,0,0,0,0,0,0,0,0,0,0,0,0,0,0,0,0,0,0,0,0,0,0,0,0],"id":10,"left_children":[1,3,5,7,9,11,13,15,17,-1,19,21,23,25,27,-1,-1,-1,-1,-1,-1,-1,-1,-1,-1,-1,-1,-1,-1],"loss_changes":[1.5024425E2,1.2948364E1,1.0663686E2,2.7199177E1,9.725449E0,8.23553E1,8.005823E1,3.8398914E1,1.1093082E1,0E0,7.510086E0,6.277908E1,6.3879013E1,5.2666626E1,7.700444E1,0E0,0E0,0E0,0E0,0E0,0E0,0E0,0E0,0E0,0E0,0E0,0E0,0E0,0E0],"parents":[2147483647,0,0,1,1,2,2,3,3,4,4,5,5,6,6,7,7,8,8,10,10,11,11,12,12,13,13,14,14],"right_children":[2,4,6,8,10,12,14,16,18,-1,20,22,24,26,28,-1,-1,-1,-1,-1,-1,-1,-1,-1,-1,-1,-1,-1,-1],"split_conditions":[9.940739E-3,1.69E2,2.09E2,-7.408678E-1,-1.1098341E0,1.1575561E-1,1.0451647E-1,4.2795874E-2,3.705312E-1,3.0123585E-1,-9.349951E-1,-2.0905054E-1,-5.7168245E-2,2.2869548E-3,4.2405227E-1,1.4470102E0,-2.1409963E-1,-1.940607E-1,4.2201856E-1,2.6171857E-1,-2.7538374E-1,-8.659613E-2,1.1076991E-2,8.654166E-3,1.1759867E-1,-5.4281328E-2,-1.5298693E-1,1.2450553E-2,-1.0058227E-1],"split_indices":[535,533,533,343,231,458,341,145,328,0,279,425,229,474,399,0,0,0,0,0,0,0,0,0,0,0,0,0,0],"split_type":[0,0,0,0,0,0,0,0,0,0,0,0,0,0,0,0,0,0,0,0,0,0,0,0,0,0,0,0,0],"sum_hessian":[1.157984E4,2.7741373E2,1.1302427E4,4.7550762E1,2.2986298E2,5.5738564E3,5.7285703E3,3.5609329E0,4.398983E1,1.9282694E0,2.2793471E2,3.624686E3,1.9491703E3,2.3858198E3,3.3427505E3,1.3946271E0,2.1663058E0,4.2114502E1,1.8753262E0,1.6253893E0,2.2630931E2,7.445106E2,2.8801753E3,8.977581E2,1.0514122E3,1.7048154E3,6.810042E2,2.6625835E3,6.8016693E2],"tree_param":{"num_deleted":"0","num_feature":"536","num_nodes":"29","size_leaf_vector":"0"}},{"base_weights":[-4.9342416E-2,-1.1405652E-2,-3.2024822E-1,-8.636865E-2,1.4851521E-1,-7.567693E-1,-1.8082325E-1,-4.1034883E-1,-4.1972894E-2,2.8794354E-1,-1.8583195E-2,1.3247404E0,-7.953632E-1,-4.0895E-1,4.5160293E-3,-4.81958E-2,-1.7079037E-1,-9.901886E-2,3.315784E-4,3.8853984E-2,1.4341241E-1,-2.8823657E-2,1.1228251E-1,-2.4949217E-1,1.0517359E0,-2.4859011E-1,2.5026718E-1,-1.3520145E-1,2.6325256E-1,-3.334849E-2,1.9590424E-1],"categories":[],"categories_nodes":[],"categories_segments":[],"categories_sizes":[],"default_left":[0,0,0,0,0,0,0,0,0,0,0,0,0,0,0,0,0,0,0,0,0,0,0,0,0,0,0,0,0,0,0],"id":11,"left_children":[1,3,5,7,9,11,13,15,17,19,21,23,25,27,29,-1,-1,-1,-1,-1,-1,-1,-1,-1,-1,-1,-1,-1,-1,-1,-1],"loss_changes":[1.16660645E2,1.19394554E2,8.4725845E1,9.751274E1,7.406012E1,2.81445E1,4.4739964E1,3.2338516E1,7.402422E1,5.2125305E1,4.408208E1,3.3551987E1,1.8675903E1,2.5853645E1,4.3942196E1,0E0,0E0,0E0,0E0,0E0,0E0,0E0,0E0,0E0,0E0,0E0,0E0,0E0,0E0,0E0,0E0],"parents":[2147483647,0,0,1,1,2,2,3,3,4,4,5,5,6,6,7,7,8,8,9,9,10,10,11,11,12,12,13,13,14,14],"right_children":[2,4,6,8,10,12,14,16,18,20,22,24,26,28,30,-1,-1,-1,-1,-1,-1,-1,-1,-1,-1,-1,-1,-1,-1,-1,-1],"split_conditions":[3.9E2,3.538345E-1,1.6787136E-1,-3.721205E-1,2.3418967E-2,-7.5952524E-1,5.9432145E-2,-6.836228E-3,-8.014457E-2,4.384813E-2,4.5397064E-1,4.2265156E-1,8.3602655E-1,7.799439E-1,4.3297133E-1,-4.81958E-2,-1.7079037E-1,-9.901886E-2,3.315784E-4,3.8853984E-2,1.4341241E-1,-2.8823657E-2,1.1228251E-1,-2.4949217E-1,1.0517359E0,-2.4859011E-1,2.5026718E-1,-1.3520145E-1,2.6325256E-1,-3.334849E-2,1.9590424E-1],"split_indices":[533,326,108,305,55,56,121,469,108,51,68,487,34,321,431,0,0,0,0,0,0,0,0,0,0,0,0,0,0,0,0],"split_type":[0,0,0,0,0,0,0,0,0,0,0,0,0,0,0,0,0,0,0,0,0,0,0,0,0,0,0,0,0,0,0],"sum_hessian":[1.135066E4,9.9573125E3,1.3933474E3,6.7797573E3,3.1775552E3,3.362295E2,1.0571179E3,8.1608606E2,5.9636714E3,1.7318019E3,1.4457533E3,5.514003E0,3.3071548E2,4.7332028E2,5.837976E2,3.1821582E2,4.9787027E2,7.748844E2,5.1887866E3,9.4549457E2,7.863074E2,1.2081814E3,2.3757181E2,3.0837865E0,2.4302163E0,3.2458023E2,6.13528E0,4.5908136E2,1.4238916E1,4.96128E2,8.766963E1],"tree_param":{"num_deleted":"0","num_feature":"536","num_nodes":"31","size_leaf_vector":"0"}},{"base_weights":[-4.6342548E-2,-8.439733E-2,2.1091804E-1,-6.148881E-1,-6.7175135E-2,5.4062766E-1,7.988188E-2,-6.459408E-1,1.6780044E0,1.0285919E-2,-1.6791338E-1,1.4716233E-1,8.491096E-1,1.6702949E-1,-3.2800546E-1,2.8926495E-1,-2.0440644E-1,-2.1984747E-1,1.4095219E0,-1.7618887E-2,5.196972E-2,2.612027E-4,-7.915473E-2,8.964696E-2,-2.4596703E-1,6.1472278E-2,3.2595766E-1,2.0144537E-1,2.388285E-2,8.1196916E-1,-1.1582243E-1],"categories":[],"categories_nodes":[],"categories_segments":[],"categories_sizes":[],"default_left":[0,0,0,0,0,0,0,0,0,0,0,0,0,0,0,0,0,0,0,0,0,0,0,0,0,0,0,0,0,0,0],"id":12,"left_children":[1,3,5,7,9,11,13,15,17,19,21,23,25,27,29,-1,-1,-1,-1,-1,-1,-1,-1,-1,-1,-1,-1,-1,-1,-1,-1],"loss_changes":[1.09857895E2,8.92612E1,6.2432373E1,2.2958633E1,7.3885895E1,4.977156E1,3.6880016E1,1.7982796E1,3.5359722E1,6.0214855E1,6.664542E1,2.6918564E1,3.4987885E1,3.761904E1,3.3241966E1,0E0,0E0,0E0,0E0,0E0,0E0,0E0,0E0,0E0,0E0,0E0,0E0,0E0,0E0,0E0,0E0],"parents":[2147483647,0,0,1,1,2,2,3,3,4,4,5,5,6,6,7,7,8,8,9,9,10,10,11,11,12,12,13,13,14,14],"right_children":[2,4,6,8,10,12,14,16,18,20,22,24,26,28,30,-1,-1,-1,-1,-1,-1,-1,-1,-1,-1,-1,-1,-1,-1,-1,-1],"split_conditions":[4.9967954E-1,2.4835372E-2,-2.721184E-1,7.813872E-1,-7.871178E-2,1.6231558E-1,5.3423566E-1,-9.136234E-1,7.1376747E-1,3.4291333E-1,1.62E2,5.412889E-1,-3.1320292E-1,-5.4961306E-1,-8.099398E-1,2.8926495E-1,-2.0440644E-1,-2.1984747E-1,1.4095219E0,-1.7618887E-2,5.196972E-2,2.612027E-4,-7.915473E-2,8.964696E-2,-2.4596703E-1,6.1472278E-2,3.2595766E-1,2.0144537E-1,2.388285E-2,8.1196916E-1,-1.1582243E-1],"split_indices":[71,535,389,469,428,341,19,238,421,157,533,64,11,107,38,0,0,0,0,0,0,0,0,0,0,0,0,0,0,0,0],"split_type":[0,0,0,0,0,0,0,0,0,0,0,0,0,0,0,0,0,0,0,0,0,0,0,0,0,0,0,0,0,0,0],"sum_hessian":[1.1218625E4,9.773562E3,1.4450636E3,3.0622708E2,9.467335E3,4.100873E2,1.0349763E3,3.0284393E2,3.3831432E0,5.352508E3,4.114827E3,1.8086852E2,2.292188E2,8.5326215E2,1.8171414E2,5.9530153E0,2.968909E2,2.302614E0,1.0805292E0,3.7604282E3,1.5920796E3,1.491592E3,2.6232349E3,1.56946E2,2.3922523E1,6.222935E1,1.6698944E2,1.25040085E2,7.2822205E2,2.5555913E0,1.7915855E2],"tree_param":{"num_deleted":"0","num_feature":"536","num_nodes":"31","size_leaf_vector":"0"}},{"base_weights":[-2.3291307E-2,1.0154484E-1,-8.039826E-2,-1.4530085E-1,1.759599E-1,-2.651297E-1,-2.9932186E-2,-2.1375915E-2,-4.065575E-1,8.0984965E-2,3.9206266E-1,3.5111034E-1,-3.0297098E-1,-1.4022359E-1,6.916409E-2,6.6807814E-2,-7.357865E-2,2.4063785E-1,-1.4274472E-1,-4.718715E-3,9.4275154E-2,-9.49402E-2,1.4931719E-1,2.1658397E-1,-9.950036E-2,-3.8527984E-2,-1.2628192E-1,-1.3214852E-2,-1.1104074E-1,-6.7796125E-3,7.177595E-2],"categories":[],"categories_nodes":[],"categories_segments":[],"categories_sizes":[],"default_left":[0,0,0,0,0,0,0,0,0,0,0,0,0,0,0,0,0,0,0,0,0,0,0,0,0,0,0,0,0,0,0],"id":13,"left_children":[1,3,5,7,9,11,13,15,17,19,21,23,25,27,29,-1,-1,-1,-1,-1,-1,-1,-1,-1,-1,-1,-1,-1,-1,-1,-1],"loss_changes":[7.936568E1,6.42135E1,7.120117E1,2.6214773E1,5.508422E1,3.832228E1,6.559158E1,3.0131908E1,2.21913E1,4.2119553E1,6.1517395E1,2.436298E1,3.1749084E1,6.278399E1,4.9346695E1,0E0,0E0,0E0,0E0,0E0,0E0,0E0,0E0,0E0,0E0,0E0,0E0,0E0,0E0,0E0,0E0],"parents":[2147483647,0,0,1,1,2,2,3,3,4,4,5,5,6,6,7,7,8,8,9,9,10,10,11,11,12,12,13,13,14,14],"right_children":[2,4,6,8,10,12,14,16,18,20,22,24,26,28,30,-1,-1,-1,-1,-1,-1,-1,-1,-1,-1,-1,-1,-1,-1,-1,-1],"split_conditions":[-1.8405412E-1,-5.110202E-1,-4.14349E-1,-1.2173655E-1,3.4890658E-1,-4.1086966E-1,1.8815634E-1,-3.986491E-2,-4.4718856E-1,1.5552825E-1,-2.330893E-1,5.651606E-2,1.11312166E-1,3.04E2,9.77443E-2,6.6807814E-2,-7.357865E-2,2.4063785E-1,-1.4274472E-1,-4.718715E-3,9.4275154E-2,-9.49402E-2,1.4931719E-1,2.1658397E-1,-9.950036E-2,-3.8527984E-2,-1.2628192E-1,-1.3214852E-2,-1.1104074E-1,-6.7796125E-3,7.177595E-2],"split_indices":[349,191,162,315,263,144,316,260,335,277,341,309,114,533,51,0,0,0,0,0,0,0,0,0,0,0,0,0,0,0,0],"split_type":[0,0,0,0,0,0,0,0,0,0,0,0,0,0,0,0,0,0,0,0,0,0,0,0,0,0,0,0,0,0,0],"sum_hessian":[1.1130629E4,3.4933552E3,7.637274E3,8.0896075E2,2.6843945E3,1.637809E3,5.999465E3,5.494266E2,2.5953415E2,1.8657788E3,8.186158E2,9.4275024E1,1.5435339E3,2.8391523E3,3.1603127E3,2.6286777E2,2.8655884E2,1.3492006E1,2.4604213E2,1.3195952E3,5.461836E2,1.0597659E2,7.1263916E2,6.1056267E1,3.321876E1,6.2334E2,9.2019385E2,2.0026285E3,8.365237E2,2.0533828E3,1.1069298E3],"tree_param":{"num_deleted":"0","num_feature":"536","num_nodes":"31","size_leaf_vector":"0"}},{"base_weights":[-1.0195438E-2,-1.7467412E-1,3.6210034E-2,-2.3544505E-1,1.8278785E-1,7.6913014E-2,-1.620428E-1,-1.23120815E-1,-4.083786E-1,1.1294256E-1,1.4660498E0,9.5144466E-2,-3.6991087E-1,1.1415904E0,-1.8107674E-1,-7.309718E-2,2.4400042E-2,1.0931997E-1,-1.350548E-1,-8.1572235E-2,1.0344499E-1,-2.7358702E-1,5.960835E-1,7.365297E-2,1.05432365E-2,-1.21715106E-1,7.054073E-1,-3.2397452E-1,5.831642E-1,-2.5457913E-2,-1.1866654E-1],"categories":[],"categories_nodes":[],"categories_segments":[],"categories_sizes":[],"default_left":[0,0,0,0,0,0,0,0,0,0,0,0,0,0,0,0,0,0,0,0,0,0,0,0,0,0,0,0,0,0,0],"id":14,"left_children":[1,3,5,7,9,11,13,15,17,19,21,23,25,27,29,-1,-1,-1,-1,-1,-1,-1,-1,-1,-1,-1,-1,-1,-1,-1,-1],"loss_changes":[8.43357E1,5.2861015E1,6.955541E1,4.032464E1,3.1550364E1,5.828683E1,3.663976E1,3.1108938E1,2.6590485E1,3.0137354E1,2.4333866E1,6.1983162E1,2.8288586E1,4.000219E1,2.9848492E1,0E0,0E0,0E0,0E0,0E0,0E0,0E0,0E0,0E0,0E0,0E0,0E0,0E0,0E0,0E0,0E0],"parents":[2147483647,0,0,1,1,2,2,3,3,4,4,5,5,6,6,7,7,8,8,9,9,10,10,11,11,12,12,13,13,14,14],"right_children":[2,4,6,8,10,12,14,16,18,20,22,24,26,28,30,-1,-1,-1,-1,-1,-1,-1,-1,-1,-1,-1,-1,-1,-1,-1,-1],"split_conditions":[-1.6611092E-1,4.1014507E-1,3.7122536E-1,-1.6216949E-1,6.5041584E-1,5.35E2,3.8509708E-2,1.5530092E-1,-6.9730633E-1,-1.5810494E-1,-4.72725E-2,-2.2838748E-1,6.5299803E-1,3.3256513E-1,1.7452806E-1,-7.309718E-2,2.4400042E-2,1.0931997E-1,-1.350548E-1,-8.1572235E-2,1.0344499E-1,-2.7358702E-1,5.960835E-1,7.365297E-2,1.05432365E-2,-1.21715106E-1,7.054073E-1,-3.2397452E-1,5.831642E-1,-2.5457913E-2,-1.1866654E-1],"split_indices":[425,31,510,397,34,533,170,440,163,213,33,285,239,252,452,0,0,0,0,0,0,0,0,0,0,0,0,0,0,0,0],"split_type":[0,0,0,0,0,0,0,0,0,0,0,0,0,0,0,0,0,0,0,0,0,0,0,0,0,0,0,0,0,0,0],"sum_hessian":[1.1047418E4,2.4303977E3,8.6170205E3,2.0775427E3,3.528549E2,7.149732E3,1.4672882E3,1.2605192E3,8.170237E2,3.3567294E2,1.7181967E1,6.8701987E3,2.7953296E2,2.0266418E1,1.4470219E3,7.9288214E2,4.67637E2,4.153326E1,7.754904E2,1.2614038E2,2.0953255E2,2.9524777E0,1.4229489E1,1.9586305E3,4.9115684E3,2.7674252E2,2.7904372E0,5.285385E0,1.4981032E1,9.998675E2,4.471544E2],"tree_param":{"num_deleted":"0","num_feature":"536","num_nodes":"31","size_leaf_vector":"0"}},{"base_weights":[-2.6309669E-2,-1.5691808E-1,2.3677366E-2,-3.7462297E-1,-9.2795834E-2,4.925369E-2,-2.7753416E-1,-5.386498E-2,-5.5882573E-1,-1.1568384E-1,6.2271327E-1,-1.3841034E-2,1.6401191E-1,-2.8388705E-2,-4.7089335E-1,-5.5900875E-2,2.2301555E-1,-1.7718141E-1,2.4454886E-1,8.542284E-2,-4.5945503E-2,3.324389E-1,-1.2270929E-1,-1.6261512E-2,7.5927414E-2,1.292543E-1,2.8373083E-2,6.2672555E-2,-1.3027076E-1,-1.8008815E-1,3.1911794E-3],"categories":[],"categories_nodes":[],"categories_segments":[],"categories_sizes":[],"default_left":[0,0,0,0,0,0,0,0,0,0,0,0,0,0,0,0,0,0,0,0,0,0,0,0,0,0,0,0,0,0,0],"id":15,"left_children":[1,3,5,7,9,11,13,15,17,19,21,23,25,27,29,-1,-1,-1,-1,-1,-1,-1,-1,-1,-1,-1,-1,-1,-1,-1,-1],"loss_changes":[7.207642E1,4.2622055E1,6.1526203E1,4.1028618E1,3.8750076E1,5.3297287E1,3.0099266E1,2.702775E1,1.9750854E1,3.4392136E1,3.719622E1,5.1195145E1,4.8340485E1,2.6497887E1,2.193174E1,0E0,0E0,0E0,0E0,0E0,0E0,0E0,0E0,0E0,0E0,0E0,0E0,0E0,0E0,0E0,0E0],"parents":[2147483647,0,0,1,1,2,2,3,3,4,4,5,5,6,6,7,7,8,8,9,9,10,10,11,11,12,12,13,13,14,14],"right_children":[2,4,6,8,10,12,14,16,18,20,22,24,26,28,30,-1,-1,-1,-1,-1,-1,-1,-1,-1,-1,-1,-1,-1,-1,-1,-1],"split_conditions":[-1.3352807E-1,-5.8756366E-2,4.5519486E-1,2.02E2,9.5074564E-1,2.9831728E-1,8.005018E-2,6.0197675E-1,5.851799E-1,-5.403577E-1,1.6815148E-1,3.876693E-1,1.15E2,7.55708E-2,2.513911E-1,-5.5900875E-2,2.2301555E-1,-1.7718141E-1,2.4454886E-1,8.542284E-2,-4.5945503E-2,3.324389E-1,-1.2270929E-1,-1.6261512E-2,7.5927414E-2,1.292543E-1,2.8373083E-2,6.2672555E-2,-1.3027076E-1,-1.8008815E-1,3.1911794E-3],"split_indices":[388,216,61,533,233,157,15,1,208,510,510,431,533,12,431,0,0,0,0,0,0,0,0,0,0,0,0,0,0,0,0],"split_type":[0,0,0,0,0,0,0,0,0,0,0,0,0,0,0,0,0,0,0,0,0,0,0,0,0,0,0,0,0,0,0],"sum_hessian":[1.103832E4,3.0547058E3,7.9836143E3,6.939151E2,2.3607908E3,7.359541E3,6.2407324E2,2.5360217E2,4.403129E2,2.288426E3,7.23648E1,4.749254E3,2.6102874E3,2.7319952E2,3.5087372E2,2.1812479E2,3.547739E1,4.309164E2,9.396488E0,1.9524133E2,2.0931846E3,4.916129E1,2.3203505E1,4.126122E3,6.2313196E2,5.379113E2,2.072376E3,1.7270491E2,1.0049462E2,2.7636127E2,7.451246E1],"tree_param":{"num_deleted":"0","num_feature":"536","num_nodes":"31","size_leaf_vector":"0"}},{"base_weights":[-3.2520674E-3,-1.1831341E-1,5.904597E-2,-2.21697E-1,-1.0828883E-2,5.242495E-1,3.9797515E-2,-2.3494014E-1,1.3824148E0,-2.2833954E-1,7.52064E-2,6.338845E-1,-5.27015E-1,1.1459328E-1,-9.524922E-2,-7.346192E-2,4.0103772E-1,8.208788E-1,1.3676883E-1,-8.950694E-2,1.6388977E-1,1.4729126E-1,7.0547475E-3,3.7841648E-2,2.4447294E-1,-2.76233E-1,2.9684103E-1,5.2924935E-2,-2.648176E-2,1.804864E-2,-5.985065E-2],"categories":[],"categories_nodes":[],"categories_segments":[],"categories_sizes":[],"default_left":[0,0,0,0,0,0,0,0,0,0,0,0,0,0,0,0,0,0,0,0,0,0,0,0,0,0,0,0,0,0,0],"id":16,"left_children":[1,3,5,7,9,11,13,15,17,19,21,23,25,27,29,-1,-1,-1,-1,-1,-1,-1,-1,-1,-1,-1,-1,-1,-1,-1,-1],"loss_changes":[7.841055E1,4.2693615E1,6.3524956E1,4.192917E1,3.528916E1,3.2822433E1,6.8855606E1,3.0665527E1,1.9049904E1,2.9151676E1,2.903065E1,2.3401184E1,1.7133316E1,5.5033596E1,3.9381657E1,0E0,0E0,0E0,0E0,0E0,0E0,0E0,0E0,0E0,0E0,0E0,0E0,0E0,0E0,0E0,0E0],"parents":[2147483647,0,0,1,1,2,2,3,3,4,4,5,5,6,6,7,7,8,8,9,9,10,10,11,11,12,12,13,13,14,14],"right_children":[2,4,6,8,10,12,14,16,18,20,22,24,26,28,30,-1,-1,-1,-1,-1,-1,-1,-1,-1,-1,-1,-1,-1,-1,-1,-1],"split_conditions":[-1.0605826E-1,1.1039451E-1,7.2E1,1.3672332E0,-2.8426075E-1,5.754412E-1,2.6876166E-1,1.0955185E0,-2.4819322E-1,5.806437E-1,-7.481244E-1,4.909189E-3,3.877275E-1,3.417352E-1,-2.2499952E-2,-7.346192E-2,4.0103772E-1,8.208788E-1,1.3676883E-1,-8.950694E-2,1.6388977E-1,1.4729126E-1,7.0547475E-3,3.7841648E-2,2.4447294E-1,-2.76233E-1,2.9684103E-1,5.2924935E-2,-2.648176E-2,1.804864E-2,-5.985065E-2],"split_indices":[80,125,533,326,365,204,399,282,176,353,360,59,333,511,498,0,0,0,0,0,0,0,0,0,0,0,0,0,0,0,0],"split_type":[0,0,0,0,0,0,0,0,0,0,0,0,0,0,0,0,0,0,0,0,0,0,0,0,0,0,0,0,0,0,0],"sum_hessian":[1.0936851E4,3.841287E3,7.0955635E3,1.9574545E3,1.8838328E3,2.808816E2,6.8146816E3,1.9422731E3,1.51813755E1,5.334737E2,1.350359E3,2.5471475E2,2.6166842E1,4.38577E3,2.4289116E3,1.9309144E3,1.1358656E1,5.3746123E0,9.806764E0,4.898158E2,4.365791E1,1.4838124E2,1.2019778E3,6.739102E1,1.8732373E2,2.1084885E1,5.0819564E0,3.3614897E3,1.0242803E3,9.753566E2,1.453555E3],"tree_param":{"num_deleted":"0","num_feature":"536","num_nodes":"31","size_leaf_vector":"0"}},{"base_weights":[-1.1619636E-2,-1.1650984E-1,4.8770405E-2,-2.0599453E-1,4.8009656E-2,1.8839738E-1,-1.6595319E-2,-2.3513402E-1,3.3749896E-1,-1.3878196E-1,1.7174238E-1,1.676173E-2,3.8483438E-1,-7.981038E-2,1.6690291E-1,-4.4119276E-2,-1.1986393E-1,5.4882158E-2,4.872913E-1,-2.1137875E-2,-2.6386625E-1,1.06825225E-1,3.1542357E-3,-6.786742E-2,6.3221134E-2,1.8692863E-1,4.3626435E-2,-9.723128E-3,-8.9212455E-2,4.454136E-2,7.5226563E-1],"categories":[],"categories_nodes":[],"categories_segments":[],"categories_sizes":[],"default_left":[0,0,0,0,0,0,0,0,0,0,0,0,0,0,0,0,0,0,0,0,0,0,0,0,0,0,0,0,0,0,0],"id":17,"left_children":[1,3,5,7,9,11,13,15,17,19,21,23,25,27,29,-1,-1,-1,-1,-1,-1,-1,-1,-1,-1,-1,-1,-1,-1,-1,-1],"loss_changes":[6.9165436E1,5.8744728E1,6.3248787E1,4.1006767E1,3.2527325E1,7.449587E1,5.4775322E1,3.5465225E1,2.5939182E1,2.832722E1,2.515239E1,5.5681923E1,5.8684616E1,3.620763E1,5.1828022E1,0E0,0E0,0E0,0E0,0E0,0E0,0E0,0E0,0E0,0E0,0E0,0E0,0E0,0E0,0E0,0E0],"parents":[2147483647,0,0,1,1,2,2,3,3,4,4,5,5,6,6,7,7,8,8,9,9,10,10,11,11,12,12,13,13,14,14],"right_children":[2,4,6,8,10,12,14,16,18,20,22,24,26,28,30,-1,-1,-1,-1,-1,-1,-1,-1,-1,-1,-1,-1,-1,-1,-1,-1],"split_conditions":[6.457472E-3,1.3762085E-1,-3.0340716E-1,6.938318E-1,-2.8785965E-1,-1.1389479E-1,2.4847521E-1,4.4829782E-2,7.0586175E-1,4.37E2,3.3487417E-2,2.9159775E-1,-2.1271105E-1,2.305767E-1,7.597731E-1,-4.4119276E-2,-1.1986393E-1,5.4882158E-2,4.872913E-1,-2.1137875E-2,-2.6386625E-1,1.06825225E-1,3.1542357E-3,-6.786742E-2,6.3221134E-2,1.8692863E-1,4.3626435E-2,-9.723128E-3,-8.9212455E-2,4.454136E-2,7.5226563E-1],"split_indices":[429,411,366,189,486,67,266,306,353,533,465,375,390,56,246,0,0,0,0,0,0,0,0,0,0,0,0,0,0,0,0],"split_type":[0,0,0,0,0,0,0,0,0,0,0,0,0,0,0,0,0,0,0,0,0,0,0,0,0,0,0,0,0,0,0],"sum_hessian":[1.0917254E4,3.988603E3,6.928651E3,2.5832703E3,1.4053326E3,2.2087288E3,4.719922E3,2.4523542E3,1.3091602E2,5.599258E2,8.4540686E2,1.1793575E3,1.0293711E3,3.5109622E3,1.2089598E3,1.5981681E3,8.541862E2,1.17897484E2,1.3018525E1,5.136466E2,4.627918E1,3.9386703E2,4.515398E2,5.2346466E2,6.5589294E2,5.1512354E2,5.142476E2,2.8838232E3,6.2713885E2,1.2005693E3,8.390596E0],"tree_param":{"num_deleted":"0","num_feature":"536","num_nodes":"31","size_leaf_vector":"0"}},{"base_weights":[-1.757976E-2,5.1893136E-3,-2.526743E-1,-5.209699E-2,9.8362505E-2,-3.890801E-1,1.6387782E-1,7.912242E-3,-1.7309438E-1,1.6510679E-1,-1.05169915E-1,-1.3514377E-1,-6.0517067E-1,7.779532E-2,1.4891199E0,1.0648859E-1,-7.137479E-3,1.002504E-1,-6.3015945E-2,8.483521E-2,6.5964726E-3,-2.0307618E-1,-1.3491995E-2,-5.0504796E-2,1.1074212E0,-2.0764664E-1,2.1622617E-2,-1.03301324E-1,1.0446223E-1,-3.0690718E-1,5.948498E-1],"categories":[],"categories_nodes":[],"categories_segments":[],"categories_sizes":[],"default_left":[0,0,0,0,0,0,0,0,0,0,0,0,0,0,0,0,0,0,0,0,0,0,0,0,0,0,0,0,0,0,0],"id":18,"left_children":[1,3,5,7,9,11,13,15,17,19,21,23,25,27,29,-1,-1,-1,-1,-1,-1,-1,-1,-1,-1,-1,-1,-1,-1,-1,-1],"loss_changes":[5.7985962E1,5.2723553E1,5.4412785E1,4.4416664E1,5.11078E1,3.9473633E1,2.6882275E1,4.500975E1,3.8091022E1,4.7698883E1,3.1955677E1,4.2894157E1,2.2975266E1,2.5607237E1,1.9863302E1,0E0,0E0,0E0,0E0,0E0,0E0,0E0,0E0,0E0,0E0,0E0,0E0,0E0,0E0,0E0,0E0],"parents":[2147483647,0,0,1,1,2,2,3,3,4,4,5,5,6,6,7,7,8,8,9,9,10,10,11,11,12,12,13,13,14,14],"right_children":[2,4,6,8,10,12,14,16,18,20,22,24,26,28,30,-1,-1,-1,-1,-1,-1,-1,-1,-1,-1,-1,-1,-1,-1,-1,-1],"split_conditions":[3.2493126E-1,1.4103141E-1,2.9830894E-1,8.5944615E-2,2.3871352E-1,-1.3684888E-1,7.0146054E-1,-5.190889E-1,-4.387322E-1,7.2070844E-3,-3.8222736E-1,1.0507653E0,4.4744763E-1,-1.9873453E-3,-2.815482E-1,1.0648859E-1,-7.137479E-3,1.002504E-1,-6.3015945E-2,8.483521E-2,6.5964726E-3,-2.0307618E-1,-1.3491995E-2,-5.0504796E-2,1.1074212E0,-2.0764664E-1,2.1622617E-2,-1.03301324E-1,1.0446223E-1,-3.0690718E-1,5.948498E-1],"split_indices":[464,190,242,180,201,296,274,389,405,20,263,209,338,222,500,0,0,0,0,0,0,0,0,0,0,0,0,0,0,0,0],"split_type":[0,0,0,0,0,0,0,0,0,0,0,0,0,0,0,0,0,0,0,0,0,0,0,0,0,0,0,0,0,0,0],"sum_hessian":[1.0831411E4,9.875901E3,9.555101E2,6.116E3,3.759901E3,7.198508E2,2.3565926E2,4.0889836E3,2.0270165E3,2.831543E3,9.283577E2,3.3169208E2,3.8815875E2,2.2227956E2,1.3379699E1,3.4141782E2,3.747566E3,1.371112E2,1.8899053E3,1.5533484E3,1.2781947E3,8.745548E1,8.409023E2,3.2978632E2,1.9057736E0,3.4395898E2,4.4199745E1,8.668482E1,1.3559473E2,2.0215259E0,1.1358173E1],"tree_param":{"num_deleted":"0","num_feature":"536","num_nodes":"31","size_leaf_vector":"0"}},{"base_weights":[3.6849065E-3,-1.2071714E-2,3.9312324E-1,-1.02059774E-1,6.509925E-2,1.9894949E-1,9.9126285E-1,-1.0159374E-2,-1.9603644E-1,1.4592768E-1,-3.9990418E-2,1.9791998E-2,1.0843017E0,-8.076569E-2,1.2966975E0,-2.1803046E-2,6.951794E-2,-8.423649E-2,-6.780622E-3,3.4589447E-2,2.3706055E-1,-3.7529994E-2,4.12042E-2,1.7154011E-1,-4.5767717E-2,1.6017067E-1,6.6258657E-1,-2.027139E-1,2.815866E-1,-1.9646926E-1,4.2780462E-1],"categories":[],"categories_nodes":[],"categories_segments":[],"categories_sizes":[],"default_left":[0,0,0,0,0,0,0,0,0,0,0,0,0,0,0,0,0,0,0,0,0,0,0,0,0,0,0,0,0,0,0],"id":19,"left_children":[1,3,5,7,9,11,13,15,17,19,21,23,25,27,29,-1,-1,-1,-1,-1,-1,-1,-1,-1,-1,-1,-1,-1,-1,-1,-1],"loss_changes":[6.639036E1,7.2221436E1,4.866748E1,4.1463245E1,4.756279E1,5.0557045E1,3.378389E1,3.6740097E1,3.488459E1,6.2364113E1,3.6766724E1,2.541552E1,3.2019253E1,1.5037405E1,2.1151474E1,0E0,0E0,0E0,0E0,0E0,0E0,0E0,0E0,0E0,0E0,0E0,0E0,0E0,0E0,0E0,0E0],"parents":[2147483647,0,0,1,1,2,2,3,3,4,4,5,5,6,6,7,7,8,8,9,9,10,10,11,11,12,12,13,13,14,14],"right_children":[2,4,6,8,10,12,14,16,18,20,22,24,26,28,30,-1,-1,-1,-1,-1,-1,-1,-1,-1,-1,-1,-1,-1,-1,-1,-1],"split_conditions":[1E0,8.243537E-2,-1.1510177E-1,-8.599605E-3,1.21896826E-1,3.4741667E-1,-6.0740863E-3,1.2950191E-1,2.6925927E-1,7.227394E-1,2.6342985E-1,2.7920494E-3,4.309447E-1,9.626358E-2,-4.9151286E-1,-2.1803046E-2,6.951794E-2,-8.423649E-2,-6.780622E-3,3.4589447E-2,2.3706055E-1,-3.7529994E-2,4.12042E-2,1.7154011E-1,-4.5767717E-2,1.6017067E-1,6.6258657E-1,-2.027139E-1,2.815866E-1,-1.9646926E-1,4.2780462E-1],"split_indices":[531,68,166,230,419,190,361,148,374,353,411,65,274,165,53,0,0,0,0,0,0,0,0,0,0,0,0,0,0,0,0],"split_type":[0,0,0,0,0,0,0,0,0,0,0,0,0,0,0,0,0,0,0,0,0,0,0,0,0,0,0,0,0,0,0],"sum_hessian":[1.0817629E4,1.03979E4,4.1972858E2,4.800166E3,5.5977344E3,3.178709E2,1.0185765E2,2.4274524E3,2.3727136E3,3.1638833E3,2.433851E3,2.652234E2,5.2647533E1,2.2748716E1,7.910893E1,1.9294653E3,4.9798706E2,1.5934341E3,7.792794E2,3.0214204E3,1.4246284E2,1.6447717E3,7.890793E2,6.25547E1,2.0266869E2,3.633498E1,1.6312557E1,1.4577788E1,8.170927E0,4.663637E0,7.44453E1],"tree_param":{"num_deleted":"0","num_feature":"536","num_nodes":"31","size_leaf_vector":"0"}},{"base_weights":[7.842839E-3,-7.807572E-1,1.6092865E-2,7.000379E-1,-8.457103E-1,-1.8731618E-2,1.856709E-1,-2.3247345E-1,9.8762065E-1,-8.8109744E-1,3.252772E-1,-5.555659E-2,1.183673E-1,1.4491601E-2,3.2387328E-1,-2.7498254E-1,1.4339206E-1,3.9096127E-4,-5.0705265E-2,3.072908E-2,4.7550517E-1,-2.6774209E-2,1.2271028E-1,1.4325154E-1,1.7345712E-2],"categories":[],"categories_nodes":[],"categories_segments":[],"categories_sizes":[],"default_left":[0,0,0,0,0,0,0,0,0,0,0,0,0,0,0,0,0,0,0,0,0,0,0,0,0],"id":20,"left_children":[1,3,5,7,9,11,13,-1,-1,15,-1,17,19,21,23,-1,-1,-1,-1,-1,-1,-1,-1,-1,-1],"loss_changes":[6.954679E1,1.123687E1,6.2471996E1,2.2422394E1,8.2272415E0,4.4317585E1,4.2633045E1,0E0,0E0,5.5109634E0,0E0,4.463819E1,4.3281372E1,3.3031536E1,4.0730606E1,0E0,0E0,0E0,0E0,0E0,0E0,0E0,0E0,0E0,0E0],"parents":[2147483647,0,0,1,1,2,2,3,3,4,4,5,5,6,6,9,9,11,11,12,12,13,13,14,14],"right_children":[2,4,6,8,10,12,14,-1,-1,16,-1,18,20,22,24,-1,-1,-1,-1,-1,-1,-1,-1,-1,-1],"split_conditions":[3.082408E-3,-6.9749606E-1,3.9224178E-1,4.6775416E-1,1.226652E0,3.60783E-1,1.2527919E-1,-2.3247345E-1,9.8762065E-1,9.087252E-1,3.252772E-1,5.6738902E-2,1.5786536E0,6.1373955E-1,4.962702E-3,-2.7498254E-1,1.4339206E-1,3.9096127E-4,-5.0705265E-2,3.072908E-2,4.7550517E-1,-2.6774209E-2,1.2271028E-1,1.4325154E-1,1.7345712E-2],"split_indices":[535,428,31,1,280,371,263,0,0,338,0,390,249,316,12,0,0,0,0,0,0,0,0,0,0],"split_type":[0,0,0,0,0,0,0,0,0,0,0,0,0,0,0,0,0,0,0,0,0,0,0,0,0],"sum_hessian":[1.0686755E4,1.0967371E2,1.0577081E4,4.1976824E0,1.0547603E2,8.77578E3,1.8013014E3,3.1221302E0,1.0755522E0,1.0411056E2,1.3654691E0,6.9181494E3,1.8576305E3,8.051441E2,9.961573E2,1.0177681E2,2.333752E0,4.6092563E3,2.308893E3,1.8387202E3,1.891022E1,6.3813104E2,1.6701303E2,6.3099646E2,3.6516086E2],"tree_param":{"num_deleted":"0","num_feature":"536","num_nodes":"25","size_leaf_vector":"0"}},{"base_weights":[-1.1242053E-2,-8.074938E-2,6.7249715E-2,-1.5662202E-1,2.0552523E-2,1.08938E-1,-1.7876007E-1,-2.0206371E-1,1.1938392E-1,1.7123016E-3,7.908662E-1,1.7136453E-1,-5.2741863E-2,-1.6052565E-2,-3.7646377E-1,8.603819E-2,-7.0739344E-2,1.4670894E-2,3.6671144E-1,1.9666079E-1,-5.880311E-3,-7.954718E-2,3.9478332E-1,6.1525766E-2,-8.693576E-2,-5.2724276E-2,3.5476934E-2,-5.009814E-2,1.3561782E-1,-1.2399699E-3,-1.8347569E-1],"categories":[],"categories_nodes":[],"categories_segments":[],"categories_sizes":[],"default_left":[0,0,0,0,0,0,0,0,0,0,0,0,0,0,0,0,0,0,0,0,0,0,0,0,0,0,0,0,0,0,0],"id":21,"left_children":[1,3,5,7,9,11,13,15,17,19,21,23,25,27,29,-1,-1,-1,-1,-1,-1,-1,-1,-1,-1,-1,-1,-1,-1,-1,-1],"loss_changes":[5.8809086E1,4.394241E1,5.1939438E1,4.102128E1,3.554078E1,4.370797E1,2.3603714E1,4.6358788E1,3.5911655E1,3.3339363E1,3.276763E1,4.8636093E1,2.540437E1,2.859674E1,2.9000385E1,0E0,0E0,0E0,0E0,0E0,0E0,0E0,0E0,0E0,0E0,0E0,0E0,0E0,0E0,0E0,0E0],"parents":[2147483647,0,0,1,1,2,2,3,3,4,4,5,5,6,6,7,7,8,8,9,9,10,10,11,11,12,12,13,13,14,14],"right_children":[2,4,6,8,10,12,14,16,18,20,22,24,26,28,30,-1,-1,-1,-1,-1,-1,-1,-1,-1,-1,-1,-1,-1,-1,-1,-1],"split_conditions":[1.2685066E-1,2.636893E-1,4.7563064E-1,4.3285993E-1,5.4426074E-1,1.9571255E-1,5.706275E-2,-6.0111165E-1,1.0667473E0,-7.350665E-1,-2.145789E-1,5.546092E-1,1.3877325E-1,2.660683E-1,7.098189E-4,8.603819E-2,-7.0739344E-2,1.4670894E-2,3.6671144E-1,1.9666079E-1,-5.880311E-3,-7.954718E-2,3.9478332E-1,6.1525766E-2,-8.693576E-2,-5.2724276E-2,3.5476934E-2,-5.009814E-2,1.3561782E-1,-1.2399699E-3,-1.8347569E-1],"split_indices":[292,59,163,310,377,453,268,63,460,510,154,510,228,236,178,0,0,0,0,0,0,0,0,0,0,0,0,0,0,0,0],"split_type":[0,0,0,0,0,0,0,0,0,0,0,0,0,0,0,0,0,0,0,0,0,0,0,0,0,0,0,0,0,0,0],"sum_hessian":[1.0777284E4,5.71575E3,5.061534E3,3.267744E3,2.448006E3,4.3285796E3,7.329545E2,2.8060269E3,4.6171698E2,2.390541E3,5.746529E1,3.1227778E3,1.2058016E3,4.0265555E2,3.3029898E2,1.8064906E2,2.625378E3,4.3496692E2,2.6750063E1,7.452737E1,2.3160134E3,1.9248407E1,3.821688E1,2.9105042E3,2.1227362E2,7.0130096E2,5.0450073E2,3.049641E2,9.769145E1,1.282401E2,2.0205887E2],"tree_param":{"num_deleted":"0","num_feature":"536","num_nodes":"31","size_leaf_vector":"0"}},{"base_weights":[-4.2155683E-3,-1.0268374E-1,5.1616296E-2,-3.010927E-1,-4.8044756E-2,6.4869486E-2,-5.151886E-1,1.6874822E-2,-3.9584398E-1,-2.99951E-2,-6.2135607E-1,4.044322E-1,4.631127E-2,2.353188E0,-5.7600945E-1,-2.7078686E-2,3.535177E-1,-1.629779E-1,-5.7157714E-2,-4.3208204E-2,1.7741732E-2,-2.8677985E-1,-6.0825188E-2,2.992835E-1,6.78125E-2,-7.277849E-3,4.1630093E-2,1.0943406E0,-4.9194355E-2,-1.8945268E-1,5.708254E-1],"categories":[],"categories_nodes":[],"categories_segments":[],"categories_sizes":[],"default_left":[0,0,0,0,0,0,0,0,0,0,0,0,0,0,0,0,0,0,0,0,0,0,0,0,0,0,0,0,0,0,0],"id":22,"left_children":[1,3,5,7,9,11,13,15,17,19,21,23,25,27,29,-1,-1,-1,-1,-1,-1,-1,-1,-1,-1,-1,-1,-1,-1,-1,-1],"loss_changes":[5.9026924E1,4.210187E1,5.1504005E1,2.5273804E1,3.1515005E1,4.217823E1,2.8686306E1,2.418559E1,1.9454094E1,3.0047073E1,1.2825695E1,3.6479683E1,4.1436802E1,1.1839354E1,2.2416634E1,0E0,0E0,0E0,0E0,0E0,0E0,0E0,0E0,0E0,0E0,0E0,0E0,0E0,0E0,0E0,0E0],"parents":[2147483647,0,0,1,1,2,2,3,3,4,4,5,5,6,6,7,7,8,8,9,9,10,10,11,11,12,12,13,13,14,14],"right_children":[2,4,6,8,10,12,14,16,18,20,22,24,26,28,30,-1,-1,-1,-1,-1,-1,-1,-1,-1,-1,-1,-1,-1,-1,-1,-1],"split_conditions":[-7.658664E-2,-1.9136734E-1,5.89E2,-1.7415361E-1,6.6562825E-1,-6.5353554E-1,-7.2391945E-1,8.2298374E-1,1.4881006E-1,3.0468803E-2,1.39814615E-2,-3.5707757E-1,6.9047734E-2,2.707641E-1,7.045059E-1,-2.7078686E-2,3.535177E-1,-1.629779E-1,-5.7157714E-2,-4.3208204E-2,1.7741732E-2,-2.8677985E-1,-6.0825188E-2,2.992835E-1,6.78125E-2,-7.277849E-3,4.1630093E-2,1.0943406E0,-4.9194355E-2,-1.8945268E-1,5.708254E-1],"split_indices":[229,431,533,348,191,349,199,271,237,448,376,296,456,189,143,0,0,0,0,0,0,0,0,0,0,0,0,0,0,0,0],"split_type":[0,0,0,0,0,0,0,0,0,0,0,0,0,0,0,0,0,0,0,0,0,0,0,0,0,0,0,0,0,0,0],"sum_hessian":[1.0734769E4,3.8839607E3,6.8508076E3,8.376642E2,3.0462966E3,6.695145E3,1.556622E2,1.9249818E2,6.45166E2,2.954337E3,9.1959564E1,3.4587225E2,6.349273E3,2.4495258E0,1.5321268E2,1.7708623E2,1.5411952E1,3.7457812E2,2.705879E2,1.2958715E3,1.6584656E3,5.0396107E1,4.156346E1,7.890551E1,2.6696674E2,3.6012234E3,2.7480496E3,1.3209668E0,1.1285591E0,1.5058629E2,2.6263964E0],"tree_param":{"num_deleted":"0","num_feature":"536","num_nodes":"31","size_leaf_vector":"0"}},{"base_weights":[-1.7048531E-3,-2.9901496E-1,1.4981637E-2,-1.5656383E-1,-6.172057E-1,5.1299684E-2,-1.0999538E-1,3.084375E-1,-2.7849326E-1,-7.232645E-1,3.6517048E-1,-7.844744E-2,9.744537E-2,-1.7982179E-1,1.9373682E-1,8.4224206E-1,6.192212E-2,-9.108119E-2,5.2990544E-1,3.5250984E-2,-2.5091675E-1,-1.2232324E-1,5.828942E-1,-8.8126324E-2,-7.4911076E-3,5.7532214E-2,1.721348E-3,-6.1240952E-2,1.3935795E-1,3.0411644E-2,2.890165E-1],"categories":[],"categories_nodes":[],"categories_segments":[],"categories_sizes":[],"default_left":[0,0,0,0,0,0,0,0,0,0,0,0,0,0,0,0,0,0,0,0,0,0,0,0,0,0,0,0,0,0,0],"id":23,"left_children":[1,3,5,7,9,11,13,15,17,19,21,23,25,27,29,-1,-1,-1,-1,-1,-1,-1,-1,-1,-1,-1,-1,-1,-1,-1,-1],"loss_changes":[5.3273376E1,2.5769337E1,4.615622E1,2.2511082E1,1.8615356E1,4.7181343E1,4.8596855E1,2.0492136E1,1.6653387E1,1.5250092E1,2.2532707E1,2.3799206E1,5.0279785E1,2.9271046E1,3.0362717E1,0E0,0E0,0E0,0E0,0E0,0E0,0E0,0E0,0E0,0E0,0E0,0E0,0E0,0E0,0E0,0E0],"parents":[2147483647,0,0,1,1,2,2,3,3,4,4,5,5,6,6,7,7,8,8,9,9,10,10,11,11,12,12,13,13,14,14],"right_children":[2,4,6,8,10,12,14,16,18,20,22,24,26,28,30,-1,-1,-1,-1,-1,-1,-1,-1,-1,-1,-1,-1,-1,-1,-1,-1],"split_conditions":[-5.24038E-1,2.1526486E-1,3.0338115E-1,-6.136523E-1,5.645751E-1,-3.8912776E-1,1.780571E-1,-6.0608226E-1,1.0598687E0,-5.452052E-1,2.7884245E-1,7.0362754E-2,1.2724067E-1,7.0901287E-1,6.467491E-1,8.4224206E-1,6.192212E-2,-9.108119E-2,5.2990544E-1,3.5250984E-2,-2.5091675E-1,-1.2232324E-1,5.828942E-1,-8.8126324E-2,-7.4911076E-3,5.7532214E-2,1.721348E-3,-6.1240952E-2,1.3935795E-1,3.0411644E-2,2.890165E-1],"split_indices":[305,497,503,479,126,67,432,295,87,423,45,108,303,43,506,0,0,0,0,0,0,0,0,0,0,0,0,0,0,0,0],"split_type":[0,0,0,0,0,0,0,0,0,0,0,0,0,0,0,0,0,0,0,0,0,0,0,0,0,0,0,0,0,0,0],"sum_hessian":[1.0736398E4,5.6965735E2,1.0166741E4,3.945244E2,1.7513297E2,7.8780005E3,2.28874E3,8.164102E1,3.128834E2,1.5830579E2,1.6827179E1,2.0666191E3,5.811382E3,1.8612554E3,4.274847E2,2.1623542E0,7.947867E1,3.09929E2,2.9544005E0,1.8769304E1,1.3953648E2,1.1792176E1,5.0350027E0,4.102791E2,1.65634E3,2.8642136E3,2.9471682E3,1.7942325E3,6.702281E1,3.8269034E2,4.4794365E1],"tree_param":{"num_deleted":"0","num_feature":"536","num_nodes":"31","size_leaf_vector":"0"}},{"base_weights":[-6.059764E-3,-3.681655E-2,1.1866461E-1,-2.5939723E-2,-4.7249654E-1,3.2469934E-1,1.3212794E-2,-6.0756553E-2,1.04501605E-1,-1.9181508E-1,-8.082815E-1,4.1064343E-1,-1.9025141E-1,-2.8800276E-1,1.0624254E-1,1.9382887E-3,-4.7404263E-2,-1.1835569E-3,9.280474E-2,-9.9087395E-2,4.2067912E-1,3.78122E-1,-2.6452833E-1,1.5022856E-1,-3.9634675E-2,3.154915E-1,-1.0976676E-1,-1.0076121E-1,4.4122064E-1,1.23979755E-1,2.36587E-3],"categories":[],"categories_nodes":[],"categories_segments":[],"categories_sizes":[],"default_left":[0,0,0,0,0,0,0,0,0,0,0,0,0,0,0,0,0,0,0,0,0,0,0,0,0,0,0,0,0,0,0],"id":24,"left_children":[1,3,5,7,9,11,13,15,17,19,21,23,25,27,29,-1,-1,-1,-1,-1,-1,-1,-1,-1,-1,-1,-1,-1,-1,-1,-1],"loss_changes":[4.1287937E1,4.0901245E1,4.6254143E1,3.826651E1,1.9659191E1,3.197641E1,3.952342E1,4.3476284E1,3.9438416E1,2.603037E1,1.5614258E1,3.0293228E1,2.3019424E1,2.8514206E1,3.2535267E1,0E0,0E0,0E0,0E0,0E0,0E0,0E0,0E0,0E0,0E0,0E0,0E0,0E0,0E0,0E0,0E0],"parents":[2147483647,0,0,1,1,2,2,3,3,4,4,5,5,6,6,7,7,8,8,9,9,10,10,11,11,12,12,13,13,14,14],"right_children":[2,4,6,8,10,12,14,16,18,20,22,24,26,28,30,-1,-1,-1,-1,-1,-1,-1,-1,-1,-1,-1,-1,-1,-1,-1,-1],"split_conditions":[5.290581E-1,5.666212E-1,-2.9608203E-2,3.2618856E-1,2.17E2,3.293461E-1,-2.711644E-1,-5.336442E-2,1.3869189E-1,4.485524E-1,-7.0587426E-1,2.8821787E-1,-5.680144E-1,5.506884E-1,-2.1194531E-1,1.9382887E-3,-4.7404263E-2,-1.1835569E-3,9.280474E-2,-9.9087395E-2,4.2067912E-1,3.78122E-1,-2.6452833E-1,1.5022856E-1,-3.9634675E-2,3.154915E-1,-1.0976676E-1,-1.0076121E-1,4.4122064E-1,1.23979755E-1,2.36587E-3],"split_indices":[341,56,303,34,533,4,458,107,392,31,394,273,482,49,349,0,0,0,0,0,0,0,0,0,0,0,0,0,0,0,0],"split_type":[0,0,0,0,0,0,0,0,0,0,0,0,0,0,0,0,0,0,0,0,0,0,0,0,0,0,0,0,0,0,0],"sum_hessian":[1.0760801E4,8.632699E3,2.1281018E3,8.423466E3,2.092337E2,7.197516E2,1.4083502E3,6.649219E3,1.7742462E3,1.1482398E2,9.440972E1,6.169814E2,1.027702E2,3.318327E2,1.0765175E3,3.9323765E3,2.7168428E3,1.1607323E3,6.135139E2,1.0637599E2,8.4479885E0,2.6843188E0,9.17254E1,5.291928E2,8.7788574E1,1.2115695E1,9.06545E1,3.2382803E2,8.004662E0,2.604161E2,8.161014E2],"tree_param":{"num_deleted":"0","num_feature":"536","num_nodes":"31","size_leaf_vector":"0"}},{"base_weights":[9.820731E-4,7.311098E-2,-5.517978E-2,-7.749856E-2,1.3453797E-1,1.19696446E-1,-1.033763E-1,-9.6683405E-2,1.0002692E0,-3.1095672E-1,1.6511601E-1,-7.574874E-2,2.9392406E-1,-6.313104E-3,-1.77111E-1,-6.115857E-2,2.7618553E-2,-9.702092E-2,4.7341728E-1,-1.24916926E-1,1.9688842E-1,4.1187167E-2,2.1018127E-1,-8.539138E-2,4.354678E-2,1.6792743E-1,3.178425E-2,-4.9874283E-2,2.7281735E-2,8.427714E-2,-6.328949E-2],"categories":[],"categories_nodes":[],"categories_segments":[],"categories_sizes":[],"default_left":[0,0,0,0,0,1,0,1,0,0,0,0,0,0,0,0,0,0,0,0,0,0,0,0,0,0,0,0,0,0,0],"id":25,"left_children":[1,3,5,7,9,11,13,15,17,19,21,23,25,27,29,-1,-1,-1,-1,-1,-1,-1,-1,-1,-1,-1,-1,-1,-1,-1,-1],"loss_changes":[4.353263E1,4.3533676E1,5.093669E1,2.8289867E1,4.5576466E1,4.4489906E1,3.390194E1,2.7137962E1,1.8815868E1,2.2198927E1,4.651082E1,2.8478275E1,3.4451317E1,3.183976E1,4.180253E1,0E0,0E0,0E0,0E0,0E0,0E0,0E0,0E0,0E0,0E0,0E0,0E0,0E0,0E0,0E0,0E0],"parents":[2147483647,0,0,1,1,2,2,3,3,4,4,5,5,6,6,7,7,8,8,9,9,10,10,11,11,12,12,13,13,14,14],"right_children":[2,4,6,8,10,12,14,16,18,20,22,24,26,28,30,-1,-1,-1,-1,-1,-1,-1,-1,-1,-1,-1,-1,-1,-1,-1,-1],"split_conditions":[1.4794146E-1,-3.04113E-1,-1.7044549E-1,1.1576418E0,-3.4719566E-1,3.8272008E-1,-2.4652234E-1,4.7931322E-1,-7.10572E-2,3.738666E-1,5.9064585E-1,-1.0856172E-1,-4.6515495E-2,1.6279446E-1,-2.4524097E-1,-6.115857E-2,2.7618553E-2,-9.702092E-2,4.7341728E-1,-1.24916926E-1,1.9688842E-1,4.1187167E-2,2.1018127E-1,-8.539138E-2,4.354678E-2,1.6792743E-1,3.178425E-2,-4.9874283E-2,2.7281735E-2,8.427714E-2,-6.328949E-2],"split_indices":[141,29,433,130,393,535,151,535,157,385,355,200,32,316,105,0,0,0,0,0,0,0,0,0,0,0,0,0,0,0,0],"split_type":[0,0,0,0,0,0,0,0,0,0,0,0,0,0,0,0,0,0,0,0,0,0,0,0,0,0,0,0,0,0,0],"sum_hessian":[1.0744433E4,4.7034585E3,6.0409736E3,1.3625162E3,3.3409424E3,1.3048766E3,4.736097E3,1.3395813E3,2.2934969E1,2.1399904E2,3.1269434E3,6.152576E2,6.8961896E2,2.0450765E3,2.6910208E3,8.543569E2,4.8522443E2,7.102931E0,1.5832038E1,1.9347884E2,2.0520203E1,2.973679E3,1.5326428E2,3.1608075E2,2.9917688E2,2.8483344E2,4.0478552E2,7.73054E2,1.2720225E3,1.847057E2,2.506315E3],"tree_param":{"num_deleted":"0","num_feature":"536","num_nodes":"31","size_leaf_vector":"0"}},{"base_weights":[6.3177384E-4,1.5971612E-2,-2.9867205E-1,-1.313142E-1,4.29791E-2,8.314029E-1,-3.6106455E-1,8.1018925E-2,-2.2483544E-1,1.4223282E-1,-6.2980596E-3,1.5316603E0,-4.570593E-1,-5.035763E-1,1.8341314E-2,-2.8124737E-2,1.17738046E-1,3.1314316E-1,-7.304147E-2,-1.4201667E-3,6.857697E-2,-1.2000681E-2,6.0650185E-2,-7.704982E-2,5.992049E-1,3.799802E-1,-2.873093E-1,-1.6070335E-1,4.565289E-1,2.4582835E-1,-8.4740385E-2],"categories":[],"categories_nodes":[],"categories_segments":[],"categories_sizes":[],"default_left":[0,0,0,0,0,0,0,0,0,0,0,0,0,0,0,0,0,0,0,0,0,0,0,0,0,0,0,0,0,0,0],"id":26,"left_children":[1,3,5,7,9,11,13,15,17,19,21,23,25,27,29,-1,-1,-1,-1,-1,-1,-1,-1,-1,-1,-1,-1,-1,-1,-1,-1],"loss_changes":[4.892618E1,4.0327915E1,3.693129E1,3.1214258E1,4.1900578E1,2.5499184E1,2.6668015E1,2.6222797E1,2.60456E1,3.607312E1,4.023706E1,1.5536026E1,1.0229171E1,2.4120392E1,3.2905754E1,0E0,0E0,0E0,0E0,0E0,0E0,0E0,0E0,0E0,0E0,0E0,0E0,0E0,0E0,0E0,0E0],"parents":[2147483647,0,0,1,1,2,2,3,3,4,4,5,5,6,6,7,7,8,8,9,9,10,10,11,11,12,12,13,13,14,14],"right_children":[2,4,6,8,10,12,14,16,18,20,22,24,26,28,30,-1,-1,-1,-1,-1,-1,-1,-1,-1,-1,-1,-1,-1,-1,-1,-1],"split_conditions":[1E0,-2.2213708E-1,-9.790934E-1,-2.1399446E-1,1.58E2,-1.773221E-1,2.9479054E-1,1.2507263E-1,-7.761532E-1,-1.0435055E-1,4.1351372E-1,7.94077E-2,-2.7273262E-1,8.295622E-1,1.22E2,-2.8124737E-2,1.17738046E-1,3.1314316E-1,-7.304147E-2,-1.4201667E-3,6.857697E-2,-1.2000681E-2,6.0650185E-2,-7.704982E-2,5.992049E-1,3.799802E-1,-2.873093E-1,-1.6070335E-1,4.565289E-1,2.4582835E-1,-8.4740385E-2],"split_indices":[512,361,101,354,533,55,26,99,454,376,292,24,328,172,533,0,0,0,0,0,0,0,0,0,0,0,0,0,0,0,0],"split_type":[0,0,0,0,0,0,0,0,0,0,0,0,0,0,0,0,0,0,0,0,0,0,0,0,0,0,0,0,0,0,0],"sum_hessian":[1.0654307E4,1.0135777E4,5.185295E2,1.5699832E3,8.565794E3,2.6485712E1,4.9204376E2,4.800953E2,1.0898878E3,2.841194E3,5.7246E3,1.7037415E1,9.4482975E0,3.574513E2,1.3459247E2,3.0797266E2,1.7212267E2,1.4982032E1,1.0749058E3,1.0519238E3,1.7892701E3,4.9285684E3,7.960318E2,3.612396E0,1.3425018E1,1.7822328E0,7.6660643E0,3.5259814E2,4.8531475E0,3.6272076E1,9.83204E1],"tree_param":{"num_deleted":"0","num_feature":"536","num_nodes":"31","size_leaf_vector":"0"}},{"base_weights":[-6.9392878E-3,-7.546589E-1,-1.8788114E-3,-8.8126165E-1,4.2839777E-1,-8.0365345E-2,4.883256E-2,-9.5502836E-1,3.5218436E-1,8.383027E-1,-6.800261E-1,-9.734804E-2,3.4394673E-1,1.2262967E-1,-4.9621385E-2,-2.9557592E-1,1.0767415E-2,-2.0758668E-1,4.889405E-1,-2.4426152E-1,-3.386301E-3,-7.041664E-2,-1.1173719E-2,2.0735903E-1,-8.832577E-2,6.25021E-2,-4.6274653E-3,-4.842392E-2,1.1203267E-2],"categories":[],"categories_nodes":[],"categories_segments":[],"categories_sizes":[],"default_left":[0,0,0,0,0,0,0,0,0,0,0,0,0,0,0,0,0,0,0,0,0,0,0,0,0,0,0,0,0],"id":27,"left_children":[1,3,5,7,9,11,13,15,17,-1,19,21,23,25,27,-1,-1,-1,-1,-1,-1,-1,-1,-1,-1,-1,-1,-1,-1],"loss_changes":[4.0114735E1,1.1051994E1,4.1922028E1,6.223778E0,2.1732138E1,2.9824322E1,4.6495647E1,1.8720322E0,6.973366E0,0E0,5.2506423E-1,3.2818054E1,3.5520374E1,4.3281883E1,2.6664188E1,0E0,0E0,0E0,0E0,0E0,0E0,0E0,0E0,0E0,0E0,0E0,0E0,0E0,0E0],"parents":[2147483647,0,0,1,1,2,2,3,3,4,4,5,5,6,6,7,7,8,8,10,10,11,11,12,12,13,13,14,14],"right_children":[2,4,6,8,10,12,14,16,18,-1,20,22,24,26,28,-1,-1,-1,-1,-1,-1,-1,-1,-1,-1,-1,-1,-1,-1],"split_conditions":[1.5999295E-3,5.051281E-1,-1.2826723E-1,4.9256414E-1,-3.796249E-1,1E0,5.700119E-2,8.117223E-1,1.3524838E-1,8.383027E-1,3.453986E-1,-6.698434E-2,2.1032476E-1,3.74632E-2,-1.5467407E-1,-2.9557592E-1,1.0767415E-2,-2.0758668E-1,4.889405E-1,-2.4426152E-1,-3.386301E-3,-7.041664E-2,-1.1173719E-2,2.0735903E-1,-8.832577E-2,6.25021E-2,-4.6274653E-3,-4.842392E-2,1.1203267E-2],"split_indices":[535,111,51,128,327,519,455,100,433,0,72,370,342,206,415,0,0,0,0,0,0,0,0,0,0,0,0,0,0],"split_type":[0,0,0,0,0,0,0,0,0,0,0,0,0,0,0,0,0,0,0,0,0,0,0,0,0,0,0,0,0],"sum_hessian":[1.0601032E4,7.026843E1,1.0530764E4,6.3706127E1,6.5623055E0,4.1331924E3,6.397571E3,6.0324146E1,3.3819838E0,1.6083207E0,4.9539847E0,3.9748726E3,1.5832E2,3.6565344E3,2.7410364E3,5.854417E1,1.7799741E0,2.1132884E0,1.2686954E0,3.9449308E0,1.0090537E0,1.2088757E3,2.7659968E3,1.0248746E2,5.583255E1,2.2556277E3,1.4009069E3,1.198957E3,1.5420793E3],"tree_param":{"num_deleted":"0","num_feature":"536","num_nodes":"29","size_leaf_vector":"0"}},{"base_weights":[6.395686E-4,4.979039E-2,-8.760511E-2,1.3672736E-1,-2.1059861E-2,-1.6791263E-1,4.283663E-2,8.668148E-2,3.6817214E-1,5.6959623E-3,-3.456392E-1,-1.01068385E-1,-3.632546E-1,-1.3412498E-1,1.5853009E-1,3.9519265E-2,-6.2046632E-2,9.77693E-2,4.5975837E-1,-8.415313E-2,1.1517515E-2,-1.6040984E-1,2.6601033E-2,1.0372021E-1,-4.021977E-2,-1.7888781E-1,-6.0703255E-2,-1.16669305E-1,3.6937106E-2,8.836629E-2,-2.5413161E-2],"categories":[],"categories_nodes":[],"categories_segments":[],"categories_sizes":[],"default_left":[0,0,0,0,0,0,0,0,0,0,0,0,0,0,0,0,0,0,0,0,0,0,0,0,0,0,0,0,0,0,0],"id":28,"left_children":[1,3,5,7,9,11,13,15,17,19,21,23,25,27,29,-1,-1,-1,-1,-1,-1,-1,-1,-1,-1,-1,-1,-1,-1,-1,-1],"loss_changes":[4.6163708E1,4.2108765E1,3.989247E1,3.552311E1,3.2718605E1,3.0737541E1,2.974178E1,3.3415688E1,2.6348358E1,3.2588596E1,2.3606041E1,2.5955482E1,2.2396545E1,3.7695457E1,2.9083267E1,0E0,0E0,0E0,0E0,0E0,0E0,0E0,0E0,0E0,0E0,0E0,0E0,0E0,0E0,0E0,0E0],"parents":[2147483647,0,0,1,1,2,2,3,3,4,4,5,5,6,6,7,7,8,8,9,9,10,10,11,11,12,12,13,13,14,14],"right_children":[2,4,6,8,10,12,14,16,18,20,22,24,26,28,30,-1,-1,-1,-1,-1,-1,-1,-1,-1,-1,-1,-1,-1,-1,-1,-1],"split_conditions":[5.367491E-3,-7.6384336E-2,3.7329155E-1,3.21545E-1,5.681424E-1,3.05E2,-6.4900845E-2,3.9671558E-1,6.153812E-1,-5.734044E-1,2.5427267E-1,-6.122107E-1,2.2956431E-1,1.116844E-1,3.229712E-1,3.9519265E-2,-6.2046632E-2,9.77693E-2,4.5975837E-1,-8.415313E-2,1.1517515E-2,-1.6040984E-1,2.6601033E-2,1.0372021E-1,-4.021977E-2,-1.7888781E-1,-6.0703255E-2,-1.16669305E-1,3.6937106E-2,8.836629E-2,-2.5413161E-2],"split_indices":[322,81,375,217,254,533,46,433,167,245,155,40,156,424,399,0,0,0,0,0,0,0,0,0,0,0,0,0,0,0,0],"split_type":[0,0,0,0,0,0,0,0,0,0,0,0,0,0,0,0,0,0,0,0,0,0,0,0,0,0,0,0,0,0,0],"sum_hessian":[1.0641418E4,6.834918E3,3.8065E3,3.0686248E3,3.7662935E3,2.3558281E3,1.4506719E3,2.5241877E3,5.44437E2,3.4803801E3,2.8591333E2,1.7563414E3,5.9948663E2,5.7342194E2,8.7725E2,2.1887856E3,3.354021E2,5.265976E2,1.7839394E1,3.560523E2,3.124328E3,1.9903833E2,8.6875E1,1.2013791E2,1.6362036E3,2.4375844E2,3.5572824E2,2.8784027E2,2.8558163E2,5.62487E2,3.14763E2],"tree_param":{"num_deleted":"0","num_feature":"536","num_nodes":"31","size_leaf_vector":"0"}},{"base_weights":[7.629165E-3,-2.715875E-2,1.263365E-1,-1.5372982E-2,-4.3879798E-1,2.1971014E-1,-4.1575756E-2,2.4636048E-1,-3.233285E-2,-5.075665E-1,9.6614957E-1,2.815669E-1,-1.4013413E-1,-7.4126594E-2,1.0282274E0,1.058662E-2,1.7129293E-1,-5.895978E-3,-1.2800689E-1,2.432362E-1,-1.6994484E-1,8.038648E-1,-4.0630363E-2,3.15122E-2,1.2538487E-1,4.4194022E-1,-6.886472E-2,1.8074451E-2,-8.647588E-2,4.7676995E-1,-1.305444E-1],"categories":[],"categories_nodes":[],"categories_segments":[],"categories_sizes":[],"default_left":[0,0,0,0,0,0,0,0,0,0,0,0,0,0,0,0,0,0,0,0,0,0,0,0,0,0,0,0,0,0,0],"id":29,"left_children":[1,3,5,7,9,11,13,15,17,19,21,23,25,27,29,-1,-1,-1,-1,-1,-1,-1,-1,-1,-1,-1,-1,-1,-1,-1,-1],"loss_changes":[4.381732E1,3.9804577E1,3.7712303E1,3.542485E1,2.2554893E1,3.4441498E1,3.003129E1,3.325563E1,3.746363E1,1.7420765E1,2.1126883E1,3.1715332E1,3.313701E1,2.4064306E1,2.1599747E1,0E0,0E0,0E0,0E0,0E0,0E0,0E0,0E0,0E0,0E0,0E0,0E0,0E0,0E0,0E0,0E0],"parents":[2147483647,0,0,1,1,2,2,3,3,4,4,5,5,6,6,7,7,8,8,9,9,10,10,11,11,12,12,13,13,14,14],"right_children":[2,4,6,8,10,12,14,16,18,20,22,24,26,28,30,-1,-1,-1,-1,-1,-1,-1,-1,-1,-1,-1,-1,-1,-1,-1,-1],"split_conditions":[3.7176907E-1,5.089169E-1,4.0552884E-2,-4.856997E-1,6.5615803E-1,1.1864929E-1,4.6660706E-1,1.012894E-1,7.1135193E-1,-7.383602E-1,-1.9488505E-1,7.9503484E-2,-7.6396763E-1,1.7694378E-1,3.875098E-1,1.058662E-2,1.7129293E-1,-5.895978E-3,-1.2800689E-1,2.432362E-1,-1.6994484E-1,8.038648E-1,-4.0630363E-2,3.15122E-2,1.2538487E-1,4.4194022E-1,-6.886472E-2,1.8074451E-2,-8.647588E-2,4.7676995E-1,-1.305444E-1],"split_indices":[125,132,72,312,159,77,11,331,220,367,176,70,407,210,413,0,0,0,0,0,0,0,0,0,0,0,0,0,0,0,0],"split_type":[0,0,0,0,0,0,0,0,0,0,0,0,0,0,0,0,0,0,0,0,0,0,0,0,0,0,0,0,0,0,0],"sum_hessian":[1.0608767E4,8.20501E3,2.4037573E3,7.9776367E3,2.2737277E2,1.5445476E3,8.5920966E2,4.846555E2,7.4929814E3,2.1737172E2,1.0001053E1,1.318173E3,2.2637468E2,8.347417E2,2.4467922E1,2.943633E2,1.9029218E2,7.2605845E3,2.3239671E2,8.752719E0,2.08619E2,3.3531404E0,6.6479125E0,5.7530273E2,7.4287024E2,1.10752E1,2.1529948E2,5.133242E2,3.2141748E2,1.762509E1,6.842832E0],"tree_param":{"num_deleted":"0","num_feature":"536","num_nodes":"31","size_leaf_vector":"0"}},{"base_weights":[3.03802E-3,2.1828389E-2,-1.8296295E-1,-3.9802444E-1,3.0501354E-2,1.7961447E-1,-2.6414052E-1,-1.5069091E-1,-7.466469E-1,-1.057667E-1,5.596817E-2,8.897845E-4,9.176944E-1,-2.983255E-1,6.247755E-1,-7.6386675E-2,4.0855524E-1,1.4184968E-1,-2.6331306E-1,1.2967317E-1,-4.3538388E-2,-3.4919328E-3,3.9342985E-2,-6.518434E-2,2.0099352E-1,-1.1655505E-1,3.9084408E-1,-1.018798E-1,1.1207657E-1,5.209586E-1,-8.615995E-2],"categories":[],"categories_nodes":[],"categories_segments":[],"categories_sizes":[],"default_left":[0,0,0,0,0,0,0,0,0,0,0,0,0,0,0,0,0,0,0,0,0,0,0,0,0,0,0,0,0,0,0],"id":30,"left_children":[1,3,5,7,9,11,13,15,17,19,21,23,25,27,29,-1,-1,-1,-1,-1,-1,-1,-1,-1,-1,-1,-1,-1,-1,-1,-1],"loss_changes":[3.6894924E1,3.4924393E1,2.8556145E1,1.6625408E1,3.260797E1,2.3451075E1,2.4247536E1,1.8394527E1,1.3250771E1,3.1396194E1,4.0233776E1,2.118451E1,1.7940044E1,2.1291237E1,3.0556602E1,0E0,0E0,0E0,0E0,0E0,0E0,0E0,0E0,0E0,0E0,0E0,0E0,0E0,0E0,0E0,0E0],"parents":[2147483647,0,0,1,1,2,2,3,3,4,4,5,5,6,6,7,7,8,8,9,9,10,10,11,11,12,12,13,13,14,14],"right_children":[2,4,6,8,10,12,14,16,18,20,22,24,26,28,30,-1,-1,-1,-1,-1,-1,-1,-1,-1,-1,-1,-1,-1,-1,-1,-1],"split_conditions":[5.8089435E-1,-4.9063236E-1,1.14E2,8.832722E-2,-3.1500039E-1,3.1292203E-1,6.1603326E-1,7.611945E-1,-4.4270498E-1,-5.7309276E-1,7.260522E-2,3.359525E-1,-1.3135311E-1,6.005375E-1,-7.023567E-2,-7.6386675E-2,4.0855524E-1,1.4184968E-1,-2.6331306E-1,1.2967317E-1,-4.3538388E-2,-3.4919328E-3,3.9342985E-2,-6.518434E-2,2.0099352E-1,-1.1655505E-1,3.9084408E-1,-1.018798E-1,1.1207657E-1,5.209586E-1,-8.615995E-2],"split_indices":[234,121,533,297,305,79,124,272,114,323,352,138,129,266,330,0,0,0,0,0,0,0,0,0,0,0,0,0,0,0,0],"split_type":[0,0,0,0,0,0,0,0,0,0,0,0,0,0,0,0,0,0,0,0,0,0,0,0,0,0,0,0,0,0,0],"sum_hessian":[1.0554264E4,9.586673E3,9.675914E2,1.9311679E2,9.393556E3,1.7678288E2,7.908085E2,1.1380734E2,7.930945E1,1.4786152E3,7.9149404E3,1.4312631E2,3.3656563E1,7.621625E2,2.8646044E1,1.0726827E2,6.5390706E0,7.443513E0,7.186594E1,1.0012136E2,1.3784939E3,4.167652E3,3.7472888E3,1.08441765E2,3.4684544E1,7.6616554E0,2.599491E1,7.185203E2,4.3642117E1,1.2501644E1,1.61444E1],"tree_param":{"num_deleted":"0","num_feature":"536","num_nodes":"31","size_leaf_vector":"0"}},{"base_weights":[-1.2445143E-2,6.1964378E-2,-6.5684E-2,-1.3085447E-1,1.0262971E-1,-2.051089E-1,-1.7057952E-2,-5.342858E-1,-4.469268E-2,3.4554545E-2,2.691262E-1,-3.4173355E-1,-7.241016E-2,-5.3996854E-2,2.1054834E-1,-4.1892786E-2,-2.4649435E-1,3.9338976E-2,-7.5485624E-2,2.4967156E-2,-7.966346E-2,1.07208915E-1,-2.2572946E-2,5.0425064E-2,-1.18617706E-1,2.7901785E-2,-9.3066745E-2,-2.3380805E-2,9.480018E-2,2.1946266E-1,3.2353807E-2],"categories":[],"categories_nodes":[],"categories_segments":[],"categories_sizes":[],"default_left":[0,0,0,0,0,0,0,0,0,0,0,0,0,0,0,0,0,0,0,0,0,0,0,0,0,0,0,0,0,0,0],"id":31,"left_children":[1,3,5,7,9,11,13,15,17,19,21,23,25,27,29,-1,-1,-1,-1,-1,-1,-1,-1,-1,-1,-1,-1,-1,-1,-1,-1],"loss_changes":[4.1682137E1,3.442374E1,4.157869E1,2.6559834E1,4.1074234E1,2.8726883E1,3.825289E1,1.5138081E1,2.3000135E1,3.7615997E1,3.1986435E1,2.143451E1,3.172585E1,3.469411E1,3.39152E1,0E0,0E0,0E0,0E0,0E0,0E0,0E0,0E0,0E0,0E0,0E0,0E0,0E0,0E0,0E0,0E0],"parents":[2147483647,0,0,1,1,2,2,3,3,4,4,5,5,6,6,7,7,8,8,9,9,10,10,11,11,12,12,13,13,14,14],"right_children":[2,4,6,8,10,12,14,16,18,20,22,24,26,28,30,-1,-1,-1,-1,-1,-1,-1,-1,-1,-1,-1,-1,-1,-1,-1,-1],"split_conditions":[-2.003776E-1,-4.437309E-1,-9.031669E-2,-5.053596E-1,3.586321E-2,-4.9435245E-3,4.7202653E-1,-5.964419E-2,-1.6065341E-1,3.003836E-1,1.8921992E-1,-4.0820494E-1,-6.888394E-4,5.2167475E-1,-2.4153163E-1,-4.1892786E-2,-2.4649435E-1,3.9338976E-2,-7.5485624E-2,2.4967156E-2,-7.966346E-2,1.07208915E-1,-2.2572946E-2,5.0425064E-2,-1.18617706E-1,2.7901785E-2,-9.3066745E-2,-2.3380805E-2,9.480018E-2,2.1946266E-1,3.2353807E-2],"split_indices":[294,162,202,458,196,212,87,268,158,230,146,262,311,431,234,0,0,0,0,0,0,0,0,0,0,0,0,0,0,0,0],"split_type":[0,0,0,0,0,0,0,0,0,0,0,0,0,0,0,0,0,0,0,0,0,0,0,0,0,0,0,0,0,0,0],"sum_hessian":[1.051984E4,4.387486E3,6.1323535E3,7.637709E2,3.623715E3,1.5848662E3,4.5474873E3,1.3349808E2,6.3027277E2,2.572932E3,1.0507832E3,7.801058E2,8.047605E2,3.91317E3,6.343172E2,5.6875347E1,7.6622734E1,3.4094348E2,2.8932928E2,2.2145112E3,3.5842075E2,8.3642944E2,2.1435376E2,7.4084984E1,7.0602075E2,4.749833E2,3.297772E2,3.6761116E3,2.3705835E2,1.0344301E2,5.3087415E2],"tree_param":{"num_deleted":"0","num_feature":"536","num_nodes":"31","size_leaf_vector":"0"}},{"base_weights":[-1.6146185E-3,-4.8625164E-2,7.2932184E-2,-3.2484064E-1,-2.8845437E-2,9.7670786E-2,-3.459583E-1,-5.112625E-1,-2.148513E-2,-1.2430512E-1,2.3257097E-2,-5.9466187E-2,1.5211941E-1,-4.6877652E-1,3.4939298E-1,9.568965E-2,-1.7477122E-1,-1.1520958E-1,1.0791388E-1,2.7789949E-2,-5.2964482E-2,-1.5263537E-2,3.363632E-2,-1.7251405E-1,6.7702535E-4,1.3158126E-1,3.3273667E-2,1.4154314E-1,-1.7472333E-1,5.7222956E-1,-1.0039797E-1],"categories":[],"categories_nodes":[],"categories_segments":[],"categories_sizes":[],"default_left":[0,0,0,0,0,0,0,0,0,0,0,0,0,0,0,0,0,0,0,0,0,0,0,0,0,0,0,0,0,0,0],"id":32,"left_children":[1,3,5,7,9,11,13,15,17,19,21,23,25,27,29,-1,-1,-1,-1,-1,-1,-1,-1,-1,-1,-1,-1,-1,-1,-1,-1],"loss_changes":[3.6993443E1,3.5359005E1,4.2338722E1,2.4447708E1,3.0054512E1,3.299652E1,1.9624437E1,1.604219E1,2.3033247E1,2.419714E1,2.576178E1,3.1598043E1,3.37573E1,2.1019966E1,3.7705727E1,0E0,0E0,0E0,0E0,0E0,0E0,0E0,0E0,0E0,0E0,0E0,0E0,0E0,0E0,0E0,0E0],"parents":[2147483647,0,0,1,1,2,2,3,3,4,4,5,5,6,6,7,7,8,8,9,9,10,10,11,11,12,12,13,13,14,14],"right_children":[2,4,6,8,10,12,14,16,18,20,22,24,26,28,30,-1,-1,-1,-1,-1,-1,-1,-1,-1,-1,-1,-1,-1,-1,-1,-1],"split_conditions":[6.772826E-2,-4.6680376E-1,5.85806E-1,3.71819E-2,-3.329116E-1,-1.8697403E-1,3.5297304E-1,-4.7263536E-1,-3.0746315E-2,-1.94084E-1,8.602237E-2,-4.005905E-1,-7.169862E-1,-5.822747E-1,-3.7931457E-1,9.568965E-2,-1.7477122E-1,-1.1520958E-1,1.0791388E-1,2.7789949E-2,-5.2964482E-2,-1.5263537E-2,3.363632E-2,-1.7251405E-1,6.7702535E-4,1.3158126E-1,3.3273667E-2,1.4154314E-1,-1.7472333E-1,5.7222956E-1,-1.0039797E-1],"split_indices":[437,310,346,331,486,130,116,308,442,118,340,56,360,89,378,0,0,0,0,0,0,0,0,0,0,0,0,0,0,0,0],"split_type":[0,0,0,0,0,0,0,0,0,0,0,0,0,0,0,0,0,0,0,0,0,0,0,0,0,0,0,0,0,0,0],"sum_hessian":[1.0554013E4,6.4726143E3,4.0813984E3,4.314985E2,6.0411157E3,3.8545269E3,2.2687163E2,2.668346E2,1.646639E2,2.1325596E3,3.9085562E3,9.918854E2,2.8626414E3,1.9309209E2,3.377955E1,2.0830948E1,2.4600366E2,8.4392815E1,8.027107E1,4.1374045E2,1.7188192E3,2.1310972E3,1.7774591E3,1.0515915E2,8.8672626E2,3.587638E2,2.5038777E3,2.0473642E1,1.7261844E2,9.760358E0,2.4019192E1],"tree_param":{"num_deleted":"0","num_feature":"536","num_nodes":"31","size_leaf_vector":"0"}},{"base_weights":[-7.2552273E-3,-2.2584373E-2,2.1692224E-1,-2.2421563E-1,-5.3865723E-3,7.6161426E-1,1.3798216E-1,-2.9793778E-1,1.7135955E-1,3.343191E-2,-1.0711439E-1,7.283998E-2,1.4021798E0,6.45389E-1,4.5927282E-2,-1.1133865E-1,6.0748477E-2,-8.6877234E-2,1.8809922E-1,3.1223247E-2,-1.0145633E-2,2.0014387E-1,-3.7900977E-2,2.4498503E-1,-1.4197578E-1,5.3447706E-1,2.9482257E-2,1.1507581E-1,4.3662676E-1,2.5161996E-1,-7.592318E-3],"categories":[],"categories_nodes":[],"categories_segments":[],"categories_sizes":[],"default_left":[0,0,0,0,0,0,0,0,0,0,0,0,0,0,0,0,0,0,0,0,0,0,0,0,0,0,0,0,0,0,0],"id":33,"left_children":[1,3,5,7,9,11,13,15,17,19,21,23,25,27,29,-1,-1,-1,-1,-1,-1,-1,-1,-1,-1,-1,-1,-1,-1,-1,-1],"loss_changes":[3.6170815E1,3.4160114E1,2.8861633E1,2.262904E1,3.585316E1,3.7423855E1,2.7511185E1,2.3990982E1,2.58585E1,3.1225334E1,3.7405567E1,1.746159E1,2.1599388E1,1.862704E1,2.8267742E1,0E0,0E0,0E0,0E0,0E0,0E0,0E0,0E0,0E0,0E0,0E0,0E0,0E0,0E0,0E0,0E0],"parents":[2147483647,0,0,1,1,2,2,3,3,4,4,5,5,6,6,7,7,8,8,9,9,10,10,11,11,12,12,13,13,14,14],"right_children":[2,4,6,8,10,12,14,16,18,20,22,24,26,28,30,-1,-1,-1,-1,-1,-1,-1,-1,-1,-1,-1,-1,-1,-1,-1,-1],"split_conditions":[1E0,-4.3210772E-1,-6.19698E-1,2.607887E-1,3.066721E-1,1.066095E-1,-5.930269E-1,6.2916654E-1,-1.6106153E-1,1.98E2,-6.427336E-1,-1.6315472E-1,2.9258895E-1,2.3962457E-1,-6.579113E-1,-1.1133865E-1,6.0748477E-2,-8.6877234E-2,1.8809922E-1,3.1223247E-2,-1.0145633E-2,2.0014387E-1,-3.7900977E-2,2.4498503E-1,-1.4197578E-1,5.3447706E-1,2.9482257E-2,1.1507581E-1,4.3662676E-1,2.5161996E-1,-7.592318E-3],"split_indices":[526,388,111,199,128,348,377,94,177,533,93,70,454,442,471,0,0,0,0,0,0,0,0,0,0,0,0,0,0,0,0],"split_type":[0,0,0,0,0,0,0,0,0,0,0,0,0,0,0,0,0,0,0,0,0,0,0,0,0,0,0,0,0,0,0],"sum_hessian":[1.0523211E4,9.850535E3,6.726756E2,7.7320874E2,9.077326E3,8.40534E1,5.886222E2,6.51953E2,1.212557E2,6.570681E3,2.5066455E3,4.1039257E1,4.3014137E1,8.946727E1,4.991549E2,5.6899304E2,8.2959984E1,6.045761E1,6.079809E1,3.204191E3,3.36649E3,5.9907207E1,2.4467383E3,1.716508E1,2.3874178E1,3.303521E1,9.97893E0,6.8727936E1,2.0739338E1,4.0264072E1,4.5889084E2],"tree_param":{"num_deleted":"0","num_feature":"536","num_nodes":"31","size_leaf_vector":"0"}},{"base_weights":[-4.0960084E-3,-4.3125346E-2,8.9116514E-2,6.3530885E-2,-8.405241E-2,1.5394394E-1,-4.4210885E-2,-2.083683E-1,1.2527996E-1,-1.1790045E-1,1.1066207E-1,8.05412E-2,3.4552518E-1,2.8384498E-1,-1.14965476E-1,1.486536E-1,-9.5264025E-2,1.22953795E-1,1.9942407E-2,-1.2770927E-2,-5.9612E-2,1.20919816E-1,-1.390468E-2,3.7449586E-1,1.9452762E-2,2.0413654E-1,6.200973E-2,1.3954508E-2,2.276936E-1,1.2148756E-2,-8.7699585E-2],"categories":[],"categories_nodes":[],"categories_segments":[],"categories_sizes":[],"default_left":[0,0,0,0,0,0,0,0,0,0,0,0,0,0,0,0,0,0,0,0,0,0,0,0,0,0,0,0,0,0,0],"id":34,"left_children":[1,3,5,7,9,11,13,15,17,19,21,23,25,27,29,-1,-1,-1,-1,-1,-1,-1,-1,-1,-1,-1,-1,-1,-1,-1,-1],"loss_changes":[3.818069E1,3.229596E1,2.6778801E1,3.44779E1,3.5249756E1,2.9283054E1,2.3571844E1,2.93706E1,2.7966051E1,2.7719608E1,3.639244E1,2.756911E1,2.6691338E1,2.0285519E1,2.3033415E1,0E0,0E0,0E0,0E0,0E0,0E0,0E0,0E0,0E0,0E0,0E0,0E0,0E0,0E0,0E0,0E0],"parents":[2147483647,0,0,1,1,2,2,3,3,4,4,5,5,6,6,7,7,8,8,9,9,10,10,11,11,12,12,13,13,14,14],"right_children":[2,4,6,8,10,12,14,16,18,20,22,24,26,28,30,-1,-1,-1,-1,-1,-1,-1,-1,-1,-1,-1,-1,-1,-1,-1,-1],"split_conditions":[3.5618675E-1,-3.8489324E-1,2.1124461E-1,-1.1561703E-1,4.216038E-1,1.2124859E-1,-4.293361E-1,-5.268871E-1,-2.9125774E-1,-6.919868E-2,-3.537097E-1,-8.4441936E-1,-1.19219E-1,8.167767E-2,7.6362136E-4,1.486536E-1,-9.5264025E-2,1.22953795E-1,1.9942407E-2,-1.2770927E-2,-5.9612E-2,1.20919816E-1,-1.390468E-2,3.7449586E-1,1.9452762E-2,2.0413654E-1,6.200973E-2,1.3954508E-2,2.276936E-1,1.2148756E-2,-8.7699585E-2],"split_indices":[501,474,184,216,358,67,394,294,180,37,107,86,405,330,30,0,0,0,0,0,0,0,0,0,0,0,0,0,0,0,0],"split_type":[0,0,0,0,0,0,0,0,0,0,0,0,0,0,0,0,0,0,0,0,0,0,0,0,0,0,0,0,0,0,0],"sum_hessian":[1.0492845E4,7.3964067E3,3.0964377E3,2.0509817E3,5.3454253E3,2.0833174E3,1.01312036E3,3.7914062E2,1.6718411E3,4.5541523E3,7.9127295E2,1.5072482E3,5.760691E2,1.792075E2,8.3391284E2,5.0436264E1,3.2870438E2,2.852948E2,1.3865463E3,2.35772E3,2.1964321E3,2.7589758E2,5.1537537E2,1.8951923E1,1.4882963E3,1.6766391E2,4.0840518E2,1.20243576E2,5.8963932E1,4.4480975E2,3.891031E2],"tree_param":{"num_deleted":"0","num_feature":"536","num_nodes":"31","size_leaf_vector":"0"}},{"base_weights":[-9.898445E-3,-8.9462906E-2,3.356291E-2,-5.3934135E-2,-3.302564E-1,6.1543334E-2,-2.1154182E-1,-4.1403812E-1,-2.6199227E-2,-8.421928E-2,-4.935918E-1,-1.0675237E-1,9.382498E-2,2.63634E-2,-5.0354576E-1,6.877114E-2,-1.5898575E-1,2.57853E-2,-3.4222186E-2,4.788495E-2,-1.6192017E-1,2.4589825E-1,-1.6186121E-1,-2.2547083E-1,-2.0317147E-2,2.0148319E-1,2.485093E-2,1.6652454E-1,-5.7666186E-2,5.6037897E-1,-1.6040377E-1],"categories":[],"categories_nodes":[],"categories_segments":[],"categories_sizes":[],"default_left":[0,0,0,0,0,0,0,0,0,0,0,0,0,0,0,0,0,0,0,0,0,0,0,0,0,0,0,0,0,0,0],"id":35,"left_children":[1,3,5,7,9,11,13,15,17,19,21,23,25,27,29,-1,-1,-1,-1,-1,-1,-1,-1,-1,-1,-1,-1,-1,-1,-1,-1],"loss_changes":[3.619473E1,3.1615955E1,4.643914E1,3.2182823E1,1.9056648E1,3.3023712E1,4.8213203E1,1.7304443E1,2.9515875E1,2.1280796E1,1.7663803E1,2.457351E1,3.2319313E1,4.4402428E1,2.4001076E1,0E0,0E0,0E0,0E0,0E0,0E0,0E0,0E0,0E0,0E0,0E0,0E0,0E0,0E0,0E0,0E0],"parents":[2147483647,0,0,1,1,2,2,3,3,4,4,5,5,6,6,7,7,8,8,9,9,10,10,11,11,12,12,13,13,14,14],"right_children":[2,4,6,8,10,12,14,16,18,20,22,24,26,28,30,-1,-1,-1,-1,-1,-1,-1,-1,-1,-1,-1,-1,-1,-1,-1,-1],"split_conditions":[-2.607082E-1,3.159183E-1,3.94E2,-4.199208E-1,-3.1774604E-1,-4.4583955E-1,-1.8942045E-1,-3.9222056E-1,-1.544355E-1,2.9096943E-1,-7.8494155E-1,-6.7839044E-1,-1.1271183E0,-2.7761883E-1,-9.347945E-1,6.877114E-2,-1.5898575E-1,2.57853E-2,-3.4222186E-2,4.788495E-2,-1.6192017E-1,2.4589825E-1,-1.6186121E-1,-2.2547083E-1,-2.0317147E-2,2.0148319E-1,2.485093E-2,1.6652454E-1,-5.7666186E-2,5.6037897E-1,-1.6040377E-1],"split_indices":[11,416,533,473,397,272,406,83,343,387,66,9,122,283,200,0,0,0,0,0,0,0,0,0,0,0,0,0,0,0,0],"split_type":[0,0,0,0,0,0,0,0,0,0,0,0,0,0,0,0,0,0,0,0,0,0,0,0,0,0,0,0,0,0,0],"sum_hessian":[1.0465148E4,3.696651E3,6.7684976E3,3.222412E3,4.7423883E2,6.0756665E3,6.9283105E2,2.2944319E2,2.992969E3,1.898211E2,2.8441772E2,9.7746857E2,5.0981978E3,3.8228256E2,3.1054846E2,3.488251E1,1.9456068E2,1.3148771E3,1.6780918E3,1.2406111E2,6.5759995E1,9.045048E0,2.7537268E2,5.4744293E1,9.227243E2,9.402789E1,5.00417E3,1.1136638E2,2.709162E2,3.259646E0,3.0728882E2],"tree_param":{"num_deleted":"0","num_feature":"536","num_nodes":"31","size_leaf_vector":"0"}},{"base_weights":[4.198135E-3,-5.3882506E-2,6.280882E-2,-2.6854888E-1,-2.9557755E-2,1.1499836E-2,1.8351604E-1,4.9824156E-2,-4.309017E-1,-1.54526E-1,1.4840478E-2,3.319804E-2,-3.9263472E-1,-1.2855731E-2,2.794756E-1,3.6490682E-1,-1.9485217E-2,-5.9013348E-2,-2.1273443E-1,2.8112903E-1,-5.0703924E-2,4.6480173E-1,2.6492877E-3,6.784255E-2,-2.8021175E-3,-4.12594E-2,-2.446883E-1,-3.1833097E-2,1.8022934E-1,7.1954974E-3,1.1775395E-1],"categories":[],"categories_nodes":[],"categories_segments":[],"categories_sizes":[],"default_left":[0,0,0,0,0,0,0,0,0,0,0,0,0,0,0,0,0,0,0,0,0,0,0,0,0,0,0,0,0,0,0],"id":36,"left_children":[1,3,5,7,9,11,13,15,17,19,21,23,25,27,29,-1,-1,-1,-1,-1,-1,-1,-1,-1,-1,-1,-1,-1,-1,-1,-1],"loss_changes":[3.5509293E1,2.7350277E1,3.2153038E1,2.7578815E1,2.611949E1,3.1969944E1,2.918435E1,2.430623E1,2.2872505E1,1.967406E1,3.2023453E1,2.8396332E1,1.993399E1,2.9206326E1,3.0033966E1,0E0,0E0,0E0,0E0,0E0,0E0,0E0,0E0,0E0,0E0,0E0,0E0,0E0,0E0,0E0,0E0],"parents":[2147483647,0,0,1,1,2,2,3,3,4,4,5,5,6,6,7,7,8,8,9,9,10,10,11,11,12,12,13,13,14,14],"right_children":[2,4,6,8,10,12,14,16,18,20,22,24,26,28,30,-1,-1,-1,-1,-1,-1,-1,-1,-1,-1,-1,-1,-1,-1,-1,-1],"split_conditions":[1.3333273E-1,-4.068369E-1,1.4522628E-1,-2.0263202E-1,-4.049995E-1,4.49E2,-2.5858598E-2,-2.6581746E-1,-2.352707E-2,-9.466328E-1,-1.1801056E0,-4.0603778E-1,1.07827835E-1,3.75E2,-3.585037E-1,3.6490682E-1,-1.9485217E-2,-5.9013348E-2,-2.1273443E-1,2.8112903E-1,-5.0703924E-2,4.6480173E-1,2.6492877E-3,6.784255E-2,-2.8021175E-3,-4.12594E-2,-2.446883E-1,-3.1833097E-2,1.8022934E-1,7.1954974E-3,1.1775395E-1],"split_indices":[264,71,154,333,447,533,68,446,248,52,107,389,422,533,29,0,0,0,0,0,0,0,0,0,0,0,0,0,0,0,0],"split_type":[0,0,0,0,0,0,0,0,0,0,0,0,0,0,0,0,0,0,0,0,0,0,0,0,0,0,0,0,0,0,0],"sum_hessian":[1.0429195E4,5.238324E3,5.190871E3,5.321399E2,4.7061846E3,3.6433071E3,1.5475641E3,1.7995068E2,3.521892E2,1.233043E3,3.4731414E3,3.4585344E3,1.8477274E2,5.0828177E2,1.0392823E3,1.5259606E1,1.6469109E2,1.921504E2,1.6003882E2,1.5315462E1,1.2177275E3,1.2546886E1,3.4605945E3,6.239835E2,2.8345508E3,1.16086876E2,6.868586E1,4.4194455E2,6.6337204E1,3.1914777E2,7.201346E2],"tree_param":{"num_deleted":"0","num_feature":"536","num_nodes":"31","size_leaf_vector":"0"}},{"base_weights":[3.418395E-4,1.7668696E-2,-2.2713275E-1,-1.4490938E-2,1.3215393E-1,-5.3708434E-1,-7.9701796E-2,-1.3271691E-1,2.6878186E-2,-9.5341906E-2,2.487134E-1,-5.909345E-1,1.5965673E0,9.293888E-2,-4.2617255E-1,-2.851929E-2,-1.593267E-1,5.13036E-3,1.7781755E-1,-3.8672794E-2,2.762109E-1,1.8018442E-1,4.8596237E-2,1.875018E-2,-2.1619414E-1,-2.2317724E-1,8.1825745E-1,1.6194701E-2,7.5625E-1,2.5372776E-1,-1.6118695E-1],"categories":[],"categories_nodes":[],"categories_segments":[],"categories_sizes":[],"default_left":[0,0,0,0,0,0,0,0,0,0,0,0,0,0,0,0,0,0,0,0,0,0,0,0,0,0,0,0,0,0,0],"id":37,"left_children":[1,3,5,7,9,11,13,15,17,19,21,23,25,27,29,-1,-1,-1,-1,-1,-1,-1,-1,-1,-1,-1,-1,-1,-1,-1,-1],"loss_changes":[4.0893475E1,3.5497963E1,3.3514706E1,3.682013E1,5.609042E1,2.812082E1,2.987658E1,2.9220158E1,3.08442E1,2.4573936E1,4.257885E1,1.9661827E1,1.8157185E1,3.1430738E1,2.3925936E1,0E0,0E0,0E0,0E0,0E0,0E0,0E0,0E0,0E0,0E0,0E0,0E0,0E0,0E0,0E0,0E0],"parents":[2147483647,0,0,1,1,2,2,3,3,4,4,5,5,6,6,7,7,8,8,9,9,10,10,11,11,12,12,13,13,14,14],"right_children":[2,4,6,8,10,12,14,16,18,20,22,24,26,28,30,-1,-1,-1,-1,-1,-1,-1,-1,-1,-1,-1,-1,-1,-1,-1,-1],"split_conditions":[1E0,2.8115508E-1,-4.3907946E-1,2.8231135E-1,-6.557453E-2,1.0292174E0,-1.0338505E-1,4.3E2,8.671944E-1,5.920646E-1,-1.0888134E-1,-3.411454E-1,-3.427167E-1,8.2842636E-1,-5.833743E-1,-2.851929E-2,-1.593267E-1,5.13036E-3,1.7781755E-1,-3.8672794E-2,2.762109E-1,1.8018442E-1,4.8596237E-2,1.875018E-2,-2.1619414E-1,-2.2317724E-1,8.1825745E-1,1.6194701E-2,7.5625E-1,2.5372776E-1,-1.6118695E-1],"split_indices":[528,160,191,535,172,140,158,533,353,248,399,16,411,188,419,0,0,0,0,0,0,0,0,0,0,0,0,0,0,0,0],"split_type":[0,0,0,0,0,0,0,0,0,0,0,0,0,0,0,0,0,0,0,0,0,0,0,0,0,0,0,0,0,0,0],"sum_hessian":[1.0373298E4,9.63994E3,7.3335693E2,7.526556E3,2.1133845E3,2.3553558E2,4.9782135E2,1.9504088E3,5.5761475E3,7.160367E2,1.3973479E3,2.304426E2,5.0929875E0,3.327495E2,1.6507184E2,1.7831143E3,1.6729456E2,5.482449E3,9.369828E1,6.939825E2,2.2054201E1,2.751139E2,1.122234E3,3.8253983E1,1.9218861E2,1.7707262E0,3.322261E0,3.285008E2,4.248693E0,1.2731065E1,1.5234077E2],"tree_param":{"num_deleted":"0","num_feature":"536","num_nodes":"31","size_leaf_vector":"0"}},{"base_weights":[-4.782812E-3,-3.0523969E-2,1.055649E-1,-4.3325115E-2,2.5489986E-1,-1.3838962E-2,2.2580947E-1,3.944386E-2,-8.918557E-2,6.133817E-2,6.537126E-1,-4.2112198E-1,4.6309922E-2,4.844944E-1,1.1193021E-1,8.1825644E-2,-3.7172516E-3,5.500081E-2,-3.2163117E-2,5.205774E-2,-2.7608567E-1,-1.4390244E-1,2.5491545E-1,-1.9908422E-1,1.680519E-2,-5.5887355E-3,1.6168477E-1,2.941041E-1,9.436099E-2,2.357939E-2,3.7857333E-1],"categories":[],"categories_nodes":[],"categories_segments":[],"categories_sizes":[],"default_left":[0,0,0,0,0,0,0,0,0,0,0,0,0,0,0,0,0,0,0,0,0,0,0,0,0,0,0,0,0,0,0],"id":38,"left_children":[1,3,5,7,9,11,13,15,17,19,21,23,25,27,29,-1,-1,-1,-1,-1,-1,-1,-1,-1,-1,-1,-1,-1,-1,-1,-1],"loss_changes":[2.9307829E1,3.0578873E1,2.8024126E1,3.0400051E1,2.7692747E1,2.4031721E1,2.859317E1,3.4539394E1,2.5332603E1,2.6917206E1,2.6462677E1,1.4642162E1,2.7361414E1,2.4716263E1,2.583247E1,0E0,0E0,0E0,0E0,0E0,0E0,0E0,0E0,0E0,0E0,0E0,0E0,0E0,0E0,0E0,0E0],"parents":[2147483647,0,0,1,1,2,2,3,3,4,4,5,5,6,6,7,7,8,8,9,9,10,10,11,11,12,12,13,13,14,14],"right_children":[2,4,6,8,10,12,14,16,18,20,22,24,26,28,30,-1,-1,-1,-1,-1,-1,-1,-1,-1,-1,-1,-1,-1,-1,-1,-1],"split_conditions":[5.3882766E-1,1E0,-4.082011E-2,-8.077627E-2,3.0465025E-1,-3.448985E-1,-1.66902E-1,-5.03017E-1,8.7E1,6.742416E-1,-4.1333902E-1,4.126869E-1,5.504396E-1,-4.2326224E-1,6.532309E-1,8.1825644E-2,-3.7172516E-3,5.500081E-2,-3.2163117E-2,5.205774E-2,-2.7608567E-1,-1.4390244E-1,2.5491545E-1,-1.9908422E-1,1.680519E-2,-5.5887355E-3,1.6168477E-1,2.941041E-1,9.436099E-2,2.357939E-2,3.7857333E-1],"split_indices":[316,531,283,344,130,461,317,107,533,3,125,501,361,52,124,0,0,0,0,0,0,0,0,0,0,0,0,0,0,0,0],"split_type":[0,0,0,0,0,0,0,0,0,0,0,0,0,0,0,0,0,0,0,0,0,0,0,0,0,0,0,0,0,0,0],"sum_hessian":[1.0315788E4,8.365147E3,1.9506407E3,8.0068896E3,3.5825766E2,9.7918585E2,9.7145483E2,2.854759E3,5.1521304E3,2.4197173E2,1.1628593E2,1.2522885E2,8.53957E2,2.9594348E2,6.7551135E2,5.181774E2,2.3365815E3,3.1905698E2,4.8330737E3,2.178925E2,2.407923E1,1.6931799E1,9.9354126E1,8.2771736E1,4.245712E1,7.5535E2,9.8607025E1,7.432674E1,2.2161674E2,6.575214E2,1.7989939E1],"tree_param":{"num_deleted":"0","num_feature":"536","num_nodes":"31","size_leaf_vector":"0"}},{"base_weights":[-4.8800386E-3,-9.286274E-3,6.025681E-1,-1.02587E-1,1.9746635E-2,2.152621E0,3.9280808E-1,-1.5801698E-1,1.2913683E-1,1.6274584E-3,2.6538977E-1,2.6549883E0,-2.0678627E-1,-3.3543321E-1,8.232301E-1,-5.62207E-2,7.6971695E-2,-9.734419E-2,9.109783E-2,-3.064343E-2,1.20919375E-2,1.4547087E-1,3.3873522E-3,9.409881E-1,1.06018685E-1,-2.099099E-1,3.1645757E-1,-3.790346E-3,4.2177814E-1],"categories":[],"categories_nodes":[],"categories_segments":[],"categories_sizes":[],"default_left":[0,0,0,0,0,0,0,0,0,0,0,0,0,0,0,0,0,0,0,0,0,0,0,0,0,0,0,0,0],"id":39,"left_children":[1,3,5,7,9,11,13,15,17,19,21,23,-1,25,27,-1,-1,-1,-1,-1,-1,-1,-1,-1,-1,-1,-1,-1,-1],"loss_changes":[2.7646683E1,2.7777184E1,2.333997E1,3.1279032E1,3.4810028E1,1.416964E1,2.1196522E1,2.397897E1,3.7332085E1,2.924395E1,2.9961994E1,7.261936E0,0E0,1.3654221E1,2.059009E1,0E0,0E0,0E0,0E0,0E0,0E0,0E0,0E0,0E0,0E0,0E0,0E0,0E0,0E0],"parents":[2147483647,0,0,1,1,2,2,3,3,4,4,5,5,6,6,7,7,8,8,9,9,10,10,11,11,13,13,14,14],"right_children":[2,4,6,8,10,12,14,16,18,20,22,24,-1,26,28,-1,-1,-1,-1,-1,-1,-1,-1,-1,-1,-1,-1,-1,-1],"split_conditions":[1.0010469E0,-1.6210052E-1,-5.036763E-1,3.353501E-1,1E0,1.14302844E-1,-2.655233E-1,5.27451E-1,-3.2247505E-1,-2.4425994E-1,2.1924241E-1,2.4310352E-1,-2.0678627E-1,6.5262634E-1,-1.4077348E-1,-5.62207E-2,7.6971695E-2,-9.734419E-2,9.109783E-2,-3.064343E-2,1.20919375E-2,1.4547087E-1,3.3873522E-3,9.409881E-1,1.06018685E-1,-2.099099E-1,3.1645757E-1,-3.790346E-3,4.2177814E-1],"split_indices":[129,448,17,145,526,30,481,411,458,283,472,314,0,247,88,0,0,0,0,0,0,0,0,0,0,0,0,0,0],"split_type":[0,0,0,0,0,0,0,0,0,0,0,0,0,0,0,0,0,0,0,0,0,0,0,0,0,0,0,0,0],"sum_hessian":[1.0326094E4,1.0252709E4,7.3385185E1,2.4326296E3,7.820079E3,7.6430945E0,6.5742096E1,1.9633099E3,4.693196E2,7.283816E3,5.3626355E2,6.550864E0,1.0922304E0,2.4503956E1,4.123814E1,1.8338761E3,1.2943387E2,1.3015715E2,3.3916245E2,1.9772891E3,5.3065264E3,2.872248E2,2.4903879E2,5.117213E0,1.4336512E0,1.9810251E1,4.693703E0,1.7341087E1,2.389705E1],"tree_param":{"num_deleted":"0","num_feature":"536","num_nodes":"29","size_leaf_vector":"0"}},{"base_weights":[4.563546E-4,-1.4346978E-1,2.0597499E-2,-2.1113922E-1,1.9576645E-1,1.4217413E-2,5.688222E-1,4.692156E-1,-2.4448693E-1,-2.7329957E-1,4.8211834E-1,-1.0910575E-1,4.450488E-2,-4.491088E-1,8.407345E-1,-8.648827E-2,3.2488275E-1,1.9890754E-1,-8.123554E-2,-1.2341524E-1,6.685424E-1,2.5856647E-1,2.0600433E-2,-6.0321772E-3,-9.989748E-2,-3.94923E-2,2.08267E-2,5.171742E-1,-2.2241233E-1,1.6871688E-1,5.555016E-1],"categories":[],"categories_nodes":[],"categories_segments":[],"categories_sizes":[],"default_left":[0,0,0,0,0,0,0,0,0,0,0,0,0,0,0,0,0,0,0,0,0,0,0,0,0,0,0,0,0,0,0],"id":40,"left_children":[1,3,5,7,9,11,13,15,17,19,21,23,25,27,29,-1,-1,-1,-1,-1,-1,-1,-1,-1,-1,-1,-1,-1,-1,-1,-1],"loss_changes":[3.0024504E1,2.9229649E1,3.1771908E1,2.4176136E1,2.8603336E1,3.355551E1,2.9301178E1,2.3508791E1,2.4322964E1,2.8894928E1,2.0664171E1,3.5288483E1,3.1663647E1,1.5682714E1,2.2262283E1,0E0,0E0,0E0,0E0,0E0,0E0,0E0,0E0,0E0,0E0,0E0,0E0,0E0,0E0,0E0,0E0],"parents":[2147483647,0,0,1,1,2,2,3,3,4,4,5,5,6,6,7,7,8,8,9,9,10,10,11,11,12,12,13,13,14,14],"right_children":[2,4,6,8,10,12,14,16,18,20,22,24,26,28,30,-1,-1,-1,-1,-1,-1,-1,-1,-1,-1,-1,-1,-1,-1,-1,-1],"split_conditions":[-3.3258665E-1,5.6648517E-1,9.067421E-1,-5.971087E-1,-1.2609373E0,-2.7761728E-1,-4.6677935E-1,4.4164702E-2,-8.795287E-1,6.877811E-1,-2.3976253E-2,3.4672493E-1,-6.5524817E-1,-5.0964403E-1,4.513252E-1,-8.648827E-2,3.2488275E-1,1.9890754E-1,-8.123554E-2,-1.2341524E-1,6.685424E-1,2.5856647E-1,2.0600433E-2,-6.0321772E-3,-9.989748E-2,-3.94923E-2,2.08267E-2,5.171742E-1,-2.2241233E-1,1.6871688E-1,5.555016E-1],"split_indices":[424,341,91,176,411,499,281,168,107,510,296,303,377,187,76,0,0,0,0,0,0,0,0,0,0,0,0,0,0,0,0],"split_type":[0,0,0,0,0,0,0,0,0,0,0,0,0,0,0,0,0,0,0,0,0,0,0,0,0,0,0,0,0,0,0],"sum_hessian":[1.0355411E4,1.2704939E3,9.084917E3,1.0595225E3,2.1097151E2,8.98142E3,1.034973E2,4.889541E1,1.010627E3,7.998903E1,1.3098248E2,1.7703569E3,7.211063E3,2.168092E1,8.181638E1,2.2121534E1,2.6773872E1,2.7779678E1,9.8284735E2,7.6596855E1,3.392173E0,6.770668E1,6.3275803E1,1.2675669E3,5.0279E2,8.931243E2,6.3179385E3,1.989601E0,1.9691319E1,6.537324E1,1.644314E1],"tree_param":{"num_deleted":"0","num_feature":"536","num_nodes":"31","size_leaf_vector":"0"}},{"base_weights":[-1.0231924E-2,4.441244E-3,-2.3023888E-1,-1.0727024E-1,3.390932E-2,-2.8110626E-1,6.789659E-1,-1.5839082E-1,1.6151899E-1,-1.898182E-2,1.181425E-1,-4.181045E-1,-7.182537E-2,-3.7666437E-1,1.6065295E0,4.571445E-2,-6.0149115E-2,2.9014042E-1,1.5463073E-2,-8.377776E-3,1.7714858E-1,6.871521E-2,1.3425751E-2,4.6978194E-2,-1.5634806E-1,9.257463E-2,-9.5483765E-2,-2.0855546E-1,4.4378266E-1,1.9858529E-1,8.1317693E-1],"categories":[],"categories_nodes":[],"categories_segments":[],"categories_sizes":[],"default_left":[0,0,0,0,0,0,0,0,0,0,0,0,0,0,0,0,0,0,0,0,0,0,0,0,0,0,0,0,0,0,0],"id":41,"left_children":[1,3,5,7,9,11,13,15,17,19,21,23,25,27,29,-1,-1,-1,-1,-1,-1,-1,-1,-1,-1,-1,-1,-1,-1,-1,-1],"loss_changes":[3.3211117E1,3.1755098E1,2.9939785E1,2.7692034E1,3.400776E1,1.7455402E1,3.4262196E1,2.2174164E1,2.8500097E1,2.5580303E1,2.3954483E1,2.1899002E1,2.2832066E1,1.101112E1,1.7484669E1,0E0,0E0,0E0,0E0,0E0,0E0,0E0,0E0,0E0,0E0,0E0,0E0,0E0,0E0,0E0,0E0],"parents":[2147483647,0,0,1,1,2,2,3,3,4,4,5,5,6,6,7,7,8,8,9,9,10,10,11,11,12,12,13,13,14,14],"right_children":[2,4,6,8,10,12,14,16,18,20,22,24,26,28,30,-1,-1,-1,-1,-1,-1,-1,-1,-1,-1,-1,-1,-1,-1,-1,-1],"split_conditions":[3.7075615E-1,-1.92652E-1,5.793939E-1,3.258643E-1,1.4797628E-1,3.6793664E-2,2.8220625E-3,-2.5843555E-1,-1.5252051E-1,1.1482178E0,-1.7443666E-1,-3.0665553E-1,-6.2691085E-2,7.138116E-1,-1.4314108E-1,4.571445E-2,-6.0149115E-2,2.9014042E-1,1.5463073E-2,-8.377776E-3,1.7714858E-1,6.871521E-2,1.3425751E-2,4.6978194E-2,-1.5634806E-1,9.257463E-2,-9.5483765E-2,-2.0855546E-1,4.4378266E-1,1.9858529E-1,8.1317693E-1],"split_indices":[101,263,310,145,190,124,51,73,105,245,291,421,383,104,203,0,0,0,0,0,0,0,0,0,0,0,0,0,0,0,0],"split_type":[0,0,0,0,0,0,0,0,0,0,0,0,0,0,0,0,0,0,0,0,0,0,0,0,0,0,0,0,0,0,0],"sum_hessian":[1.0286498E4,9.644263E3,6.4223566E2,2.0124731E3,7.6317896E3,6.088624E2,3.3373272E1,1.6912314E3,3.2124173E2,4.6885566E3,2.943233E3,3.6737546E2,2.4148695E2,1.5886863E1,1.7486408E1,2.0148888E2,1.4897426E3,3.7649487E1,2.8359222E2,4.621687E3,6.686923E1,1.1711901E3,1.7720428E3,5.5782166E1,3.115933E2,9.4842766E1,1.466442E2,1.4093528E1,1.7933351E0,1.0285884E1,7.200525E0],"tree_param":{"num_deleted":"0","num_feature":"536","num_nodes":"31","size_leaf_vector":"0"}},{"base_weights":[1.6078181E-3,-2.6551025E-2,1.2949029E-1,3.192763E-2,-1.09457195E-1,4.6755206E-2,3.413948E-1,1.2435504E-1,-3.5597086E-2,2.476779E-2,-1.6946977E-1,-7.5468905E-2,2.0201223E-1,2.3345213E-1,1.0658458E0,-9.153329E-2,4.9089827E-2,-2.2548813E-2,6.5692045E-2,-1.2577909E-1,2.78264E-2,-5.9286367E-2,5.0455153E-2,2.6946474E-2,-6.965667E-2,-2.5911245E-1,7.190929E-2,1.5083365E-1,-1.9671129E-2,-3.4564108E-1,3.728495E-1],"categories":[],"categories_nodes":[],"categories_segments":[],"categories_sizes":[],"default_left":[0,0,0,0,0,0,0,0,0,0,0,0,0,0,0,0,0,0,0,0,0,0,0,0,0,0,0,0,0,0,0],"id":42,"left_children":[1,3,5,7,9,11,13,15,17,19,21,23,25,27,29,-1,-1,-1,-1,-1,-1,-1,-1,-1,-1,-1,-1,-1,-1,-1,-1],"loss_changes":[3.6907276E1,4.0726925E1,3.2409847E1,3.0749533E1,2.799134E1,2.5278904E1,4.0351456E1,3.513372E1,2.8695715E1,3.247162E1,2.2856514E1,1.9336199E1,2.3769968E1,3.6526787E1,2.7751228E1,0E0,0E0,0E0,0E0,0E0,0E0,0E0,0E0,0E0,0E0,0E0,0E0,0E0,0E0,0E0,0E0],"parents":[2147483647,0,0,1,1,2,2,3,3,4,4,5,5,6,6,7,7,8,8,9,9,10,10,11,11,12,12,13,13,14,14],"right_children":[2,4,6,8,10,12,14,16,18,20,22,24,26,28,30,-1,-1,-1,-1,-1,-1,-1,-1,-1,-1,-1,-1,-1,-1,-1,-1],"split_conditions":[3.5195082E-1,-5.718001E-3,2.2520576E-1,-3.2158813E-1,1.64E2,8.0726855E-2,4.3214533E-1,-5.0518584E-1,4.0626302E-1,-2.988091E-1,6.094982E-1,-7.168496E-2,-5.5515504E-1,-2.1708392E-1,-8.072957E-1,-9.153329E-2,4.9089827E-2,-2.2548813E-2,6.5692045E-2,-1.2577909E-1,2.78264E-2,-5.9286367E-2,5.0455153E-2,2.6946474E-2,-6.965667E-2,-2.5911245E-1,7.190929E-2,1.5083365E-1,-1.9671129E-2,-3.4564108E-1,3.728495E-1],"split_indices":[358,346,89,385,533,242,209,155,437,55,71,364,46,107,406,0,0,0,0,0,0,0,0,0,0,0,0,0,0,0,0],"split_type":[0,0,0,0,0,0,0,0,0,0,0,0,0,0,0,0,0,0,0,0,0,0,0,0,0,0,0,0,0,0,0],"sum_hessian":[1.0247156E4,8.398628E3,1.848528E3,4.9252036E3,3.4734243E3,1.3303374E3,5.1819055E2,2.0788481E3,2.8463557E3,1.0733474E3,2.400077E3,7.4464166E2,5.8569574E2,4.521437E2,6.604684E1,1.7362698E2,1.9052211E3,2.464089E3,3.8226657E2,1.418353E2,9.315122E2,2.2157559E3,1.8432106E2,3.6261905E2,3.820226E2,1.9255077E1,5.664407E2,2.3752545E2,2.1461826E2,4.4736247E0,6.157321E1],"tree_param":{"num_deleted":"0","num_feature":"536","num_nodes":"31","size_leaf_vector":"0"}},{"base_weights":[-5.110828E-3,-5.1420804E-2,4.9718212E-2,2.196386E-2,-1.2386957E-1,2.860898E-1,1.651655E-2,7.506197E-2,-1.9004554E-1,-3.786302E-1,-8.826231E-2,8.2922184E-1,1.9620724E-1,-4.3327177E-1,3.403626E-2,4.3260652E-4,9.4160564E-2,-9.959725E-2,5.138465E-2,-1.2933391E-1,2.0319785E-1,-4.903412E-2,7.272382E-3,5.10703E-1,1.2782905E-1,-2.6300887E-2,1.1143985E-1,-1.510947E-1,3.8430098E-1,2.1821473E-2,-5.0600506E-2],"categories":[],"categories_nodes":[],"categories_segments":[],"categories_sizes":[],"default_left":[0,0,0,0,0,0,0,0,0,0,0,0,0,0,0,0,0,0,0,0,0,0,0,0,0,0,0,0,0,0,0],"id":43,"left_children":[1,3,5,7,9,11,13,15,17,19,21,23,25,27,29,-1,-1,-1,-1,-1,-1,-1,-1,-1,-1,-1,-1,-1,-1,-1,-1],"loss_changes":[2.5916233E1,2.9420551E1,3.6672966E1,3.096825E1,2.5225624E1,2.7934597E1,3.231552E1,3.867174E1,2.8317696E1,1.9198551E1,2.0679539E1,2.793024E1,2.4666624E1,1.9194147E1,3.097089E1,0E0,0E0,0E0,0E0,0E0,0E0,0E0,0E0,0E0,0E0,0E0,0E0,0E0,0E0,0E0,0E0],"parents":[2147483647,0,0,1,1,2,2,3,3,4,4,5,5,6,6,7,7,8,8,9,9,10,10,11,11,12,12,13,13,14,14],"right_children":[2,4,6,8,10,12,14,16,18,20,22,24,26,28,30,-1,-1,-1,-1,-1,-1,-1,-1,-1,-1,-1,-1,-1,-1,-1,-1],"split_conditions":[1.6387211E-1,-8.8932194E-2,-1.23018004E-1,-4.6636816E-2,-3.712329E-1,-4.685235E-1,-4.799348E-1,3.34E2,3.1334212E-1,8.462842E-1,-1.2778893E-1,-3.110297E-1,-9.6075535E-2,9.512588E-1,4.4674915E-1,4.3260652E-4,9.4160564E-2,-9.959725E-2,5.138465E-2,-1.2933391E-1,2.0319785E-1,-4.903412E-2,7.272382E-3,5.10703E-1,1.2782905E-1,-2.6300887E-2,1.1143985E-1,-1.510947E-1,3.8430098E-1,2.1821473E-2,-5.0600506E-2],"split_indices":[263,113,247,464,400,124,186,533,218,93,486,502,323,509,254,0,0,0,0,0,0,0,0,0,0,0,0,0,0,0,0],"split_type":[0,0,0,0,0,0,0,0,0,0,0,0,0,0,0,0,0,0,0,0,0,0,0,0,0,0,0,0,0,0,0],"sum_hessian":[1.0204725E4,5.5321743E3,4.6725503E3,2.7486816E3,2.7834927E3,5.745509E2,4.0979995E3,2.1986677E3,5.5001404E2,3.40153E2,2.4433396E3,8.041326E1,4.9413763E2,1.5274722E2,3.945252E3,1.6813442E3,5.173234E2,3.94944E2,1.5507007E2,3.2461102E2,1.5541985E1,1.464308E3,9.790317E2,2.4381948E1,5.603131E1,1.8881041E2,3.0532724E2,1.4740204E2,5.3451858E0,3.313293E3,6.3195917E2],"tree_param":{"num_deleted":"0","num_feature":"536","num_nodes":"31","size_leaf_vector":"0"}},{"base_weights":[-6.492547E-3,5.7147495E-2,-4.892747E-2,2.513505E-1,1.9622417E-2,-2.589969E-1,-2.4051001E-2,-7.779272E-2,3.925416E-1,-2.2481655E-1,5.33806E-2,-8.3552057E-1,-1.9757913E-1,-9.17629E-3,-3.7544858E-1,-4.398675E-2,4.7995767E-1,1.0495557E-1,5.158478E-1,9.9336624E-2,-9.375719E-2,6.383889E-3,9.396636E-2,3.1785008E-1,-2.745367E-1,4.391736E-2,-9.216566E-2,-1.4631583E-2,4.162575E-2,1.3488361E-1,-1.3842951E-1],"categories":[],"categories_nodes":[],"categories_segments":[],"categories_sizes":[],"default_left":[0,0,0,0,0,0,0,0,0,0,0,0,0,0,0,0,0,0,0,0,0,0,0,0,0,0,0,0,0,0,0],"id":44,"left_children":[1,3,5,7,9,11,13,15,17,19,21,23,25,27,29,-1,-1,-1,-1,-1,-1,-1,-1,-1,-1,-1,-1,-1,-1,-1,-1],"loss_changes":[2.7692184E1,2.9889915E1,3.214271E1,3.0897827E1,2.8390053E1,2.2895958E1,2.8753613E1,2.3355177E1,2.5738525E1,2.0460878E1,2.5204458E1,1.0381248E1,2.2291296E1,3.0929388E1,1.6056095E1,0E0,0E0,0E0,0E0,0E0,0E0,0E0,0E0,0E0,0E0,0E0,0E0,0E0,0E0,0E0,0E0],"parents":[2147483647,0,0,1,1,2,2,3,3,4,4,5,5,6,6,7,7,8,8,9,9,10,10,11,11,12,12,13,13,14,14],"right_children":[2,4,6,8,10,12,14,16,18,