{"learner":{"attributes":{"best_iteration":"199","best_ntree_limit":"200","scikit_learn":"{\"use_label_encoder\": false, \"n_estimators\": 200, \"objective\": \"binary:logistic\", \"max_depth\": 4, \"max_leaves\": null, \"max_bin\": null, \"grow_policy\": null, \"learning_rate\": 0.3, \"verbosity\": null, \"booster\": null, \"tree_method\": \"gpu_hist\", \"gamma\": null, \"min_child_weight\": null, \"max_delta_step\": null, \"subsample\": 0.5, \"sampling_method\": null, \"colsample_bytree\": 1, \"colsample_bylevel\": null, \"colsample_bynode\": null, \"reg_alpha\": null, \"reg_lambda\": null, \"scale_pos_weight\": null, \"base_score\": null, \"missing\": NaN, \"num_parallel_tree\": null, \"random_state\": null, \"n_jobs\": null, \"monotone_constraints\": null, \"interaction_constraints\": null, \"importance_type\": null, \"gpu_id\": 0, \"validate_parameters\": null, \"predictor\": null, \"enable_categorical\": false, \"max_cat_to_onehot\": null, \"eval_metric\": null, \"early_stopping_rounds\": null, \"callbacks\": null, \"kwargs\": {\"seed\": 7599}, \"classes_\": [0, 1], \"n_classes_\": 2, \"_estimator_type\": \"classifier\"}"},"feature_names":[],"feature_types":[],"gradient_booster":{"model":{"gbtree_model_param":{"num_parallel_tree":"1","num_trees":"200","size_leaf_vector":"0"},"tree_info":[0,0,0,0,0,0,0,0,0,0,0,0,0,0,0,0,0,0,0,0,0,0,0,0,0,0,0,0,0,0,0,0,0,0,0,0,0,0,0,0,0,0,0,0,0,0,0,0,0,0,0,0,0,0,0,0,0,0,0,0,0,0,0,0,0,0,0,0,0,0,0,0,0,0,0,0,0,0,0,0,0,0,0,0,0,0,0,0,0,0,0,0,0,0,0,0,0,0,0,0,0,0,0,0,0,0,0,0,0,0,0,0,0,0,0,0,0,0,0,0,0,0,0,0,0,0,0,0,0,0,0,0,0,0,0,0,0,0,0,0,0,0,0,0,0,0,0,0,0,0,0,0,0,0,0,0,0,0,0,0,0,0,0,0,0,0,0,0,0,0,0,0,0,0,0,0,0,0,0,0,0,0,0,0,0,0,0,0,0,0,0,0,0,0,0,0,0,0,0,0],"trees":[{"base_weights":[-1.1166503E0,-1.7110422E0,-8.4842056E-1,-1.8908648E0,-1.458493E0,-5.085359E-1,-1.2327763E0,-1.9571828E0,-1.778992E0,-1.207064E0,-1.6911705E0,-1.9068459E-1,-6.8846655E-1,-1.1183522E0,-1.4388231E0,-5.454546E-2,-5.875822E-1,-2.1538463E-1,-5.383604E-1,-1.16504855E-1,-3.7347504E-1,-5.1580775E-1,-3.46875E-1,-1.1678804E-1,9.823009E-3,-1.4191781E-1,-2.4737857E-1,-2.6359633E-1,-3.7089723E-1,-4.7014454E-1,-3.4983277E-1],"categories":[],"categories_nodes":[],"categories_segments":[],"categories_sizes":[],"default_left":[0,0,0,0,0,0,0,0,0,0,0,0,0,0,0,0,0,0,0,0,0,0,0,0,0,0,0,0,0,0,0],"id":0,"left_children":[1,3,5,7,9,11,13,15,17,19,21,23,25,27,29,-1,-1,-1,-1,-1,-1,-1,-1,-1,-1,-1,-1,-1,-1,-1,-1],"loss_changes":[2.8895977E3,2.5326367E2,1.6319062E3,2.0923828E1,1.353794E2,3.7926074E2,1.3664551E2,4.8413086E0,1.908252E1,3.4613403E1,1.6370361E1,1.0647892E2,1.2380786E2,1.056543E2,7.132324E1,0E0,0E0,0E0,0E0,0E0,0E0,0E0,0E0,0E0,0E0,0E0,0E0,0E0,0E0,0E0,0E0],"parents":[2147483647,0,0,1,1,2,2,3,3,4,4,5,5,6,6,7,7,8,8,9,9,10,10,11,11,12,12,13,13,14,14],"right_children":[2,4,6,8,10,12,14,16,18,20,22,24,26,28,30,-1,-1,-1,-1,-1,-1,-1,-1,-1,-1,-1,-1,-1,-1,-1,-1],"split_conditions":[1.4252028E-1,4.1481543E-2,2.42E2,1.0203324E-2,2.72E2,1.22E2,3.9E2,5.7E1,-9.718485E-1,-7.041936E-1,1.1295472E0,6.9600046E-2,-2.8228045E-1,-1.9934964E-1,1.148985E0,-5.454546E-2,-5.875822E-1,-2.1538463E-1,-5.383604E-1,-1.16504855E-1,-3.7347504E-1,-5.1580775E-1,-3.46875E-1,-1.1678804E-1,9.823009E-3,-1.4191781E-1,-2.4737857E-1,-2.6359633E-1,-3.7089723E-1,-4.7014454E-1,-3.4983277E-1],"split_indices":[535,535,533,535,533,533,533,533,238,386,326,440,428,510,108,0,0,0,0,0,0,0,0,0,0,0,0,0,0,0,0],"split_type":[0,0,0,0,0,0,0,0,0,0,0,0,0,0,0,0,0,0,0,0,0,0,0,0,0,0,0,0,0,0,0],"sum_hessian":[1.813225E4,5.6365E3,1.249575E4,3.2885E3,2.348E3,6.63275E3,5.863E3,2.05425E3,1.23425E3,1.1315E3,1.2165E3,2.39825E3,4.2345E3,3.77375E3,2.08925E3,1.75E0,2.0525E3,1.85E1,1.21575E3,5.05E1,1.081E3,1.1535E3,6.3E1,1.26925E3,1.129E3,1.6415E3,2.593E3,1.2475E3,2.52625E3,1.4175E3,6.7175E2],"tree_param":{"num_deleted":"0","num_feature":"536","num_nodes":"31","size_leaf_vector":"0"}},{"base_weights":[-8.1865835E-1,-1.3229069E0,-6.215525E-1,-1.4368336E0,-1.0786217E0,-3.2106504E-1,-8.5573447E-1,-1.518476E0,-1.345016E0,-8.151398E-1,-1.2831911E0,1.5442948E-1,-3.8088927E-1,-9.377906E-1,-6.100871E-1,-4.5634127E-1,-2.5957924E-1,-3.6123052E-1,-4.4047275E-1,-6.698454E-2,-2.6937836E-1,-3.5428235E-1,-4.4419244E-1,8.666524E-2,-8.320207E-2,-5.1641025E-2,-1.6046439E-1,-2.4896502E-1,-3.3840287E-1,-2.6969805E-1,-1.5346938E-1],"categories":[],"categories_nodes":[],"categories_segments":[],"categories_sizes":[],"default_left":[0,0,0,0,0,0,1,0,0,0,0,0,0,0,0,0,0,0,0,0,0,0,0,0,0,0,0,0,0,0,0],"id":1,"left_children":[1,3,5,7,9,11,13,15,17,19,21,23,25,27,29,-1,-1,-1,-1,-1,-1,-1,-1,-1,-1,-1,-1,-1,-1,-1,-1],"loss_changes":[1.7412051E3,1.3551172E2,8.866006E2,2.311084E1,8.359534E1,1.5713104E2,1.4218896E2,1.7583008E0,2.5808594E1,3.356357E1,1.6063477E1,3.594503E1,1.5758374E2,1.0799951E2,5.0100403E1,0E0,0E0,0E0,0E0,0E0,0E0,0E0,0E0,0E0,0E0,0E0,0E0,0E0,0E0,0E0,0E0],"parents":[2147483647,0,0,1,1,2,2,3,3,4,4,5,5,6,6,7,7,8,8,9,9,10,10,11,11,12,12,13,13,14,14],"right_children":[2,4,6,8,10,12,14,16,18,20,22,24,26,28,30,-1,-1,-1,-1,-1,-1,-1,-1,-1,-1,-1,-1,-1,-1,-1,-1],"split_conditions":[1.2567446E-1,5.3858995E-2,2.09E2,8.028531E-3,2.42E2,9E1,5.923626E-1,1.5380223E0,2.95E2,-1.9900572E-1,4.21E2,5.1486105E-1,-1.1469675E-1,3.66E2,-7.9762705E-2,-4.5634127E-1,-2.5957924E-1,-3.6123052E-1,-4.4047275E-1,-6.698454E-2,-2.6937836E-1,-3.5428235E-1,-4.4419244E-1,8.666524E-2,-8.320207E-2,-5.1641025E-2,-1.6046439E-1,-2.4896502E-1,-3.3840287E-1,-2.6969805E-1,-1.5346938E-1],"split_indices":[535,535,533,535,533,533,535,288,533,247,533,19,386,533,121,0,0,0,0,0,0,0,0,0,0,0,0,0,0,0,0],"split_type":[0,0,0,0,0,0,0,0,0,0,0,0,0,0,0,0,0,0,0,0,0,0,0,0,0,0,0,0,0,0,0],"sum_hessian":[1.7526123E4,4.923867E3,1.2602257E4,3.3545354E3,1.5693314E3,5.520749E3,7.081508E3,1.7674333E3,1.5871022E3,6.880799E2,8.812515E2,6.167913E2,4.9039575E3,5.3062036E3,1.7753043E3,1.758938E3,8.495395E0,7.4543665E2,8.416655E2,8.489026E1,6.0318964E2,5.851907E2,2.9606085E2,4.7058148E2,1.4620984E2,2.0827234E3,2.8212344E3,3.389037E3,1.9171666E3,4.4939053E2,1.3259138E3],"tree_param":{"num_deleted":"0","num_feature":"536","num_nodes":"31","size_leaf_vector":"0"}},{"base_weights":[-6.23965E-1,-9.6314394E-1,-3.962907E-1,-1.2139616E0,-7.8135586E-1,-6.0805123E-2,-5.396966E-1,-1.299191E0,-1.072481E0,-6.062803E-1,-9.7641623E-1,6.560816E-2,-3.050227E-1,-4.5293164E-1,-7.614191E-1,-3.9058334E-1,-9.967103E-2,-2.6571015E-1,-3.67092E-1,-2.3771423E-1,-1.4642204E-1,8.929787E-2,-2.9740277E-1,-6.6335455E-2,5.3926308E-2,-1.5046127E-1,-1.5486987E-2,-8.77962E-2,-1.7811641E-1,-1.4583854E-1,-2.6148254E-1],"categories":[],"categories_nodes":[],"categories_segments":[],"categories_sizes":[],"default_left":[0,0,0,0,0,0,0,0,0,0,0,0,0,0,0,0,0,0,0,0,0,0,0,0,0,0,0,0,0,0,0],"id":2,"left_children":[1,3,5,7,9,11,13,15,17,19,21,23,25,27,29,-1,-1,-1,-1,-1,-1,-1,-1,-1,-1,-1,-1,-1,-1,-1,-1],"loss_changes":[1.2623848E3,2.9848535E2,4.7078687E2,3.1861084E1,1.2953198E2,9.05266E1,1.3154028E2,4.136963E0,2.8349976E1,4.3844727E1,3.453882E1,6.328966E1,4.97753E1,1.1107013E2,5.8021606E1,0E0,0E0,0E0,0E0,0E0,0E0,0E0,0E0,0E0,0E0,0E0,0E0,0E0,0E0,0E0,0E0],"parents":[2147483647,0,0,1,1,2,2,3,3,4,4,5,5,6,6,7,7,8,8,9,9,10,10,11,11,12,12,13,13,14,14],"right_children":[2,4,6,8,10,12,14,16,18,20,22,24,26,28,30,-1,-1,-1,-1,-1,-1,-1,-1,-1,-1,-1,-1,-1,-1,-1,-1],"split_conditions":[2.5225514E-1,4.897445E-2,1.56E2,1.2714109E-2,2.72E2,9.6067406E-2,3.58E2,1.0371256E0,2.76E2,-1.5838568E-1,-9.7503906E-1,-2.0204142E-2,1.7920941E-1,2.4978781E-1,-4.1886115E-1,-3.9058334E-1,-9.967103E-2,-2.6571015E-1,-3.67092E-1,-2.3771423E-1,-1.4642204E-1,8.929787E-2,-2.9740277E-1,-6.6335455E-2,5.3926308E-2,-1.5046127E-1,-1.5486987E-2,-8.77962E-2,-1.7811641E-1,-1.4583854E-1,-2.6148254E-1],"split_indices":[535,535,533,535,533,386,533,373,533,67,329,359,157,19,107,0,0,0,0,0,0,0,0,0,0,0,0,0,0,0,0],"split_type":[0,0,0,0,0,0,0,0,0,0,0,0,0,0,0,0,0,0,0,0,0,0,0,0,0,0,0,0,0,0,0],"sum_hessian":[1.6351346E4,6.5661543E3,9.785191E3,2.7568218E3,3.8093328E3,2.93064E3,6.8545513E3,1.7153146E3,1.0415071E3,2.0096705E3,1.7996621E3,1.9315509E3,9.99089E2,4.9288325E3,1.9257189E3,1.7100986E3,5.215922E0,4.689297E2,5.7257745E2,7.7843243E2,1.2312382E3,2.0620358E1,1.7790417E3,5.497314E2,1.3818196E3,5.621524E2,4.3693655E2,2.3063354E3,2.6224968E3,5.520127E2,1.3737062E3],"tree_param":{"num_deleted":"0","num_feature":"536","num_nodes":"31","size_leaf_vector":"0"}},{"base_weights":[-4.8146936E-1,-1.0172273E0,-3.5886294E-1,-1.1757882E0,-8.7918323E-1,-1.9560443E-1,-5.774054E-1,-6.387232E-1,-1.1831251E0,-7.4477546E-2,-9.082206E-1,-1.3317274E-1,-4.4552568E-1,-7.536749E-1,-4.4956893E-1,5.249719E-1,-2.610524E-1,-1.61643E-1,-3.566468E-1,-8.9505926E-2,4.8261136E-1,4.7694698E-2,-2.7885246E-1,-6.592213E-2,1.8685095E-2,7.721786E-2,-1.493627E-1,-1.8101978E-1,-2.5929177E-1,-1.9423796E-1,-9.581695E-2],"categories":[],"categories_nodes":[],"categories_segments":[],"categories_sizes":[],"default_left":[0,0,0,0,0,0,0,0,0,0,0,1,0,0,0,0,0,0,0,0,0,0,0,0,0,0,0,0,0,0,0],"id":3,"left_children":[1,3,5,7,9,11,13,15,17,19,21,23,25,27,29,-1,-1,-1,-1,-1,-1,-1,-1,-1,-1,-1,-1,-1,-1,-1,-1],"loss_changes":[9.9740454E2,6.0871094E1,4.409663E2,4.4194336E0,3.5353394E1,1.1037521E2,1.1876721E2,1.2509646E1,4.11145E0,2.0784758E1,3.3384644E1,9.585866E1,5.216928E1,3.639392E1,7.8783264E1,0E0,0E0,0E0,0E0,0E0,0E0,0E0,0E0,0E0,0E0,0E0,0E0,0E0,0E0,0E0,0E0],"parents":[2147483647,0,0,1,1,2,2,3,3,4,4,5,5,6,6,7,7,8,8,9,9,10,10,11,11,12,12,13,13,14,14],"right_children":[2,4,6,8,10,12,14,16,18,20,22,24,26,28,30,-1,-1,-1,-1,-1,-1,-1,-1,-1,-1,-1,-1,-1,-1,-1,-1],"split_conditions":[7.872108E-2,1.142485E-2,2.54E2,8.7E1,9.5E1,2.5716737E-1,1.1669207E-1,-8.69804E-1,-9.696309E-1,6.3607806E-1,-9.0984875E-1,5.8771574E-1,7.1E1,-8.295924E-2,1.580849E-1,5.249719E-1,-2.610524E-1,-1.61643E-1,-3.566468E-1,-8.9505926E-2,4.8261136E-1,4.7694698E-2,-2.7885246E-1,-6.592213E-2,1.8685095E-2,7.721786E-2,-1.493627E-1,-1.8101978E-1,-2.5929177E-1,-1.9423796E-1,-9.581695E-2],"split_indices":[535,535,533,533,533,386,341,479,63,437,238,535,533,510,316,0,0,0,0,0,0,0,0,0,0,0,0,0,0,0,0],"split_type":[0,0,0,0,0,0,0,0,0,0,0,0,0,0,0,0,0,0,0,0,0,0,0,0,0,0,0,0,0,0,0],"sum_hessian":[1.5188674E4,2.82721E3,1.2361464E4,1.3123243E3,1.5148856E3,7.0767734E3,5.28469E3,1.8873177E1,1.2934512E3,5.2884132E1,1.4620015E3,5.6635264E3,1.4132472E3,2.2194578E3,3.0652322E3,1.0876647E0,1.7785511E1,1.2175073E1,1.2812761E3,4.7402058E1,5.482076E0,2.8465897E1,1.4335355E3,3.9250127E3,1.7385135E3,9.768498E1,1.3155621E3,9.4384247E2,1.2756152E3,1.2147158E3,1.8505164E3],"tree_param":{"num_deleted":"0","num_feature":"536","num_nodes":"31","size_leaf_vector":"0"}},{"base_weights":[-3.7160534E-1,-9.4376963E-1,-2.7203557E-1,-1.0976033E0,-7.9715085E-1,-1.4011067E-1,-4.5191926E-1,-4.6116647E-1,-1.1093339E0,-5.758105E-1,-9.506107E-1,-3.4112588E-1,-5.5371687E-2,-6.1640984E-1,-3.0127978E-1,5.5201554E-1,-2.2964777E-1,-3.3394554E-1,5.3520013E-2,-2.0423704E-1,-2.2833917E-2,-1.5295747E-1,-3.0536687E-1,-1.5974292E-1,-6.690769E-2,1.4908386E-2,-6.969194E-2,-1.4676732E-1,-2.5642398E-1,-1.4746332E-1,-5.13323E-2],"categories":[],"categories_nodes":[],"categories_segments":[],"categories_sizes":[],"default_left":[0,0,0,0,0,0,1,0,0,0,0,0,0,0,0,0,0,0,0,0,0,0,0,0,0,0,0,0,0,0,0],"id":4,"left_children":[1,3,5,7,9,11,13,15,17,19,21,23,25,27,29,-1,-1,-1,-1,-1,-1,-1,-1,-1,-1,-1,-1,-1,-1,-1,-1],"loss_changes":[8.099061E2,4.6659912E1,2.8742242E2,7.1467285E0,3.6229065E1,1.190515E2,1.2680676E2,1.5608552E1,5.1470947E0,2.3336502E1,1.8395874E1,4.67218E1,9.1446014E1,7.381641E1,6.622041E1,0E0,0E0,0E0,0E0,0E0,0E0,0E0,0E0,0E0,0E0,0E0,0E0,0E0,0E0,0E0,0E0],"parents":[2147483647,0,0,1,1,2,2,3,3,4,4,5,5,6,6,7,7,8,8,9,9,10,10,11,11,12,12,13,13,14,14],"right_children":[2,4,6,8,10,12,14,16,18,20,22,24,26,28,30,-1,-1,-1,-1,-1,-1,-1,-1,-1,-1,-1,-1,-1,-1,-1,-1],"split_conditions":[6.1884597E-2,1.0203324E-2,2.49E2,8.9E1,2.4E2,-7.9225354E-2,3.5632053E-1,-5.1983196E-2,1.1171385E0,3.3375192E-1,-6.6595465E-1,-3.1843197E-1,3.2980185E-2,3.9E2,-1.7869498E-1,5.5201554E-1,-2.2964777E-1,-3.3394554E-1,5.3520013E-2,-2.0423704E-1,-2.2833917E-2,-1.5295747E-1,-3.0536687E-1,-1.5974292E-1,-6.690769E-2,1.4908386E-2,-6.969194E-2,-1.4676732E-1,-2.5642398E-1,-1.4746332E-1,-5.13323E-2],"split_indices":[535,535,533,533,533,388,535,141,451,80,360,432,390,533,246,0,0,0,0,0,0,0,0,0,0,0,0,0,0,0,0],"split_type":[0,0,0,0,0,0,0,0,0,0,0,0,0,0,0,0,0,0,0,0,0,0,0,0,0,0,0,0,0,0,0],"sum_hessian":[1.4219801E4,2.1065156E3,1.2113285E4,1.0248002E3,1.0817156E3,6.989232E3,5.124053E3,1.927643E1,1.00552374E3,4.4484805E2,6.3686743E2,2.0717249E3,4.9175073E3,2.447938E3,2.6761152E3,1.6620693E0,1.761436E1,1.0026865E3,2.8372526E0,3.673173E2,7.753078E1,8.547665E1,5.513908E2,7.893239E2,1.282401E3,3.0858223E3,1.8316848E3,1.5981545E3,8.497833E2,1.0859999E3,1.5901155E3],"tree_param":{"num_deleted":"0","num_feature":"536","num_nodes":"31","size_leaf_vector":"0"}},{"base_weights":[-2.9114285E-1,-8.73041E-1,-2.18079E-1,-1.0293909E0,-7.3000646E-1,-1.6918963E-1,-5.357153E-1,-1.2573397E-1,-1.0433882E0,-5.2168405E-1,-9.1758484E-1,-1.26829455E-2,-2.6497412E-1,-7.44704E-1,-3.223927E-1,3.4261E-1,-2.7213395E-1,-3.1465924E-1,1.7300162E-1,-2.0030229E-1,3.8003813E-2,1.8306929E-1,-2.830343E-1,8.246061E-2,-3.6180295E-2,-3.4535132E-2,-1.12682216E-1,-1.7923918E-1,-2.899153E-1,-1.2631741E-1,1.08923726E-1],"categories":[],"categories_nodes":[],"categories_segments":[],"categories_sizes":[],"default_left":[0,0,0,0,0,0,0,0,0,0,0,0,0,0,0,0,0,0,0,0,0,0,0,0,0,0,0,0,0,0,0],"id":5,"left_children":[1,3,5,7,9,11,13,15,17,19,21,23,25,27,29,-1,-1,-1,-1,-1,-1,-1,-1,-1,-1,-1,-1,-1,-1,-1,-1],"loss_changes":[5.722611E2,3.283142E1,1.8569531E2,8.912781E0,3.0301147E1,1.5544403E2,7.08833E1,1.2966167E1,6.8499756E0,3.5629303E1,1.6901001E1,1.22233986E2,1.0660297E2,2.5700989E1,5.366671E1,0E0,0E0,0E0,0E0,0E0,0E0,0E0,0E0,0E0,0E0,0E0,0E0,0E0,0E0,0E0,0E0],"parents":[2147483647,0,0,1,1,2,2,3,3,4,4,5,5,6,6,7,7,8,8,9,9,10,10,11,11,12,12,13,13,14,14],"right_children":[2,4,6,8,10,12,14,16,18,20,22,24,26,28,30,-1,-1,-1,-1,-1,-1,-1,-1,-1,-1,-1,-1,-1,-1,-1,-1],"split_conditions":[4.897445E-2,7.0398794E-3,3.94E2,8.7E1,2.76E2,-9.490598E-2,8.3062446E-1,-2.0481616E-2,1.406649E0,3.5319117E-1,-7.010732E-1,-2.1336697E-1,1.66E2,-1.861517E-1,5.5342615E-1,3.4261E-1,-2.7213395E-1,-3.1465924E-1,1.7300162E-1,-2.0030229E-1,3.8003813E-2,1.8306929E-1,-2.830343E-1,8.246061E-2,-3.6180295E-2,-3.4535132E-2,-1.12682216E-1,-1.7923918E-1,-2.899153E-1,-1.2631741E-1,1.08923726E-1],"split_indices":[535,535,533,533,533,510,108,510,108,371,187,90,533,464,144,0,0,0,0,0,0,0,0,0,0,0,0,0,0,0,0],"split_type":[0,0,0,0,0,0,0,0,0,0,0,0,0,0,0,0,0,0,0,0,0,0,0,0,0,0,0,0,0,0,0],"sum_hessian":[1.3463465E4,1.5006868E3,1.1962778E4,7.1401044E2,7.866763E2,1.036844E4,1.5943384E3,1.1043338E1,7.029671E2,3.7451987E2,4.1215643E2,3.9368965E3,6.4315435E3,8.040917E2,7.902467E2,4.035036E0,7.008302E0,7.009504E2,2.0166829E0,3.0566446E2,6.885541E1,6.484701E0,4.0567172E2,1.0739008E3,2.8629956E3,2.732418E3,3.6991257E3,4.8539038E2,3.187013E2,6.911498E2,9.9096886E1],"tree_param":{"num_deleted":"0","num_feature":"536","num_nodes":"31","size_leaf_vector":"0"}},{"base_weights":[-2.0649184E-1,-7.0366925E-1,-1.3237509E-1,-9.6074134E-1,-5.404898E-1,-2.7122492E-1,-2.7981605E-2,5.963453E-1,-9.679121E-1,-3.9285392E-1,-7.8748566E-1,-1.5979742E-1,-4.3811417E-1,2.3031716E-1,-8.961005E-2,-2.0023859E-1,5.7846564E-1,-7.142677E-2,-2.9524797E-1,-2.2729911E-1,-7.936826E-2,-2.4119289E-1,4.295543E-1,-6.913228E-2,4.6994697E-2,-1.3620423E-1,4.7887295E-1,1.1375679E-1,-1.3365837E-2,2.787475E-2,-5.615448E-2],"categories":[],"categories_nodes":[],"categories_segments":[],"categories_sizes":[],"default_left":[0,0,0,0,0,0,0,0,0,0,0,0,0,0,0,0,0,0,0,0,0,0,0,0,0,0,0,0,0,0,0],"id":6,"left_children":[1,3,5,7,9,11,13,15,17,19,21,23,25,27,29,-1,-1,-1,-1,-1,-1,-1,-1,-1,-1,-1,-1,-1,-1,-1,-1],"loss_changes":[4.7386597E2,6.946979E1,1.6225983E2,7.7962036E0,3.69906E1,8.927194E1,1.017617E2,7.3173923E0,7.4018555E0,2.9856552E1,1.5119858E1,6.447281E1,6.292334E1,5.040896E1,9.1929375E1,0E0,0E0,0E0,0E0,0E0,0E0,0E0,0E0,0E0,0E0,0E0,0E0,0E0,0E0,0E0,0E0],"parents":[2147483647,0,0,1,1,2,2,3,3,4,4,5,5,6,6,7,7,8,8,9,9,10,10,11,11,12,12,13,13,14,14],"right_children":[2,4,6,8,10,12,14,16,18,20,22,24,26,28,30,-1,-1,-1,-1,-1,-1,-1,-1,-1,-1,-1,-1,-1,-1,-1,-1],"split_conditions":[7.872108E-2,1.142485E-2,6.640023E-2,-1.0375538E0,3.16E2,2.54E2,-5.375547E-1,2.2149763E-1,8.7E1,-2.9855755E-1,8.843647E-1,2.8975517E-1,1.0885643E0,5.83886E-2,1.58E2,-2.0023859E-1,5.7846564E-1,-7.142677E-2,-2.9524797E-1,-2.2729911E-1,-7.936826E-2,-2.4119289E-1,4.295543E-1,-6.913228E-2,4.6994697E-2,-1.3620423E-1,4.7887295E-1,1.1375679E-1,-1.3365837E-2,2.787475E-2,-5.615448E-2],"split_indices":[535,535,359,279,533,533,428,365,533,74,152,67,216,510,533,0,0,0,0,0,0,0,0,0,0,0,0,0,0,0,0],"split_type":[0,0,0,0,0,0,0,0,0,0,0,0,0,0,0,0,0,0,0,0,0,0,0,0,0,0,0,0,0,0,0],"sum_hessian":[1.2861139E4,1.6674357E3,1.1193703E4,6.455506E2,1.021885E3,4.80335E3,6.3903525E3,2.5826213E0,6.42968E2,6.412085E2,3.8067648E2,2.8814443E3,1.921906E3,1.2304635E3,5.159889E3,1.5811406E0,1.0014807E0,1.4343294E1,6.286247E2,1.655501E2,4.7565842E2,3.785018E2,2.1746972E0,2.355806E3,5.2563855E2,1.9077722E3,1.41337595E1,7.9792206E2,4.3254147E2,1.7974569E3,3.3624321E3],"tree_param":{"num_deleted":"0","num_feature":"536","num_nodes":"31","size_leaf_vector":"0"}},{"base_weights":[-1.6865526E-1,-8.141851E-1,-1.2566428E-1,5.4508716E-1,-8.36057E-1,-2.6759768E-1,-3.1516563E-2,3.0826886E0,-3.1352657E-1,-9.7185856E-1,-6.560562E-1,-5.948194E-2,-3.4573686E-1,6.2336992E-2,-1.8925364E-1,2.6028246E-1,1.1137036E0,4.8125884E-1,-2.2479019E-1,-1.7739844E-1,-3.0073008E-1,-2.061647E-1,4.7991806E-1,1.1002805E-1,-5.3444985E-2,-7.815276E-2,-1.5934095E-1,5.457776E-2,-1.8436179E-2,-1.3767143E-1,-3.0989876E-2],"categories":[],"categories_nodes":[],"categories_segments":[],"categories_sizes":[],"default_left":[0,0,1,0,0,0,0,0,0,0,0,0,0,0,0,0,0,0,0,0,0,0,0,0,0,0,0,0,0,0,0],"id":7,"left_children":[1,3,5,7,9,11,13,15,17,19,21,23,25,27,29,-1,-1,-1,-1,-1,-1,-1,-1,-1,-1,-1,-1,-1,-1,-1,-1],"loss_changes":[3.42008E2,2.3334015E1,1.5444966E2,2.8837543E1,1.788501E1,7.493884E1,1.0290695E2,1.4184303E0,9.948005E0,4.408081E0,2.421904E1,6.3770508E1,5.2811707E1,6.4532646E1,6.005291E1,0E0,0E0,0E0,0E0,0E0,0E0,0E0,0E0,0E0,0E0,0E0,0E0,0E0,0E0,0E0,0E0],"parents":[2147483647,0,0,1,1,2,2,3,3,4,4,5,5,6,6,7,7,8,8,9,9,10,10,11,11,12,12,13,13,14,14],"right_children":[2,4,6,8,10,12,14,16,18,20,22,24,26,28,30,-1,-1,-1,-1,-1,-1,-1,-1,-1,-1,-1,-1,-1,-1,-1,-1],"split_conditions":[2.703666E-2,-6.6121155E-1,3.2817218E-1,-5.428626E-1,7.0398794E-3,-2.6982543E-1,3.901014E-1,-5.6566026E-2,-6.756727E-1,1.13E2,8.175062E-1,-2.8314272E-1,3.07E2,1.08937465E-1,-1.5557997E-1,2.6028246E-1,1.1137036E0,4.8125884E-1,-2.2479019E-1,-1.7739844E-1,-3.0073008E-1,-2.061647E-1,4.7991806E-1,1.1002805E-1,-5.3444985E-2,-7.815276E-2,-1.5934095E-1,5.457776E-2,-1.8436179E-2,-1.3767143E-1,-3.0989876E-2],"split_indices":[535,433,535,192,535,238,19,318,212,533,266,180,533,303,403,0,0,0,0,0,0,0,0,0,0,0,0,0,0,0,0],"split_type":[0,0,0,0,0,0,0,0,0,0,0,0,0,0,0,0,0,0,0,0,0,0,0,0,0,0,0,0,0,0,0],"sum_hessian":[1.2326431E4,7.685376E2,1.1557893E4,1.1791807E1,7.567458E2,4.608483E3,6.9494097E3,2.3262756E0,9.465531E0,4.2882193E2,3.279239E2,1.2584609E3,3.350022E3,4.357376E3,2.5920337E3,1.041228E0,1.2850475E0,1.2561781E0,8.209353E0,3.340537E1,3.9541656E2,3.241418E2,3.7820559E0,2.736065E2,9.8485443E2,2.2966592E3,1.0533628E3,2.2160652E3,2.141311E3,6.254771E2,1.9665566E3],"tree_param":{"num_deleted":"0","num_feature":"536","num_nodes":"31","size_leaf_vector":"0"}},{"base_weights":[-1.0361102E-1,-7.4920994E-1,-6.861002E-2,-7.8184307E-1,4.2658502E-1,-3.1717598E-1,-2.3745192E-2,-8.350015E-1,-2.2413197E-1,3.755229E0,-2.8436637E-1,-4.922967E-2,-3.9979443E-1,1.2820771E-1,-9.9556744E-2,-9.618711E-2,-2.6671878E-1,-1.390061E-1,5.514393E-1,2.6016533E-1,1.4659449E0,7.903623E-1,-2.551311E-1,8.443298E-2,-7.2290786E-2,-1.5747882E-1,-4.6358738E-2,7.75069E-2,-1.5437329E-2,-9.528319E-2,-1.1849311E-2],"categories":[],"categories_nodes":[],"categories_segments":[],"categories_sizes":[],"default_left":[0,0,0,0,0,0,0,0,0,0,0,0,0,0,0,0,0,0,0,0,0,0,0,0,0,0,0,0,0,0,0],"id":8,"left_children":[1,3,5,7,9,11,13,15,17,19,21,23,25,27,29,-1,-1,-1,-1,-1,-1,-1,-1,-1,-1,-1,-1,-1,-1,-1,-1],"loss_changes":[2.703656E2,2.3943695E1,1.26597626E2,1.7573395E1,4.192261E1,3.8404877E1,1.1081103E2,1.4913788E1,2.7244402E1,5.9188423E0,2.728126E1,2.607614E1,4.063179E1,7.488219E1,8.402858E1,0E0,0E0,0E0,0E0,0E0,0E0,0E0,0E0,0E0,0E0,0E0,0E0,0E0,0E0,0E0,0E0],"parents":[2147483647,0,0,1,1,2,2,3,3,4,4,5,5,6,6,7,7,8,8,9,9,10,10,11,11,12,12,13,13,14,14],"right_children":[2,4,6,8,10,12,14,16,18,20,22,24,26,28,30,-1,-1,-1,-1,-1,-1,-1,-1,-1,-1,-1,-1,-1,-1,-1,-1],"split_conditions":[2.703666E-2,9.535924E-1,-2.6068336E-1,6.1877835E-1,-4.9041572E-1,-3.476944E-1,-1.6304068E-1,1.17E2,7.1684813E-1,4.852027E-1,-8.924663E-1,5.321584E-2,1.9836646E-1,5.9680145E-2,1.8483885E-1,-9.618711E-2,-2.6671878E-1,-1.390061E-1,5.514393E-1,2.6016533E-1,1.4659449E0,7.903623E-1,-2.551311E-1,8.443298E-2,-7.2290786E-2,-1.5747882E-1,-4.6358738E-2,7.75069E-2,-1.5437329E-2,-9.528319E-2,-1.1849311E-2],"split_indices":[535,506,425,171,105,72,349,533,286,95,278,342,34,230,108,0,0,0,0,0,0,0,0,0,0,0,0,0,0,0,0],"split_type":[0,0,0,0,0,0,0,0,0,0,0,0,0,0,0,0,0,0,0,0,0,0,0,0,0,0,0,0,0,0,0],"sum_hessian":[1.196615E4,6.1433014E2,1.135182E4,5.9806635E2,1.6263756E1,1.7347367E3,9.617084E3,5.455681E2,5.2498222E1,2.1087415E0,1.4155015E1,4.092058E2,1.325531E3,3.2008228E3,6.4162607E3,5.254505E1,4.930231E2,4.7736168E1,4.762058E0,1.090745E0,1.0179965E0,1.7056831E0,1.2449331E1,1.5001793E2,2.5918787E2,8.7696234E2,4.485686E2,1.8559474E3,1.3448754E3,1.3846783E3,5.0315825E3],"tree_param":{"num_deleted":"0","num_feature":"536","num_nodes":"31","size_leaf_vector":"0"}},{"base_weights":[-7.608969E-2,-6.69506E-1,-4.9477372E-2,-9.1761804E-1,-4.7576547E-1,4.990182E-4,-2.4568741E-1,-1.431959E-1,-9.411078E-1,9.855386E-1,-5.335067E-1,-2.453418E-1,4.5418065E-2,-3.470796E-1,-8.5628204E-2,3.5803923E-1,-2.766068E-1,8.226181E-3,-2.8616565E-1,-1.9213846E-1,8.288781E-1,-1.7618175E-1,2.368941E-1,-1.0565833E-1,3.6707E-4,-1.2412405E-2,5.3336848E-2,-1.09626256E-1,2.7103227E-1,6.5780416E-2,-6.483125E-2],"categories":[],"categories_nodes":[],"categories_segments":[],"categories_sizes":[],"default_left":[0,0,0,0,0,0,0,0,0,0,0,0,0,0,0,0,0,0,0,0,0,0,0,0,0,0,0,0,0,0,0],"id":9,"left_children":[1,3,5,7,9,11,13,15,17,19,21,23,25,27,29,-1,-1,-1,-1,-1,-1,-1,-1,-1,-1,-1,-1,-1,-1,-1,-1],"loss_changes":[1.862956E2,2.3902756E1,1.10742294E2,3.8843231E0,2.4691391E1,9.941808E1,3.7176315E1,9.099326E0,2.6776733E0,3.4246765E1,2.0109947E1,3.6643715E1,8.7460915E1,3.2513855E1,3.546931E1,0E0,0E0,0E0,0E0,0E0,0E0,0E0,0E0,0E0,0E0,0E0,0E0,0E0,0E0,0E0,0E0],"parents":[2147483647,0,0,1,1,2,2,3,3,4,4,5,5,6,6,7,7,8,8,9,9,10,10,11,11,12,12,13,13,14,14],"right_children":[2,4,6,8,10,12,14,16,18,20,22,24,26,28,30,-1,-1,-1,-1,-1,-1,-1,-1,-1,-1,-1,-1,-1,-1,-1,-1],"split_conditions":[2.703666E-2,3.1825735E-3,2.2003354E-1,8.7E1,-8.631208E-1,-4.7596592E-1,2.1451749E-1,-5.5100016E-2,-1.0108825E0,1.2927982E-1,5.4690933E-1,2.748193E-1,1.5433E-1,7.320736E-1,-1.988774E-1,3.5803923E-1,-2.766068E-1,8.226181E-3,-2.8616565E-1,-1.9213846E-1,8.288781E-1,-1.7618175E-1,2.368941E-1,-1.0565833E-1,3.6707E-4,-1.2412405E-2,5.3336848E-2,-1.09626256E-1,2.7103227E-1,6.5780416E-2,-6.483125E-2],"split_indices":[535,535,390,533,238,137,157,349,371,71,158,359,155,277,312,0,0,0,0,0,0,0,0,0,0,0,0,0,0,0,0],"split_type":[0,0,0,0,0,0,0,0,0,0,0,0,0,0,0,0,0,0,0,0,0,0,0,0,0,0,0,0,0,0,0],"sum_hessian":[1.1797796E4,5.0533752E2,1.1292458E4,2.1993875E2,2.8539877E2,9.000859E3,2.2915989E3,6.6836905E0,2.1325505E2,1.0237662E1,2.7516113E2,1.3898396E3,7.6110195E3,1.4021898E3,8.894092E2,2.2646322E0,4.4190583E0,2.761888E0,2.1049316E2,5.680582E0,4.5570803E0,2.649511E2,1.0210015E1,9.693357E2,4.2050394E2,4.5973413E3,3.0136782E3,1.3826189E3,1.9570934E1,2.6634158E2,6.230676E2],"tree_param":{"num_deleted":"0","num_feature":"536","num_nodes":"31","size_leaf_vector":"0"}},{"base_weights":[-6.2765494E-2,-2.7742627E-1,-1.1422256E-2,-8.210259E-1,-2.197371E-1,-1.16777085E-1,9.610908E-2,4.3755714E-2,-8.6332566E-1,1.1132096E-1,-2.883449E-1,2.490775E-1,-1.5201458E-1,4.7475114E-1,3.675717E-2,9.6175444E-1,-1.9446021E-1,2.192929E-1,-2.644606E-1,-5.8702677E-2,1.8716377E-1,-1.5137922E-2,-1.13755845E-1,1.2998165E-1,-3.2516878E-2,-8.4966324E-2,-1.819075E-2,3.2786232E-1,9.254599E-2,-1.396405E-2,8.9171305E-2],"categories":[],"categories_nodes":[],"categories_segments":[],"categories_sizes":[],"default_left":[0,0,0,0,0,0,0,0,0,0,0,0,0,0,0,0,0,0,0,0,0,0,0,0,0,0,0,0,0,0,0],"id":10,"left_children":[1,3,5,7,9,11,13,15,17,19,21,23,25,27,29,-1,-1,-1,-1,-1,-1,-1,-1,-1,-1,-1,-1,-1,-1,-1,-1],"loss_changes":[1.2744373E2,6.981239E1,1.0574064E2,7.857544E0,4.589351E1,6.0816254E1,1.0378999E2,2.5972464E1,6.5625E0,5.477659E1,3.6130142E1,2.7343456E1,5.154879E1,6.3983124E1,8.668699E1,0E0,0E0,0E0,0E0,0E0,0E0,0E0,0E0,0E0,0E0,0E0,0E0,0E0,0E0,0E0,0E0],"parents":[2147483647,0,0,1,1,2,2,3,3,4,4,5,5,6,6,7,7,8,8,9,9,10,10,11,11,12,12,13,13,14,14],"right_children":[2,4,6,8,10,12,14,16,18,20,22,24,26,28,30,-1,-1,-1,-1,-1,-1,-1,-1,-1,-1,-1,-1,-1,-1,-1,-1],"split_conditions":[1.7279238E-1,7.0398794E-3,7.511015E-2,-6.0781896E-1,-1.9477923E-1,9.4E1,-4.2758116E-1,-4.541075E-1,-9.696309E-1,1.912492E-1,-2.4666822E-1,1.56468E-1,-3.2154847E-2,-4.094016E-1,5.402514E-1,9.6175444E-1,-1.9446021E-1,2.192929E-1,-2.644606E-1,-5.8702677E-2,1.8716377E-1,-1.5137922E-2,-1.13755845E-1,1.2998165E-1,-3.2516878E-2,-8.4966324E-2,-1.819075E-2,3.2786232E-1,9.254599E-2,-1.396405E-2,8.9171305E-2],"split_indices":[535,535,71,17,234,533,389,268,63,438,419,188,369,349,375,0,0,0,0,0,0,0,0,0,0,0,0,0,0,0,0],"split_type":[0,0,0,0,0,0,0,0,0,0,0,0,0,0,0,0,0,0,0,0,0,0,0,0,0,0,0,0,0,0,0],"sum_hessian":[1.1562606E4,2.230927E3,9.33168E3,2.1277129E2,2.0181558E3,4.713499E3,4.6181807E3,9.920522E0,2.0285077E2,3.463356E2,1.6718202E3,4.135661E2,4.299933E3,6.248543E2,3.9933262E3,1.1288588E0,8.791663E0,1.8487104E0,2.0100206E2,2.1698862E2,1.2934698E2,4.6242557E2,1.2093947E3,2.7279105E2,1.4077507E2,1.7644058E3,2.535527E3,1.312673E2,4.93587E2,3.0263071E3,9.670189E2],"tree_param":{"num_deleted":"0","num_feature":"536","num_nodes":"31","size_leaf_vector":"0"}},{"base_weights":[-5.679552E-2,-7.975194E-2,3.1763387E-1,-2.0705311E-1,-4.9411803E-3,1.2229568E0,2.5166854E-1,-1.1897626E-1,-4.30677E-1,9.85426E-2,-1.3714325E-1,-8.3690673E-1,1.6307846E0,1.7033802E-1,9.723228E-1,-5.4446638E-2,6.2207386E-2,-2.0175205E-1,-9.338568E-2,4.2771976E-2,-1.3377838E-1,-9.883961E-3,-8.621276E-2,1.9095008E-1,-3.565945E-1,-3.0092427E-1,5.5891705E-1,-1.9013704E-1,7.5401485E-2,4.744537E-1,4.4161327E-2],"categories":[],"categories_nodes":[],"categories_segments":[],"categories_sizes":[],"default_left":[0,0,0,0,0,0,0,0,1,0,0,0,0,0,0,0,0,0,0,0,0,0,0,0,0,0,0,0,0,0,0],"id":11,"left_children":[1,3,5,7,9,11,13,15,17,19,21,23,25,27,29,-1,-1,-1,-1,-1,-1,-1,-1,-1,-1,-1,-1,-1,-1,-1,-1],"loss_changes":[9.801993E1,1.02308105E2,3.9035583E1,7.826781E1,9.259725E1,3.8733917E1,3.5898693E1,5.826239E1,3.2220642E1,9.108109E1,4.651082E1,4.9091115E0,2.4792458E1,3.625212E1,3.1026001E1,0E0,0E0,0E0,0E0,0E0,0E0,0E0,0E0,0E0,0E0,0E0,0E0,0E0,0E0,0E0,0E0],"parents":[2147483647,0,0,1,1,2,2,3,3,4,4,5,5,6,6,7,7,8,8,9,9,10,10,11,11,12,12,13,13,14,14],"right_children":[2,4,6,8,10,12,14,16,18,20,22,24,26,28,30,-1,-1,-1,-1,-1,-1,-1,-1,-1,-1,-1,-1,-1,-1,-1,-1],"split_conditions":[1E0,9.564326E-3,-5.5904007E-1,3E2,4.553137E-2,-2.9088426E-1,5.7579076E-1,3.144523E-1,1.561997E-1,3.7552053E-1,2.56E2,-7.686593E-1,-3.5077935E-1,-7.3302513E-1,2.6310194E-1,-5.4446638E-2,6.2207386E-2,-2.0175205E-1,-9.338568E-2,4.2771976E-2,-1.3377838E-1,-9.883961E-3,-8.621276E-2,1.9095008E-1,-3.565945E-1,-3.0092427E-1,5.5891705E-1,-1.9013704E-1,7.5401485E-2,4.744537E-1,4.4161327E-2],"split_indices":[526,429,296,533,90,369,422,422,535,464,533,5,373,464,418,0,0,0,0,0,0,0,0,0,0,0,0,0,0,0,0],"split_type":[0,0,0,0,0,0,0,0,0,0,0,0,0,0,0,0,0,0,0,0,0,0,0,0,0,0,0,0,0,0,0],"sum_hessian":[1.1399609E4,1.0741812E4,6.577979E2,3.9753755E3,6.766436E3,4.3483337E1,6.143146E2,2.8531582E3,1.1222173E3,3.7956055E3,2.9708306E3,7.0124803E0,3.6470856E1,5.5312695E2,6.11876E1,2.394846E3,4.5831244E2,3.693858E2,7.5283154E2,3.5123076E3,2.8329782E2,1.7549031E3,1.2159274E3,1.1954219E0,5.817058E0,2.686664E0,3.378419E1,4.9993454E1,5.031335E2,3.467221E1,2.6515388E1],"tree_param":{"num_deleted":"0","num_feature":"536","num_nodes":"31","size_leaf_vector":"0"}},{"base_weights":[-3.4809288E-2,-8.141136E-2,1.3874348E-1,2.5108898E-2,-1.6997123E-1,-5.4323016E-4,3.0883795E-1,7.0289E-2,-2.7685627E-1,-1.3354869E-2,-2.5449988E-1,-1.8253556E-1,2.0497265E-1,1.0209085E0,2.4227038E-1,9.203175E-2,5.757099E-3,1.9583216E-2,-1.4027055E-1,-1.9258047E-2,1.5060472E-1,-1.0045232E-1,-2.2086298E-2,-6.626262E-2,4.9905875E-1,2.4591973E-3,1.4359976E-1,1.1482952E-1,4.5779434E-1,-6.0090706E-2,1.03028856E-1],"categories":[],"categories_nodes":[],"categories_segments":[],"categories_sizes":[],"default_left":[0,0,0,0,0,0,0,0,0,0,0,0,0,0,0,0,0,0,0,0,0,0,0,0,0,0,0,0,0,0,0],"id":12,"left_children":[1,3,5,7,9,11,13,15,17,19,21,23,25,27,29,-1,-1,-1,-1,-1,-1,-1,-1,-1,-1,-1,-1,-1,-1,-1,-1],"loss_changes":[9.042618E1,8.314363E1,5.6072403E1,5.4615356E1,6.3706863E1,4.874268E1,5.02595E1,4.2067883E1,3.4027084E1,4.425836E1,4.5395172E1,4.928574E1,3.2958466E1,2.8676132E1,4.375311E1,0E0,0E0,0E0,0E0,0E0,0E0,0E0,0E0,0E0,0E0,0E0,0E0,0E0,0E0,0E0,0E0],"parents":[2147483647,0,0,1,1,2,2,3,3,4,4,5,5,6,6,7,7,8,8,9,9,10,10,11,11,12,12,13,13,14,14],"right_children":[2,4,6,8,10,12,14,16,18,20,22,24,26,28,30,-1,-1,-1,-1,-1,-1,-1,-1,-1,-1,-1,-1,-1,-1,-1,-1],"split_conditions":[5.4599553E-1,-6.688177E-2,1.5572034E-1,4.5580515E-1,1.56E2,1.7193179E-1,-5.1931655E-1,-1.4867009E-1,-9.8438025E-2,4.047044E-1,2.0029071E-1,9.188677E-1,2.151532E-1,-1.9592589E-1,-3.5833603E-1,9.203175E-2,5.757099E-3,1.9583216E-2,-1.4027055E-1,-1.9258047E-2,1.5060472E-1,-1.0045232E-1,-2.2086298E-2,-6.626262E-2,4.9905875E-1,2.4591973E-3,1.4359976E-1,1.1482952E-1,4.5779434E-1,-6.0090706E-2,1.03028856E-1],"split_indices":[326,180,292,469,533,31,419,234,99,392,411,282,506,449,132,0,0,0,0,0,0,0,0,0,0,0,0,0,0,0,0],"split_type":[0,0,0,0,0,0,0,0,0,0,0,0,0,0,0,0,0,0,0,0,0,0,0,0,0,0,0,0,0,0,0],"sum_hessian":[1.1178005E4,8.812278E3,2.3657263E3,4.0008057E3,4.811473E3,1.3011991E3,1.0645271E3,3.480778E3,5.200276E2,1.6869736E3,3.1244995E3,6.901533E2,6.1104584E2,8.978322E1,9.747439E2,6.1758856E2,2.8631895E3,1.863598E2,3.336678E2,1.5363009E3,1.5067264E2,2.1629353E3,9.615642E2,6.76974E2,1.3179316E1,3.5607266E2,2.5497318E2,4.044282E1,4.93404E1,1.8116486E2,7.9357904E2],"tree_param":{"num_deleted":"0","num_feature":"536","num_nodes":"31","size_leaf_vector":"0"}},{"base_weights":[-2.4692772E-2,2.1758846E-3,-3.3721977E-1,1.2648816E-1,-7.30145E-2,-4.3535903E-1,2.7337134E-1,2.1532E-1,-5.1400464E-2,-1.4103481E-1,1.0411868E-1,-2.6148227E-1,-6.8802017E-1,1.1838708E0,-2.754681E-1,-6.47705E-2,7.7873185E-2,-6.8372495E-2,4.5122612E-2,-1.0033796E-1,-2.6353803E-2,-3.7303224E-2,6.489055E-2,-1.6500807E-1,-2.0792782E-2,-1.7841559E-2,-2.3931573E-1,5.735505E-1,-1.6230588E-1,-2.2338812E-1,2.1487777E-1],"categories":[],"categories_nodes":[],"categories_segments":[],"categories_sizes":[],"default_left":[0,0,0,0,0,0,0,0,0,0,0,0,0,0,0,0,0,0,0,0,0,0,0,0,0,0,0,0,0,0,0],"id":13,"left_children":[1,3,5,7,9,11,13,15,17,19,21,23,25,27,29,-1,-1,-1,-1,-1,-1,-1,-1,-1,-1,-1,-1,-1,-1,-1,-1],"loss_changes":[9.3821686E1,9.618505E1,5.3122253E1,6.1297028E1,7.727142E1,3.3314972E1,6.1839355E1,4.9424942E1,4.6074005E1,4.763922E1,4.5639175E1,2.5094217E1,2.1340332E1,5.9401886E1,3.664461E1,0E0,0E0,0E0,0E0,0E0,0E0,0E0,0E0,0E0,0E0,0E0,0E0,0E0,0E0,0E0,0E0],"parents":[2147483647,0,0,1,1,2,2,3,3,4,4,5,5,6,6,7,7,8,8,9,9,10,10,11,11,12,12,13,13,14,14],"right_children":[2,4,6,8,10,12,14,16,18,20,22,24,26,28,30,-1,-1,-1,-1,-1,-1,-1,-1,-1,-1,-1,-1,-1,-1,-1,-1],"split_conditions":[4.42E2,-1.40795E-1,4.7258493E-1,2.4311909E-1,2.6293144E-1,-1.0879303E-1,-1.2472559E-1,-1.4432045E0,-6.4634055E-2,-4.2926076E-1,-1.8593526E-1,-4.9685013E-1,-4.4817716E-1,5.177366E-2,1.8038335E-1,-6.47705E-2,7.7873185E-2,-6.8372495E-2,4.5122612E-2,-1.0033796E-1,-2.6353803E-2,-3.7303224E-2,6.489055E-2,-1.6500807E-1,-2.0792782E-2,-1.7841559E-2,-2.3931573E-1,5.735505E-1,-1.6230588E-1,-2.2338812E-1,2.1487777E-1],"split_indices":[533,163,353,303,31,406,220,411,174,162,437,18,438,459,411,0,0,0,0,0,0,0,0,0,0,0,0,0,0,0,0],"split_type":[0,0,0,0,0,0,0,0,0,0,0,0,0,0,0,0,0,0,0,0,0,0,0,0,0,0,0,0,0,0,0],"sum_hessian":[1.1171911E4,1.0288389E4,8.835231E2,3.8773245E3,6.4110635E3,7.614272E2,1.22095894E2,2.5858325E3,1.291492E3,4.6323965E3,1.7786672E3,4.522393E2,3.0918787E2,4.548362E1,7.6612274E1,2.403266E2,2.3455059E3,6.888636E2,6.0262836E2,9.9795856E2,3.634438E3,5.857235E2,1.1929437E3,1.8004402E2,2.7219528E2,4.6172516E1,2.6301535E2,3.1908663E1,1.3574955E1,5.217763E1,2.4434643E1],"tree_param":{"num_deleted":"0","num_feature":"536","num_nodes":"31","size_leaf_vector":"0"}},{"base_weights":[-2.8621148E-2,3.98568E-1,-4.7212437E-2,9.710945E-2,6.430276E-1,-1.3380285E-1,3.543201E-2,-8.192908E-2,9.052693E-1,1.0275229E0,3.2719284E-1,-2.4245355E-1,-4.895154E-2,1.5534022E-1,-9.9862136E-2,-1.6316697E-1,6.2276743E-2,-1.7798932E-1,3.78526E-1,-4.752285E-2,3.565055E-1,1.5923518E-1,-1.8742801E-1,-7.9733215E-2,9.528344E-2,-5.2548222E-2,2.287609E-2,-2.1579303E-3,8.725309E-2,7.450647E-2,-4.1315775E-2],"categories":[],"categories_nodes":[],"categories_segments":[],"categories_sizes":[],"default_left":[0,0,0,0,0,0,0,0,0,0,0,0,0,0,0,0,0,0,0,0,0,0,0,0,0,0,0,0,0,0,0],"id":14,"left_children":[1,3,5,7,9,11,13,15,17,19,21,23,25,27,29,-1,-1,-1,-1,-1,-1,-1,-1,-1,-1,-1,-1,-1,-1,-1,-1],"loss_changes":[8.851588E1,3.4192345E1,7.642671E1,3.0361475E1,3.0812271E1,4.8068413E1,8.8670975E1,2.315429E1,2.1073263E1,2.2162216E1,2.7908766E1,2.9954697E1,4.6307076E1,6.3817154E1,3.389071E1,0E0,0E0,0E0,0E0,0E0,0E0,0E0,0E0,0E0,0E0,0E0,0E0,0E0,0E0,0E0,0E0],"parents":[2147483647,0,0,1,1,2,2,3,3,4,4,5,5,6,6,7,7,8,8,9,9,10,10,11,11,12,12,13,13,14,14],"right_children":[2,4,6,8,10,12,14,16,18,20,22,24,26,28,30,-1,-1,-1,-1,-1,-1,-1,-1,-1,-1,-1,-1,-1,-1,-1,-1],"split_conditions":[7.8E1,1.9983415E-2,-1.3298827E-1,1.4630413E-1,-2.306515E-2,-1.3171911E-1,-1.1337659E-1,-7.862247E-2,-1.6186582E-1,-3.4572324E-1,2.3893043E-1,6.603414E-1,1.4893593E-1,3.483337E-2,-6.6704863E-1,-1.6316697E-1,6.2276743E-2,-1.7798932E-1,3.78526E-1,-4.752285E-2,3.565055E-1,1.5923518E-1,-1.8742801E-1,-7.9733215E-2,9.528344E-2,-5.2548222E-2,2.287609E-2,-2.1579303E-3,8.725309E-2,7.450647E-2,-4.1315775E-2],"split_indices":[533,80,67,397,285,51,390,65,297,199,331,266,68,31,163,0,0,0,0,0,0,0,0,0,0,0,0,0,0,0,0],"split_type":[0,0,0,0,0,0,0,0,0,0,0,0,0,0,0,0,0,0,0,0,0,0,0,0,0,0,0,0,0,0,0],"sum_hessian":[1.1141924E4,4.638219E2,1.0678102E4,2.0832295E2,2.5549895E2,5.2142603E3,5.4638413E3,1.712771E2,3.7045853E1,1.1420865E2,1.412903E2,2.2856572E3,2.9286033E3,2.8965474E3,2.567294E3,6.56485E1,1.056286E2,6.9914184E0,3.0054432E1,1.3640458E1,1.0056819E2,1.16761345E2,2.4528944E1,2.1947812E3,9.08759E1,1.4582552E3,1.470348E3,1.3173556E3,1.5791917E3,2.511948E2,2.316099E3],"tree_param":{"num_deleted":"0","num_feature":"536","num_nodes":"31","size_leaf_vector":"0"}},{"base_weights":[-2.4900308E-2,-5.0345793E-2,2.165175E-1,-1.1475755E-1,6.6009685E-2,5.016111E-1,6.153575E-2,-2.2221828E-1,-2.0436034E-2,6.024373E-1,3.7249174E-2,7.95174E-1,1.7627257E-1,1.7765098E0,2.46728E-2,-7.7053934E-2,6.174929E-2,-1.9897763E-2,9.159113E-2,-6.919103E-3,3.030254E-1,6.90251E-2,-9.195503E-3,1.24213934E-1,3.8434413E-1,-2.1144317E-2,2.71831E-1,9.887259E-3,8.4272885E-1,-2.1447629E-1,2.600973E-2],"categories":[],"categories_nodes":[],"categories_segments":[],"categories_sizes":[],"default_left":[0,0,0,0,0,0,0,0,0,0,0,0,0,0,0,0,0,0,0,0,0,0,0,0,0,0,0,0,0,0,0],"id":15,"left_children":[1,3,5,7,9,11,13,15,17,19,21,23,25,27,29,-1,-1,-1,-1,-1,-1,-1,-1,-1,-1,-1,-1,-1,-1,-1,-1],"loss_changes":[6.7809906E1,7.484367E1,4.6475357E1,6.5145004E1,5.487976E1,3.5248924E1,4.3135555E1,4.4586426E1,5.120549E1,4.6180557E1,4.4245216E1,3.549369E1,3.1947016E1,2.5757435E1,3.0781897E1,0E0,0E0,0E0,0E0,0E0,0E0,0E0,0E0,0E0,0E0,0E0,0E0,0E0,0E0,0E0,0E0],"parents":[2147483647,0,0,1,1,2,2,3,3,4,4,5,5,6,6,7,7,8,8,9,9,10,10,11,11,12,12,13,13,14,14],"right_children":[2,4,6,8,10,12,14,16,18,20,22,24,26,28,30,-1,-1,-1,-1,-1,-1,-1,-1,-1,-1,-1,-1,-1,-1,-1,-1],"split_conditions":[5.9722066E-1,1.755419E-1,1.747435E-2,6.5827644E-3,-2.579619E-1,-7.5972006E-3,-1.3681953E0,5.6615674E-1,5.526041E-1,-9.976458E-4,-1.0437221E-1,-1.2268015E-2,2.4335939E-1,1.5146297E-1,-5.729828E-1,-7.7053934E-2,6.174929E-2,-1.9897763E-2,9.159113E-2,-6.919103E-3,3.030254E-1,6.90251E-2,-9.195503E-3,1.24213934E-1,3.8434413E-1,-2.1144317E-2,2.71831E-1,9.887259E-3,8.4272885E-1,-2.1447629E-1,2.600973E-2],"split_indices":[501,411,100,456,105,220,65,292,189,79,433,102,431,186,345,0,0,0,0,0,0,0,0,0,0,0,0,0,0,0,0],"split_type":[0,0,0,0,0,0,0,0,0,0,0,0,0,0,0,0,0,0,0,0,0,0,0,0,0,0,0,0,0,0,0],"sum_hessian":[1.1035805E4,9.984254E3,1.0515509E3,6.4266304E3,3.5576235E3,3.6953796E2,6.820129E2,3.0034438E3,3.4231863E3,1.8002039E2,3.3776033E3,1.9349625E2,1.7604172E2,1.3358183E1,6.686547E2,2.7790273E3,2.2441672E2,3.00118E3,4.2200635E2,7.1402534E1,1.0861786E2,8.789754E2,2.4986277E3,1.0948438E2,8.401187E1,1.322364E2,4.380531E1,5.352406E0,8.005777E0,5.0923473E1,6.1773126E2],"tree_param":{"num_deleted":"0","num_feature":"536","num_nodes":"31","size_leaf_vector":"0"}},{"base_weights":[-6.660727E-3,-6.659981E-1,4.3232883E-3,-7.190421E-1,1.0404551E0,-1.0368497E-1,5.996231E-2,1.4195734E0,-7.528045E-1,1.2414694E0,-2.3921064E-1,5.8167394E-2,-2.2019348E-1,-6.449633E-2,1.17174074E-1,6.4406705E-1,-5.6993896E-3,-2.3694414E-1,3.5112584E-1,7.145292E-2,-2.6482483E-2,6.6878777E-3,-8.700909E-2,-3.418893E-2,7.465711E-2,6.339079E-2,8.5064344E-4],"categories":[],"categories_nodes":[],"categories_segments":[],"categories_sizes":[],"default_left":[0,0,0,0,0,0,0,0,0,0,0,0,0,1,0,0,0,0,0,0,0,0,0,0,0,0,0],"id":16,"left_children":[1,3,5,7,9,11,13,15,17,-1,-1,19,21,23,25,-1,-1,-1,-1,-1,-1,-1,-1,-1,-1,-1,-1],"loss_changes":[7.8961266E1,1.6919762E1,6.445738E1,1.3622444E1,3.6289993E1,6.878064E1,5.0414665E1,3.2305975E0,1.3153702E1,0E0,0E0,4.027827E1,3.5918007E1,3.4594902E1,5.2199142E1,0E0,0E0,0E0,0E0,0E0,0E0,0E0,0E0,0E0,0E0,0E0,0E0],"parents":[2147483647,0,0,1,1,2,2,3,3,4,4,5,5,6,6,7,7,8,8,11,11,12,12,13,13,14,14],"right_children":[2,4,6,8,10,12,14,16,18,-1,-1,20,22,24,26,-1,-1,-1,-1,-1,-1,-1,-1,-1,-1,-1,-1],"split_conditions":[1.142485E-2,6.6671103E-1,-3.3313206E-3,-8.836938E-1,-2.9807156E-1,-1.1608998E-1,1.6108762E-2,-5.81134E-1,1.1511854E0,1.2414694E0,-2.3921064E-1,4.545993E-2,-2.936244E-1,6.9816035E-1,-1.1018447E-1,6.4406705E-1,-5.6993896E-3,-2.3694414E-1,3.5112584E-1,7.145292E-2,-2.6482483E-2,6.6878777E-3,-8.700909E-2,-3.418893E-2,7.465711E-2,6.339079E-2,8.5064344E-4],"split_indices":[535,50,359,429,347,230,341,436,280,0,0,234,349,535,366,0,0,0,0,0,0,0,0,0,0,0,0],"split_type":[0,0,0,0,0,0,0,0,0,0,0,0,0,0,0,0,0,0,0,0,0,0,0,0,0,0,0],"sum_hessian":[1.0901585E4,1.776583E2,1.0723927E4,1.7286357E2,4.7947187E0,3.6457725E3,7.078154E3,2.0486667E0,1.7081491E2,1.3192805E0,3.4754379E0,1.526155E3,2.1196174E3,2.2290168E3,4.849137E3,1.0336796E0,1.014987E0,1.6816812E2,2.6467896E0,6.843347E2,8.418204E2,4.741077E2,1.6455098E3,1.9256631E3,3.0335376E2,2.6591553E3,2.189982E3],"tree_param":{"num_deleted":"0","num_feature":"536","num_nodes":"27","size_leaf_vector":"0"}},{"base_weights":[-1.6434325E-2,-1.212961E-1,4.579978E-2,-1.4941432E-1,4.0255624E-1,1.4936373E-1,-3.43575E-2,-2.8514165E-1,-6.509015E-2,6.7206544E-1,-6.27031E-1,2.1932203E-1,-6.372202E-2,-8.128194E-2,3.0147505E-1,1.3972133E-2,-1.0165712E-1,1.7937586E-1,-2.950718E-2,4.4953865E-1,1.206905E-1,-2.5131127E-1,3.759212E-1,1.4629881E-1,3.755527E-2,1.6716895E-1,-3.80544E-2,-3.6643278E-2,7.491343E-2,-9.4676785E-2,1.3574958E-1],"categories":[],"categories_nodes":[],"categories_segments":[],"categories_sizes":[],"default_left":[0,0,0,0,0,0,0,0,0,0,0,0,0,0,0,0,0,0,0,0,0,0,0,0,0,0,0,0,0,0,0],"id":17,"left_children":[1,3,5,7,9,11,13,15,17,19,21,23,25,27,29,-1,-1,-1,-1,-1,-1,-1,-1,-1,-1,-1,-1,-1,-1,-1,-1],"loss_changes":[7.121192E1,5.9923607E1,5.685405E1,4.4134377E1,5.7944355E1,4.4556534E1,6.0870667E1,2.6351524E1,5.257034E1,3.6131523E1,1.8289022E1,5.6768715E1,2.9050003E1,4.5860962E1,4.427516E1,0E0,0E0,0E0,0E0,0E0,0E0,0E0,0E0,0E0,0E0,0E0,0E0,0E0,0E0,0E0,0E0],"parents":[2147483647,0,0,1,1,2,2,3,3,4,4,5,5,6,6,7,7,8,8,9,9,10,10,11,11,12,12,13,13,14,14],"right_children":[2,4,6,8,10,12,14,16,18,20,22,24,26,28,30,-1,-1,-1,-1,-1,-1,-1,-1,-1,-1,-1,-1,-1,-1,-1,-1],"split_conditions":[8.3732225E-2,1E0,-2.250049E-1,-2.9614259E-2,3.02E2,3.9819142E-1,4.0019834E-1,-5.6800354E-1,-6.6185397E-1,-4.8183435E-1,4.825367E-1,-2.7542752E-1,-5.504634E-1,4.6886417E-1,-2.3880701E-1,1.3972133E-2,-1.0165712E-1,1.7937586E-1,-2.950718E-2,4.4953865E-1,1.206905E-1,-2.5131127E-1,3.759212E-1,1.4629881E-1,3.755527E-2,1.6716895E-1,-3.80544E-2,-3.6643278E-2,7.491343E-2,-9.4676785E-2,1.3574958E-1],"split_indices":[157,531,428,425,533,234,80,291,81,471,134,285,238,358,125,0,0,0,0,0,0,0,0,0,0,0,0,0,0,0,0],"split_type":[0,0,0,0,0,0,0,0,0,0,0,0,0,0,0,0,0,0,0,0,0,0,0,0,0,0,0,0,0,0,0],"sum_hessian":[1.0910216E4,4.063107E3,6.8471084E3,3.8568047E3,2.0630244E2,2.987006E3,3.8601025E3,1.4770223E3,2.3797822E3,1.6377837E2,4.252408E1,2.2487036E3,7.383024E2,3.387535E3,4.7256775E2,2.0586308E2,1.2711593E3,1.1289165E2,2.2668906E3,3.9184746E1,1.2459362E2,3.8737785E1,3.786292E0,5.8291595E2,1.6657876E3,6.740748E1,6.7089496E2,3.0158484E3,3.7168634E2,9.27033E1,3.7986444E2],"tree_param":{"num_deleted":"0","num_feature":"536","num_nodes":"31","size_leaf_vector":"0"}},{"base_weights":[5.1996037E-3,4.2051315E-2,-1.5750365E-1,-4.7759026E-2,1.2059881E-1,-2.6347946E-2,-2.911273E-1,-7.572067E-2,3.699003E-1,-7.1702935E-2,1.7278212E-1,-1.8627764E-1,1.8682064E-1,-1.6317917E-1,-5.0018275E-1,3.235695E-2,-3.656498E-2,1.4229654E-1,-2.056927E-1,-6.0317E-2,5.682042E-2,3.5879012E-2,1.16614066E-1,-1.8845223E-2,-1.7643097E-1,2.5598642E-1,1.9133287E-2,-7.984878E-2,6.131244E-2,-1.6019979E-1,5.604072E-1],"categories":[],"categories_nodes":[],"categories_segments":[],"categories_sizes":[],"default_left":[0,0,0,0,0,0,0,0,0,0,0,0,0,0,0,0,0,0,0,0,0,0,0,0,0,0,0,0,0,0,0],"id":18,"left_children":[1,3,5,7,9,11,13,15,17,19,21,23,25,27,29,-1,-1,-1,-1,-1,-1,-1,-1,-1,-1,-1,-1,-1,-1,-1,-1],"loss_changes":[6.471274E1,6.2081623E1,3.492268E1,4.798188E1,4.7120773E1,3.436359E1,2.6323448E1,3.26342E1,2.8742844E1,3.3903923E1,4.2362434E1,2.8529003E1,3.538201E1,2.329025E1,3.0973808E1,0E0,0E0,0E0,0E0,0E0,0E0,0E0,0E0,0E0,0E0,0E0,0E0,0E0,0E0,0E0,0E0],"parents":[2147483647,0,0,1,1,2,2,3,3,4,4,5,5,6,6,7,7,8,8,9,9,10,10,11,11,12,12,13,13,14,14],"right_children":[2,4,6,8,10,12,14,16,18,20,22,24,26,28,30,-1,-1,-1,-1,-1,-1,-1,-1,-1,-1,-1,-1,-1,-1,-1,-1],"split_conditions":[1.7500253E-1,4.393526E-3,-6.740113E-2,4.3100038E-1,-2.0827205E-1,-1.1494432E-1,1.229875E-1,-4.5471483E-1,4.41E2,1.6902862E-1,2.6072153E-1,3.920922E-1,-2.1835078E-1,2.7860892E-1,1.0965967E0,3.235695E-2,-3.656498E-2,1.4229654E-1,-2.056927E-1,-6.0317E-2,5.682042E-2,3.5879012E-2,1.16614066E-1,-1.8845223E-2,-1.7643097E-1,2.5598642E-1,1.9133287E-2,-7.984878E-2,6.131244E-2,-1.6019979E-1,5.604072E-1],"split_indices":[250,76,386,137,388,11,120,63,533,266,458,175,267,292,383,0,0,0,0,0,0,0,0,0,0,0,0,0,0,0,0],"split_type":[0,0,0,0,0,0,0,0,0,0,0,0,0,0,0,0,0,0,0,0,0,0,0,0,0,0,0,0,0,0,0],"sum_hessian":[1.0790739E4,8.798623E3,1.9921157E3,4.105188E3,4.693435E3,1.00594604E3,9.861697E2,3.8483647E3,2.5682333E2,1.0016951E3,3.6917402E3,5.748163E2,4.311297E2,6.1286115E2,3.733085E2,7.7299994E2,3.0753647E3,2.3420483E2,2.2618505E1,6.700002E2,3.316949E2,2.9633901E3,7.2835E2,4.4059927E2,1.3421704E2,6.626544E1,3.6486426E2,4.7894373E2,1.3391743E2,3.6881656E2,4.4919524E0],"tree_param":{"num_deleted":"0","num_feature":"536","num_nodes":"31","size_leaf_vector":"0"}},{"base_weights":[-1.4860951E-2,-1.5139505E-1,2.3697551E-2,1.7777316E-1,-1.9998163E-1,-4.0312875E-2,1.24477446E-1,-1.4976627E-1,5.202136E-1,-5.1913194E-2,-3.0721688E-1,-1.9503225E-1,2.2780456E-2,-3.9342348E-2,2.3659024E-1,-2.0889859E-1,4.200987E-2,5.098634E-1,8.63406E-2,1.3057496E-1,-3.3210382E-2,-3.2064326E-2,-1.2921041E-1,3.0911977E-3,-9.72144E-2,-1.1674582E-1,1.4785034E-2,5.546658E-2,-5.0790496E-2,9.036274E-3,9.741176E-2],"categories":[],"categories_nodes":[],"categories_segments":[],"categories_sizes":[],"default_left":[0,0,0,0,0,0,0,0,0,0,0,0,0,0,0,0,0,0,0,0,0,0,0,0,0,0,0,0,0,0,0],"id":19,"left_children":[1,3,5,7,9,11,13,15,17,19,21,23,25,27,29,-1,-1,-1,-1,-1,-1,-1,-1,-1,-1,-1,-1,-1,-1,-1,-1],"loss_changes":[5.6572838E1,3.788248E1,5.4063255E1,3.4276337E1,3.273346E1,5.003919E1,5.9796818E1,2.490461E1,4.042785E1,2.4893824E1,2.9541298E1,3.933865E1,3.9777996E1,3.8599155E1,3.5153778E1,0E0,0E0,0E0,0E0,0E0,0E0,0E0,0E0,0E0,0E0,0E0,0E0,0E0,0E0,0E0,0E0],"parents":[2147483647,0,0,1,1,2,2,3,3,4,4,5,5,6,6,7,7,8,8,9,9,10,10,11,11,12,12,13,13,14,14],"right_children":[2,4,6,8,10,12,14,16,18,20,22,24,26,28,30,-1,-1,-1,-1,-1,-1,-1,-1,-1,-1,-1,-1,-1,-1,-1,-1],"split_conditions":[-3.9924043E-1,-3.6479515E-1,7.197257E-2,1.7725356E-1,-2.6525922E-2,-3.256737E-1,-3.3696316E-2,6.89567E-2,-4.780392E-1,-1.6330194E-1,-3.5727948E-2,-1.4045854E-1,-5.034002E-1,-2.661119E-1,-1.6813844E-1,-2.0889859E-1,4.200987E-2,5.098634E-1,8.63406E-2,1.3057496E-1,-3.3210382E-2,-3.2064326E-2,-1.2921041E-1,3.0911977E-3,-9.72144E-2,-1.1674582E-1,1.4785034E-2,5.546658E-2,-5.0790496E-2,9.036274E-3,9.741176E-2],"split_indices":[266,344,458,68,314,162,388,28,378,194,349,183,305,107,422,0,0,0,0,0,0,0,0,0,0,0,0,0,0,0,0],"split_type":[0,0,0,0,0,0,0,0,0,0,0,0,0,0,0,0,0,0,0,0,0,0,0,0,0,0,0,0,0,0,0],"sum_hessian":[1.0744314E4,2.3654446E3,8.37887E3,3.0390002E2,2.0615447E3,5.124586E3,3.2542844E3,1.5561711E2,1.4828291E2,8.6653436E2,1.1950103E3,1.4838218E3,3.640764E3,1.3224958E3,1.9317886E3,5.3435246E1,1.0218186E2,2.337221E1,1.24910706E2,9.261896E1,7.7391547E2,4.5641232E2,7.3859796E2,5.729143E2,9.109074E2,2.1925307E2,3.421511E3,4.8509436E2,8.374015E2,5.782337E2,1.3535549E3],"tree_param":{"num_deleted":"0","num_feature":"536","num_nodes":"31","size_leaf_vector":"0"}},{"base_weights":[8.300143E-3,2.633621E-2,-3.3621997E-1,-3.9417718E-2,1.1672314E-1,6.471394E-1,-4.0815482E-1,1.4628875E-1,-9.3830176E-2,1.5948544E-1,-1.8836394E-1,2.193663E0,-1.8660915E-1,-5.5292773E-1,-2.461367E-2,2.6746547E-1,3.3674795E-2,-1.9882595E-2,-1.4061919E-1,1.5722638E-2,8.6396694E-2,-7.384086E-2,2.780272E-1,9.075034E-2,7.0200056E-1,3.0797672E-1,-2.2190046E-1,-2.0131852E-1,-2.1354731E-2,1.5336868E-1,-1.4718719E-1],"categories":[],"categories_nodes":[],"categories_segments":[],"categories_sizes":[],"default_left":[0,0,0,0,0,0,0,0,0,0,0,0,0,0,0,0,0,0,0,0,0,0,0,0,0,0,0,0,0,0,0],"id":20,"left_children":[1,3,5,7,9,11,13,15,17,19,21,23,25,27,29,-1,-1,-1,-1,-1,-1,-1,-1,-1,-1,-1,-1,-1,-1,-1,-1],"loss_changes":[6.6804474E1,6.071982E1,3.809695E1,5.977772E1,5.6158833E1,4.7916355E1,2.7693367E1,3.3909775E1,4.722819E1,5.191339E1,3.4330772E1,2.8854485E0,1.7439686E1,2.0565453E1,3.4656425E1,0E0,0E0,0E0,0E0,0E0,0E0,0E0,0E0,0E0,0E0,0E0,0E0,0E0,0E0,0E0,0E0],"parents":[2147483647,0,0,1,1,2,2,3,3,4,4,5,5,6,6,7,7,8,8,9,9,10,10,11,11,12,12,13,13,14,14],"right_children":[2,4,6,8,10,12,14,16,18,20,22,24,26,28,30,-1,-1,-1,-1,-1,-1,-1,-1,-1,-1,-1,-1,-1,-1,-1,-1],"split_conditions":[1E0,7.88801E-2,-8.698141E-1,-3.1329188E-1,3.4977084E-1,-6.504429E-1,2.1914478E-1,-8.8850915E-1,3.7552053E-1,-7.398404E-2,5.3720045E-1,8.8496074E-2,-6.31217E-2,4.6229124E-1,-3.6765248E-1,2.6746547E-1,3.3674795E-2,-1.9882595E-2,-1.4061919E-1,1.5722638E-2,8.6396694E-2,-7.384086E-2,2.780272E-1,9.075034E-2,7.0200056E-1,3.0797672E-1,-2.2190046E-1,-2.0131852E-1,-2.1354731E-2,1.5336868E-1,-1.4718719E-1],"split_indices":[512,80,18,199,61,449,121,83,464,48,377,478,202,506,367,0,0,0,0,0,0,0,0,0,0,0,0,0,0,0,0],"split_type":[0,0,0,0,0,0,0,0,0,0,0,0,0,0,0,0,0,0,0,0,0,0,0,0,0,0,0,0,0,0,0],"sum_hessian":[1.0748581E4,1.0214749E4,5.338316E2,5.9134478E3,4.3013013E3,3.5843937E1,4.9798767E2,1.3396417E3,4.573806E3,3.7729465E3,5.283549E2,1.1983889E1,2.3860048E1,3.612044E2,1.3678326E2,5.7414394E1,1.2822274E3,4.261748E3,3.1205804E2,2.0588228E3,1.7141237E3,5.0307108E2,2.5283852E1,1.0810063E0,1.0902882E1,7.2030754E0,1.6656971E1,2.8975702E2,7.1447395E1,6.3579384E1,7.320388E1],"tree_param":{"num_deleted":"0","num_feature":"536","num_nodes":"31","size_leaf_vector":"0"}},{"base_weights":[-2.5489475E-3,-1.3053694E-1,3.278119E-2,-1.9821824E-1,1.0965663E-1,1.0596477E-1,-5.0599795E-2,7.212886E-2,-2.6152152E-1,4.4036287E-1,-9.352369E-2,1.345134E-1,-2.1842888E-1,-7.856501E-2,2.8755805E-1,4.1728083E-2,-2.6312128E-1,5.9299744E-3,-9.745826E-2,9.563653E-3,2.3352362E-1,-1.4081687E-1,7.898209E-2,2.8973103E-2,1.2640344E-1,-1.4177635E-1,-7.5459057E-3,-5.8365732E-2,1.0975697E-2,3.7636656E-1,4.275545E-2],"categories":[],"categories_nodes":[],"categories_segments":[],"categories_sizes":[],"default_left":[0,0,0,0,0,0,0,0,0,0,0,0,0,0,0,0,0,0,0,0,0,0,0,0,0,0,0,0,0,0,0],"id":21,"left_children":[1,3,5,7,9,11,13,15,17,19,21,23,25,27,29,-1,-1,-1,-1,-1,-1,-1,-1,-1,-1,-1,-1,-1,-1,-1,-1],"loss_changes":[4.8722282E1,3.7914234E1,5.1531967E1,3.1146294E1,3.4514812E1,4.1679173E1,3.7354744E1,2.2106623E1,2.6267593E1,2.696128E1,4.2853928E1,4.494474E1,1.7876648E1,4.8716072E1,4.214241E1,0E0,0E0,0E0,0E0,0E0,0E0,0E0,0E0,0E0,0E0,0E0,0E0,0E0,0E0,0E0,0E0],"parents":[2147483647,0,0,1,1,2,2,3,3,4,4,5,5,6,6,7,7,8,8,9,9,10,10,11,11,12,12,13,13,14,14],"right_children":[2,4,6,8,10,12,14,16,18,20,22,24,26,28,30,-1,-1,-1,-1,-1,-1,-1,-1,-1,-1,-1,-1,-1,-1,-1,-1],"split_conditions":[-3.8077965E-1,3.551616E-1,-1.589402E-2,-4.0210843E-1,-1.3041823E-1,4.660158E-1,6.051758E-1,6.250212E-1,-3.2338357E-1,-1.7174898E-1,5.13109E-2,4.9308822E-1,1.7067765E-1,-7.3497035E-2,-5.8950466E-1,4.1728083E-2,-2.6312128E-1,5.9299744E-3,-9.745826E-2,9.563653E-3,2.3352362E-1,-1.4081687E-1,7.898209E-2,2.8973103E-2,1.2640344E-1,-1.4177635E-1,-7.5459057E-3,-5.8365732E-2,1.0975697E-2,3.7636656E-1,4.275545E-2],"split_indices":[137,388,291,208,389,4,353,511,81,409,138,229,451,25,306,0,0,0,0,0,0,0,0,0,0,0,0,0,0,0,0],"split_type":[0,0,0,0,0,0,0,0,0,0,0,0,0,0,0,0,0,0,0,0,0,0,0,0,0,0,0,0,0,0,0],"sum_hessian":[1.0772948E4,2.3298975E3,8.44305E3,1.8178438E3,5.1205383E2,4.4963384E3,3.946712E3,3.4487186E2,1.4729718E3,1.9442722E2,3.1762662E2,4.1331787E3,3.6315952E2,3.6459631E3,3.0074875E2,3.229422E2,2.1929668E1,2.7084503E2,1.2021268E3,8.85371E1,1.0589011E2,1.5452629E2,1.6310031E2,3.6515593E3,4.8161942E2,1.5624768E2,2.0691182E2,1.8160386E3,1.8299247E3,3.822809E1,2.6252066E2],"tree_param":{"num_deleted":"0","num_feature":"536","num_nodes":"31","size_leaf_vector":"0"}},{"base_weights":[-6.585884E-3,-8.379841E-2,5.3171057E-2,1.570795E-1,-1.2361146E-1,1.16879396E-1,-7.3478855E-2,-4.6405557E-1,2.2576135E-1,-1.7589425E-1,1.0337136E-1,1.5926623E-1,-2.3147164E-1,1.5386505E-1,-1.4835419E-1,1.3222696E-1,-2.0747519E-1,-2.9700678E-2,1.0742316E-1,-6.804521E-2,2.5611545E-3,-1.4218321E-2,1.3227123E-1,5.537185E-2,-1.0008669E-1,-7.885898E-2,4.5335135E-1,-1.696438E-2,1.4429076E-1,7.1000166E-2,-5.8575213E-2],"categories":[],"categories_nodes":[],"categories_segments":[],"categories_sizes":[],"default_left":[0,0,0,0,1,0,0,0,0,0,0,0,0,0,0,0,0,0,0,0,0,0,0,0,0,0,0,0,0,0,0],"id":22,"left_children":[1,3,5,7,9,11,13,15,17,19,21,23,25,27,29,-1,-1,-1,-1,-1,-1,-1,-1,-1,-1,-1,-1,-1,-1,-1,-1],"loss_changes":[4.9422504E1,4.4835354E1,4.872986E1,2.8400673E1,4.7616432E1,5.936224E1,3.4433727E1,1.3967776E1,2.5728512E1,3.0622551E1,3.8264893E1,4.4748276E1,2.426248E1,3.453161E1,2.7512878E1,0E0,0E0,0E0,0E0,0E0,0E0,0E0,0E0,0E0,0E0,0E0,0E0,0E0,0E0,0E0,0E0],"parents":[2147483647,0,0,1,1,2,2,3,3,4,4,5,5,6,6,7,7,8,8,9,9,10,10,11,11,12,12,13,13,14,14],"right_children":[2,4,6,8,10,12,14,16,18,20,22,24,26,28,30,-1,-1,-1,-1,-1,-1,-1,-1,-1,-1,-1,-1,-1,-1,-1,-1],"split_conditions":[-8.9446485E-2,-1.13146275E-1,1.02683544E-1,-5.0077146E-1,7.16085E-1,4.0397134E-1,-4.1938254E-1,-1.3884702E-1,-2.778954E-1,3.8427693E-1,1.5137237E-1,5.355094E-1,1.083857E0,1.8763748E-1,-5.854695E-1,1.3222696E-1,-2.0747519E-1,-2.9700678E-2,1.0742316E-1,-6.804521E-2,2.5611545E-3,-1.4218321E-2,1.3227123E-1,5.537185E-2,-1.0008669E-1,-7.885898E-2,4.5335135E-1,-1.696438E-2,1.4429076E-1,7.1000166E-2,-5.8575213E-2],"split_indices":[277,105,206,401,535,90,72,362,85,237,145,464,233,97,329,0,0,0,0,0,0,0,0,0,0,0,0,0,0,0,0],"split_type":[0,0,0,0,0,0,0,0,0,0,0,0,0,0,0,0,0,0,0,0,0,0,0,0,0,0,0,0,0,0,0],"sum_hessian":[1.0709493E4,4.6721543E3,6.0373384E3,6.6227795E2,4.0098765E3,4.0168374E3,2.020501E3,6.5366776E1,5.969112E2,3.2593494E3,7.5052716E2,3.581579E3,4.3525845E2,5.003212E2,1.5201798E3,1.2946256E1,5.2420517E1,1.7286734E2,4.2404382E2,2.5539514E3,7.0539777E2,5.1939056E2,2.3113663E2,3.407264E3,1.7431512E2,4.2839066E2,6.8677855E0,3.0497202E2,1.9534917E2,1.646178E2,1.355562E3],"tree_param":{"num_deleted":"0","num_feature":"536","num_nodes":"31","size_leaf_vector":"0"}},{"base_weights":[-1.4013127E-2,-3.2460585E-2,2.6478314E-1,-8.401157E-2,7.274033E-2,5.306267E-1,-2.9566573E-2,-1.314278E-1,5.0137833E-2,1.4463511E-1,-1.3831757E-1,8.598629E-1,2.7398226E-1,2.5719376E0,-6.145204E-2,-6.1598167E-2,-9.147244E-3,4.300634E-2,-5.140275E-2,3.0796325E-2,1.468766E-1,1.04561016E-1,-8.791632E-2,-4.099538E-3,3.206546E-1,2.1142552E-2,3.0219743E-1,1.0041769E0,1.4428085E-1,1.777655E-1,-5.4709066E-2],"categories":[],"categories_nodes":[],"categories_segments":[],"categories_sizes":[],"default_left":[0,0,0,0,0,0,0,0,0,0,0,0,0,0,0,0,0,0,0,0,0,0,0,0,0,0,0,0,0,0,0],"id":23,"left_children":[1,3,5,7,9,11,13,15,17,19,21,23,25,27,29,-1,-1,-1,-1,-1,-1,-1,-1,-1,-1,-1,-1,-1,-1,-1,-1],"loss_changes":[5.5126167E1,5.4523594E1,5.2069378E1,4.2923805E1,5.0193314E1,2.9303185E1,2.6422504E1,3.7180336E1,3.6417416E1,3.567357E1,6.3432823E1,2.788485E1,2.9466276E1,4.6433334E0,2.492009E1,0E0,0E0,0E0,0E0,0E0,0E0,0E0,0E0,0E0,0E0,0E0,0E0,0E0,0E0,0E0,0E0],"parents":[2147483647,0,0,1,1,2,2,3,3,4,4,5,5,6,6,7,7,8,8,9,9,10,10,11,11,12,12,13,13,14,14],"right_children":[2,4,6,8,10,12,14,16,18,20,22,24,26,28,30,-1,-1,-1,-1,-1,-1,-1,-1,-1,-1,-1,-1,-1,-1,-1,-1],"split_conditions":[1E0,2.8935754E-1,-1.22547805E-1,2.963905E-1,3.18E2,2.6308E-2,7.576E1,6.8831936E-2,2.54E2,4.7647867E-1,-3.4079075E-1,-3.0082732E-1,6.076515E-1,1.2264077E-1,-4.0076283E-1,-6.1598167E-2,-9.147244E-3,4.300634E-2,-5.140275E-2,3.0796325E-2,1.468766E-1,1.04561016E-1,-8.791632E-2,-4.099538E-3,3.206546E-1,2.1142552E-2,3.0219743E-1,1.0041769E0,1.4428085E-1,1.777655E-1,-5.4709066E-2],"split_indices":[526,263,322,388,533,269,532,266,533,458,273,305,404,185,326,0,0,0,0,0,0,0,0,0,0,0,0,0,0,0,0],"split_type":[0,0,0,0,0,0,0,0,0,0,0,0,0,0,0,0,0,0,0,0,0,0,0,0,0,0,0,0,0,0,0],"sum_hessian":[1.0715835E4,1.005162E4,6.642145E2,6.74608E3,3.3055403E3,3.4858517E2,3.156293E2,4.9843433E3,1.761737E3,2.4658782E3,8.396622E2,1.516678E2,1.9691736E2,2.8571296E0,3.127722E2,2.876976E3,2.107367E3,1.2401399E3,5.215972E2,2.1994978E3,2.6638034E2,2.022049E2,6.374573E2,2.9460794E1,1.2220701E2,1.55E2,4.1917362E1,1.6460154E0,1.2111143E0,4.819381E1,2.6457837E2],"tree_param":{"num_deleted":"0","num_feature":"536","num_nodes":"31","size_leaf_vector":"0"}},{"base_weights":[7.2119534E-3,-2.2143012E-1,2.648475E-2,-1.3156907E-1,-6.1261827E-1,-5.4334126E-2,8.686374E-2,-1.9300373E-1,5.537971E-1,5.652062E-1,-7.388007E-1,-2.1609552E-1,5.3059286E-3,2.8924853E-1,5.08208E-2,-7.602197E-2,1.333915E-1,-7.61631E-2,3.3912966E-1,6.9285285E-1,-5.9549656E-2,-2.6646426E-1,2.945279E-3,1.4835355E-1,-7.641755E-2,-2.5179313E-2,4.2208057E-2,7.172382E-2,3.421635E-1,2.3539749E-1,1.2149799E-2],"categories":[],"categories_nodes":[],"categories_segments":[],"categories_sizes":[],"default_left":[0,0,0,0,0,0,0,0,0,0,0,0,0,0,0,0,0,0,0,0,0,0,0,0,0,0,0,0,0,0,0],"id":24,"left_children":[1,3,5,7,9,11,13,15,17,19,21,23,25,27,29,-1,-1,-1,-1,-1,-1,-1,-1,-1,-1,-1,-1,-1,-1,-1,-1],"loss_changes":[4.6888294E1,2.8997406E1,4.788988E1,2.8483547E1,2.3342052E1,4.049011E1,4.095991E1,2.3963179E1,2.6228228E1,2.1096392E1,1.5640915E1,3.1160183E1,3.7069645E1,3.5984062E1,3.609172E1,0E0,0E0,0E0,0E0,0E0,0E0,0E0,0E0,0E0,0E0,0E0,0E0,0E0,0E0,0E0,0E0],"parents":[2147483647,0,0,1,1,2,2,3,3,4,4,5,5,6,6,7,7,8,8,9,9,10,10,11,11,12,12,13,13,14,14],"right_children":[2,4,6,8,10,12,14,16,18,20,22,24,26,28,30,-1,-1,-1,-1,-1,-1,-1,-1,-1,-1,-1,-1,-1,-1,-1,-1],"split_conditions":[-4.64694E-1,5.536163E-2,6.453427E-2,5.144931E-1,-4.4164118E-1,-1.5614523E-1,-3.426163E-1,6.2486774E-1,-2.0366089E-1,-2.4505141E-1,3.5203943E-1,-7.400931E-1,1.3917851E-1,4.9624175E-1,-1.2338824E0,-7.602197E-2,1.333915E-1,-7.61631E-2,3.3912966E-1,6.9285285E-1,-5.9549656E-2,-2.6646426E-1,2.945279E-3,1.4835355E-1,-7.641755E-2,-2.5179313E-2,4.2208057E-2,7.172382E-2,3.421635E-1,2.3539749E-1,1.2149799E-2],"split_indices":[305,464,429,292,139,95,188,87,332,47,176,390,411,246,101,0,0,0,0,0,0,0,0,0,0,0,0,0,0,0,0],"split_type":[0,0,0,0,0,0,0,0,0,0,0,0,0,0,0,0,0,0,0,0,0,0,0,0,0,0,0,0,0,0,0],"sum_hessian":[1.0638206E4,8.2619415E2,9.812012E3,6.72946E2,1.532482E2,4.1958525E3,5.616159E3,6.182462E2,5.469979E1,1.4492412E1,1.3875578E2,1.1295518E3,3.0663008E3,8.479286E2,4.7682305E3,5.652989E2,5.294729E1,2.301839E1,3.1681398E1,3.7966876E0,1.0695724E1,1.15514305E2,2.3241474E1,5.762968E1,1.0719221E3,1.8483755E3,1.2179253E3,8.019485E2,4.59801E1,6.509473E1,4.7031357E3],"tree_param":{"num_deleted":"0","num_feature":"536","num_nodes":"31","size_leaf_vector":"0"}},{"base_weights":[-4.653344E-3,-7.7969235E-1,7.056746E-4,-8.4015864E-1,4.4369784E-1,3.5319805E-2,-1.2124605E-1,-9.3131876E-1,-6.932549E-2,-2.0603107E-1,5.8162194E-1,1.03732035E-1,-4.3824084E-2,2.6736418E-2,-2.1429929E-1,-2.934868E-1,1.21965356E-1,-2.1070139E-1,3.7959307E-1,-2.0456176E-2,5.051541E-2,8.726583E-2,-2.6731243E-2,1.3451338E-1,-1.9057237E-2,6.501175E-1,-6.681271E-2],"categories":[],"categories_nodes":[],"categories_segments":[],"categories_sizes":[],"default_left":[0,0,0,0,0,0,0,0,0,0,0,0,0,0,0,0,0,0,0,0,0,0,0,0,0,0,0],"id":25,"left_children":[1,3,5,7,9,11,13,15,17,-1,-1,19,21,23,25,-1,-1,-1,-1,-1,-1,-1,-1,-1,-1,-1,-1],"loss_changes":[4.4005898E1,5.7548485E0,4.4425102E1,4.8314705E0,8.228819E0,4.4388733E1,3.2045208E1,4.3080597E0,8.026688E0,0E0,0E0,4.8885456E1,5.7637512E1,3.4247284E1,2.9092339E1,0E0,0E0,0E0,0E0,0E0,0E0,0E0,0E0,0E0,0E0,0E0,0E0],"parents":[2147483647,0,0,1,1,2,2,3,3,4,4,5,5,6,6,7,7,8,8,11,11,12,12,13,13,14,14],"right_children":[2,4,6,8,10,12,14,16,18,-1,-1,20,22,24,26,-1,-1,-1,-1,-1,-1,-1,-1,-1,-1,-1,-1],"split_conditions":[1.6356814E-3,5.144848E-1,4.0520042E-1,5.246533E-1,1.8553919E-1,-4.8159715E-3,1.61E2,9.112892E-1,2.58796E-1,-2.0603107E-1,5.8162194E-1,-1.0717381E-1,-3.6231554E-1,-1.4867009E-1,-1.0752645E0,-2.934868E-1,1.21965356E-1,-2.1070139E-1,3.7959307E-1,-2.0456176E-2,5.051541E-2,8.726583E-2,-2.6731243E-2,1.3451338E-1,-1.9057237E-2,6.501175E-1,-6.681271E-2],"split_indices":[535,313,399,66,112,56,533,263,62,0,0,506,454,234,370,0,0,0,0,0,0,0,0,0,0,0,0],"split_type":[0,0,0,0,0,0,0,0,0,0,0,0,0,0,0,0,0,0,0,0,0,0,0,0,0,0,0],"sum_hessian":[1.0593894E4,7.175638E1,1.0522138E4,6.867534E1,3.0810378E0,8.19642E3,2.3257178E3,6.12264E1,7.4489417E0,2.062286E0,1.0187517E0,4.396103E3,3.8003164E3,8.9813214E2,1.4275858E3,5.9409397E1,1.8170009E0,5.3738885E0,2.0750532E0,1.2013944E3,3.1947087E3,4.5220358E2,3.3481128E3,1.5766254E2,7.404696E2,4.1204753E0,1.4234653E3],"tree_param":{"num_deleted":"0","num_feature":"536","num_nodes":"27","size_leaf_vector":"0"}},{"base_weights":[7.3545096E-3,3.746666E-2,-1.7440207E-1,5.3885292E-2,-2.6527032E-1,-3.36478E-1,-5.9531834E-2,2.3027253E-1,2.0356214E-2,1.4542761E-1,-4.183405E-1,-4.4442078E-1,-2.1566756E-2,-2.1244231E-1,1.5361702E-1,1.568633E-1,3.529785E-2,1.2850289E-1,1.2743939E-3,3.7652755E-1,-2.4435245E-2,3.0784357E-1,-1.4123699E-1,-1.8168111E-1,-5.6872256E-2,-1.3671143E-1,9.792107E-2,1.0031633E-1,-8.916613E-2,4.267191E-1,2.8891934E-2],"categories":[],"categories_nodes":[],"categories_segments":[],"categories_sizes":[],"default_left":[0,0,0,0,0,0,0,0,0,0,0,0,0,0,0,0,0,0,0,0,0,0,0,0,0,0,0,0,0,0,0],"id":26,"left_children":[1,3,5,7,9,11,13,15,17,19,21,23,25,27,29,-1,-1,-1,-1,-1,-1,-1,-1,-1,-1,-1,-1,-1,-1,-1,-1],"loss_changes":[5.792946E1,4.51462E1,2.798722E1,5.093718E1,2.9436367E1,2.1193E1,2.8766018E1,4.527012E1,4.7571873E1,3.222997E1,2.6292496E1,1.8964157E1,2.4361126E1,2.3916496E1,2.6682919E1,0E0,0E0,0E0,0E0,0E0,0E0,0E0,0E0,0E0,0E0,0E0,0E0,0E0,0E0,0E0,0E0],"parents":[2147483647,0,0,1,1,2,2,3,3,4,4,5,5,6,6,7,7,8,8,9,9,10,10,11,11,12,12,13,13,14,14],"right_children":[2,4,6,8,10,12,14,16,18,20,22,24,26,28,30,-1,-1,-1,-1,-1,-1,-1,-1,-1,-1,-1,-1,-1,-1,-1,-1],"split_conditions":[4.0399015E-1,1E0,-7.079101E-2,-4.3550503E-1,-3.0702966E-1,8.129877E-1,2.108884E-1,-3.7882558E-1,7.1E1,-4.9925607E-1,-6.505019E-1,3.2594958E-1,-1.7292017E-1,-3.6981314E-1,-6.1543286E-1,1.568633E-1,3.529785E-2,1.2850289E-1,1.2743939E-3,3.7652755E-1,-2.4435245E-2,3.0784357E-1,-1.4123699E-1,-1.8168111E-1,-5.6872256E-2,-1.3671143E-1,9.792107E-2,1.0031633E-1,-8.916613E-2,4.267191E-1,2.8891934E-2],"split_indices":[285,529,87,238,139,256,403,324,533,193,26,321,29,58,454,0,0,0,0,0,0,0,0,0,0,0,0,0,0,0,0],"split_type":[0,0,0,0,0,0,0,0,0,0,0,0,0,0,0,0,0,0,0,0,0,0,0,0,0,0,0,0,0,0,0],"sum_hessian":[1.0582237E4,9.078902E3,1.5033348E3,8.612627E3,4.6627505E2,6.22745E2,8.8058984E2,1.3747227E3,7.237905E3,1.2661314E2,3.3966193E2,4.6346933E2,1.5927563E2,5.1275134E2,3.6783847E2,3.810329E2,9.936897E2,2.739425E2,6.9639624E3,2.07233E1,1.0588983E2,1.125058E1,3.2841135E2,2.8306366E2,1.8040567E2,7.072609E1,8.854955E1,6.842925E1,4.443221E2,1.4867724E1,3.5297073E2],"tree_param":{"num_deleted":"0","num_feature":"536","num_nodes":"31","size_leaf_vector":"0"}},{"base_weights":[-2.6078324E-3,-3.9796847E-1,7.4137114E-3,-5.839559E-1,-8.869255E-2,6.775197E-2,-5.3410616E-2,6.5274465E-1,-6.894603E-1,-6.1900085E-1,2.8948656E-1,-1.01101756E-1,1.208367E-1,7.859683E-3,-1.656043E-1,-2.3627117E-1,3.9458552E-1,2.2559766E-1,-2.30564E-1,-2.358729E-1,3.5100845E-1,2.6317644E-1,-8.147757E-2,3.7675057E-2,-6.2254597E-2,2.099527E-2,1.0116272E-1,-4.196273E-2,3.2627326E-2,-3.3502433E-2,-1.5465418E-1],"categories":[],"categories_nodes":[],"categories_segments":[],"categories_sizes":[],"default_left":[0,0,0,0,0,0,0,0,0,0,0,0,0,0,0,0,0,0,0,0,0,0,0,0,0,0,0,0,0,0,0],"id":27,"left_children":[1,3,5,7,9,11,13,15,17,19,21,23,25,27,29,-1,-1,-1,-1,-1,-1,-1,-1,-1,-1,-1,-1,-1,-1,-1,-1],"loss_changes":[4.1901054E1,1.4986427E1,3.7857155E1,2.1728241E1,2.01054E1,4.6427654E1,3.531363E1,1.3758738E1,1.7763E1,1.3390129E1,1.9589558E1,2.9916367E1,4.3329903E1,4.955559E1,3.4183064E1,0E0,0E0,0E0,0E0,0E0,0E0,0E0,0E0,0E0,0E0,0E0,0E0,0E0,0E0,0E0,0E0],"parents":[2147483647,0,0,1,1,2,2,3,3,4,4,5,5,6,6,7,7,8,8,9,9,10,10,11,11,12,12,13,13,14,14],"right_children":[2,4,6,8,10,12,14,16,18,20,22,24,26,28,30,-1,-1,-1,-1,-1,-1,-1,-1,-1,-1,-1,-1,-1,-1,-1,-1],"split_conditions":[-4.6925575E-1,2.7131143E-1,-6.709388E-3,-5.5716854E-1,-2.769453E-2,-4.8191458E-2,-5.384138E-2,-1.5977941E-1,-8.361413E-1,4.5574453E-1,1.7793371E-1,-2.5747454E-1,3.9206818E-1,-1.2379724E-1,7.36052E-1,-2.3627117E-1,3.9458552E-1,2.2559766E-1,-2.30564E-1,-2.358729E-1,3.5100845E-1,2.6317644E-1,-8.147757E-2,3.7675057E-2,-6.2254597E-2,2.099527E-2,1.0116272E-1,-4.196273E-2,3.2627326E-2,-3.3502433E-2,-1.5465418E-1],"split_indices":[121,399,230,391,154,216,107,82,163,400,135,107,292,51,504,0,0,0,0,0,0,0,0,0,0,0,0,0,0,0,0],"split_type":[0,0,0,0,0,0,0,0,0,0,0,0,0,0,0,0,0,0,0,0,0,0,0,0,0,0,0,0,0,0,0],"sum_hessian":[1.0573657E4,2.6043677E2,1.0313221E4,1.6207971E2,9.8357056E1,5.17724E3,5.1359805E3,1.2332599E1,1.497471E2,4.067834E1,5.767871E1,1.2381108E3,3.9391294E3,3.3224702E3,1.8135104E3,3.8261373E0,8.506462E0,7.346114E0,1.4240099E2,3.771334E1,2.9650009E0,2.7894154E1,2.9784557E1,3.9547604E2,8.4263477E2,3.1905908E3,7.485385E2,1.3481361E3,1.9743341E3,1.5724734E3,2.41037E2],"tree_param":{"num_deleted":"0","num_feature":"536","num_nodes":"31","size_leaf_vector":"0"}},{"base_weights":[3.186127E-3,1.6547988E-1,-2.2189409E-2,-1.1399276E-1,2.609594E-1,-9.502783E-2,4.617391E-2,1.1383905E0,-1.8734615E-1,1.3794918E-1,5.583471E-1,-6.1095912E-2,-3.1561688E-1,-7.9692595E-2,1.3761525E-1,6.0227203E-1,-1.5067446E-1,-7.777947E-2,2.5501388E-1,-1.0775482E-1,6.5105595E-2,2.1666074E-1,-1.4900698E-2,-2.6090711E-2,7.445092E-2,-1.5088685E-1,-3.162816E-2,-1.2619512E-1,-9.373356E-3,1.2307054E-1,2.5150498E-2],"categories":[],"categories_nodes":[],"categories_segments":[],"categories_sizes":[],"default_left":[0,0,0,0,0,0,0,0,0,0,0,0,0,0,0,0,0,0,0,0,0,0,0,0,0,0,0,0,0,0,0],"id":28,"left_children":[1,3,5,7,9,11,13,15,17,19,21,23,25,27,29,-1,-1,-1,-1,-1,-1,-1,-1,-1,-1,-1,-1,-1,-1,-1,-1],"loss_changes":[4.3418873E1,3.8069023E1,4.5404724E1,3.3625572E1,3.8803734E1,3.3023983E1,5.415004E1,2.9906782E1,2.5918316E1,2.9683954E1,3.0986404E1,3.0646307E1,2.3112305E1,3.26939E1,3.9916973E1,0E0,0E0,0E0,0E0,0E0,0E0,0E0,0E0,0E0,0E0,0E0,0E0,0E0,0E0,0E0,0E0],"parents":[2147483647,0,0,1,1,2,2,3,3,4,4,5,5,6,6,7,7,8,8,9,9,10,10,11,11,12,12,13,13,14,14],"right_children":[2,4,6,8,10,12,14,16,18,20,22,24,26,28,30,-1,-1,-1,-1,-1,-1,-1,-1,-1,-1,-1,-1,-1,-1,-1,-1],"split_conditions":[-5.3390366E-1,-5.844116E-1,-1.3298827E-1,-5.861644E-1,1.3218568E-1,7.1253866E-1,7.149496E-2,1.828704E-1,7.0330125E-1,-3.2264394E-1,2.6730132E-1,6.072548E-1,-2.3855138E-1,-3.231905E-1,-1.1469776E-1,6.0227203E-1,-1.5067446E-1,-7.777947E-2,2.5501388E-1,-1.0775482E-1,6.5105595E-2,2.1666074E-1,-1.4900698E-2,-2.6090711E-2,7.445092E-2,-1.5088685E-1,-3.162816E-2,-1.2619512E-1,-9.373356E-3,1.2307054E-1,2.5150498E-2],"split_indices":[291,191,67,49,458,19,70,234,114,53,72,361,101,431,399,0,0,0,0,0,0,0,0,0,0,0,0,0,0,0,0],"split_type":[0,0,0,0,0,0,0,0,0,0,0,0,0,0,0,0,0,0,0,0,0,0,0,0,0,0,0,0,0,0,0],"sum_hessian":[1.0541044E4,1.4245511E3,9.116492E3,3.6270468E2,1.0618464E3,4.4135933E3,4.702899E3,1.9265198E1,3.4343948E2,7.521813E2,3.096652E2,3.826294E3,5.8729926E2,1.978995E3,2.723904E3,1.2447217E1,6.8179812E0,3.2187512E2,2.1564384E1,1.0273222E2,6.4944904E2,2.4378056E2,6.5884636E1,3.5315627E3,2.9473123E2,3.0979248E2,2.7750677E2,2.4526161E2,1.7337334E3,4.4771994E2,2.276184E3],"tree_param":{"num_deleted":"0","num_feature":"536","num_nodes":"31","size_leaf_vector":"0"}},{"base_weights":[-7.946944E-3,-2.1788247E-1,1.19294645E-2,1.451141E-1,-2.98707E-1,2.3419881E-1,-5.8400165E-3,-1.40808895E-2,1.5620033E0,2.3748001E-1,-3.5638213E-1,1.1066792E0,1.845065E-1,-4.719615E-2,8.253444E-2,-1.460668E-1,1.1862104E-1,-5.707487E-2,6.855102E-1,5.673317E-1,-5.7790236E-4,3.4334082E-2,-1.2700894E-1,7.211961E-2,6.179615E-1,3.8942274E-2,2.682916E-1,-2.6999032E-2,3.716663E-2,-4.7678754E-2,3.9113395E-2],"categories":[],"categories_nodes":[],"categories_segments":[],"categories_sizes":[],"default_left":[0,0,0,0,0,0,0,0,0,0,0,0,0,0,0,0,0,0,0,0,0,0,0,0,0,0,0,0,0,0,0],"id":29,"left_children":[1,3,5,7,9,11,13,15,17,19,21,23,25,27,29,-1,-1,-1,-1,-1,-1,-1,-1,-1,-1,-1,-1,-1,-1,-1,-1],"loss_changes":[4.385773E1,2.6713924E1,3.792476E1,3.7514915E1,2.308725E1,3.0613895E1,3.2502537E1,2.9315367E1,2.171703E1,2.8840038E1,2.1240662E1,3.0967976E1,2.6041204E1,4.4371025E1,3.277188E1,0E0,0E0,0E0,0E0,0E0,0E0,0E0,0E0,0E0,0E0,0E0,0E0,0E0,0E0,0E0,0E0],"parents":[2147483647,0,0,1,1,2,2,3,3,4,4,5,5,6,6,7,7,8,8,9,9,10,10,11,11,12,12,13,13,14,14],"right_children":[2,4,6,8,10,12,14,16,18,20,22,24,26,28,30,-1,-1,-1,-1,-1,-1,-1,-1,-1,-1,-1,-1,-1,-1,-1,-1],"split_conditions":[-3.3028245E-1,1.06E2,-5.1864237E-1,5.5391824E-1,-6.619308E-1,-7.585228E-1,1.8871047E-1,-1.0429172E-1,3.574746E-2,-1.0267755E0,-4.1047615E-1,2.4541402E-1,6.766239E-1,3.935091E-1,-3.2676083E-1,-1.460668E-1,1.1862104E-1,-5.707487E-2,6.855102E-1,5.673317E-1,-5.7790236E-4,3.4334082E-2,-1.2700894E-1,7.211961E-2,6.179615E-1,3.8942274E-2,2.682916E-1,-2.6999032E-2,3.716663E-2,-4.7678754E-2,3.9113395E-2],"split_indices":[501,533,296,154,6,66,431,242,468,326,103,490,39,125,495,0,0,0,0,0,0,0,0,0,0,0,0,0,0,0,0],"split_type":[0,0,0,0,0,0,0,0,0,0,0,0,0,0,0,0,0,0,0,0,0,0,0,0,0,0,0,0,0,0,0],"sum_hessian":[1.0508852E4,9.080478E2,9.600804E3,1.6522028E2,7.428275E2,7.0982214E2,8.890981E3,1.49422E2,1.5798289E1,7.18397E1,6.709878E2,3.710336E1,6.7271875E2,6.0569897E3,2.8339917E3,6.926109E1,8.0160904E1,4.829923E0,1.0968366E1,8.212848E0,6.362685E1,8.3479225E1,5.875086E2,2.0093859E1,1.70095E1,6.2568475E2,4.703402E1,4.8453047E3,1.2116848E3,4.682812E2,2.3657107E3],"tree_param":{"num_deleted":"0","num_feature":"536","num_nodes":"31","size_leaf_vector":"0"}},{"base_weights":[-2.0541088E-3,-1.300959E-1,2.4420584E-2,2.0877369E-1,-1.8464236E-1,-1.6991019E-1,4.7968235E-2,4.0485242E-1,-5.1614714E-1,-2.6800677E-1,-6.9212704E-3,1.4490762E-1,-2.8295094E-1,7.190877E-2,-1.422319E-1,4.979946E-2,2.9944056E-1,-2.6902333E-1,2.0087762E-1,1.4799841E-2,-1.0868089E-1,2.5923046E-1,-1.7904978E-2,1.4894022E-1,-4.3286808E-2,3.2315016E-1,-9.224264E-2,1.9256279E-2,2.1341375E-1,2.2621025E-1,-5.61336E-2],"categories":[],"categories_nodes":[],"categories_segments":[],"categories_sizes":[],"default_left":[0,0,0,0,0,0,0,0,0,0,0,0,0,0,0,0,0,0,0,0,0,0,0,0,0,0,0,0,0,0,0],"id":30,"left_children":[1,3,5,7,9,11,13,15,17,19,21,23,25,27,29,-1,-1,-1,-1,-1,-1,-1,-1,-1,-1,-1,-1,-1,-1,-1,-1],"loss_changes":[3.5715984E1,3.3406883E1,3.9961143E1,3.5852814E1,2.3043522E1,3.3629395E1,3.5473244E1,2.7883526E1,2.4891743E1,3.1689789E1,2.2923853E1,2.5491474E1,2.3507431E1,3.4111984E1,3.517785E1,0E0,0E0,0E0,0E0,0E0,0E0,0E0,0E0,0E0,0E0,0E0,0E0,0E0,0E0,0E0,0E0],"parents":[2147483647,0,0,1,1,2,2,3,3,4,4,5,5,6,6,7,7,8,8,9,9,10,10,11,11,12,12,13,13,14,14],"right_children":[2,4,6,8,10,12,14,16,18,20,22,24,26,28,30,-1,-1,-1,-1,-1,-1,-1,-1,-1,-1,-1,-1,-1,-1,-1,-1],"split_conditions":[-1.0969399E-1,-3.0816817E-1,-3.1814858E-1,2.9436707E-1,1.5845831E-2,-2.3523283E-1,3.4486848E-1,2.9230902E-1,2.2062159E-1,1.22E2,-4.9354035E-1,2.9258514E-2,-7.937966E-1,1.0564755E0,-5.4805356E-1,4.979946E-2,2.9944056E-1,-2.6902333E-1,2.0087762E-1,1.4799841E-2,-1.0868089E-1,2.5923046E-1,-1.7904978E-2,1.4894022E-1,-4.3286808E-2,3.2315016E-1,-9.224264E-2,1.9256279E-2,2.1341375E-1,2.2621025E-1,-5.61336E-2],"split_indices":[59,44,68,136,137,197,56,296,443,533,187,472,313,237,169,0,0,0,0,0,0,0,0,0,0,0,0,0,0,0,0],"split_type":[0,0,0,0,0,0,0,0,0,0,0,0,0,0,0,0,0,0,0,0,0,0,0,0,0,0,0,0,0,0,0],"sum_hessian":[1.0534165E4,1.8042422E3,8.729923E3,2.4976303E2,1.5544791E3,9.4283234E2,7.7870903E3,1.9693657E2,5.282646E1,1.0577892E3,4.966899E2,2.4902298E2,6.938093E2,6.9170605E3,8.7002997E2,1.413209E2,5.5615665E1,4.0174896E1,1.2651566E1,2.4235802E2,8.154312E2,2.749018E1,4.691997E2,1.1206972E2,1.3695326E2,1.1528391E1,6.8228094E2,6.8356255E3,8.143517E1,4.0735313E1,8.292947E2],"tree_param":{"num_deleted":"0","num_feature":"536","num_nodes":"31","size_leaf_vector":"0"}},{"base_weights":[-1.7671574E-2,-3.7490614E-2,2.1130794E-1,-6.400604E-2,1.0517465E-1,-1.8934939E-2,3.7048104E-1,2.9331533E-2,-1.2110734E-1,3.349187E-1,1.2326234E-2,-4.482071E-1,1.90004E-1,6.5164685E-1,1.3899226E-1,-3.396003E-2,3.9996617E-2,-6.0642567E-2,-5.774699E-3,1.7517655E-1,2.2122234E-2,-5.277706E-2,5.6218315E-2,1.05416365E-1,-2.1084654E-1,1.2973736E-1,-6.973408E-2,2.9734057E-1,5.377301E-2,2.3082471E-1,-7.848972E-4],"categories":[],"categories_nodes":[],"categories_segments":[],"categories_sizes":[],"default_left":[0,0,0,0,0,0,0,0,0,0,0,0,0,0,0,0,0,0,0,0,0,0,0,0,0,0,0,0,0,0,0],"id":31,"left_children":[1,3,5,7,9,11,13,15,17,19,21,23,25,27,29,-1,-1,-1,-1,-1,-1,-1,-1,-1,-1,-1,-1,-1,-1,-1,-1],"loss_changes":[4.7349064E1,3.6328213E1,3.046695E1,4.3160423E1,3.2104553E1,3.0641094E1,3.1896973E1,4.5582268E1,4.1465492E1,2.8129532E1,3.5396503E1,2.3014164E1,2.3642673E1,3.5369133E1,2.4178392E1,0E0,0E0,0E0,0E0,0E0,0E0,0E0,0E0,0E0,0E0,0E0,0E0,0E0,0E0,0E0,0E0],"parents":[2147483647,0,0,1,1,2,2,3,3,4,4,5,5,6,6,7,7,8,8,9,9,10,10,11,11,12,12,13,13,14,14],"right_children":[2,4,6,8,10,12,14,16,18,20,22,24,26,28,30,-1,-1,-1,-1,-1,-1,-1,-1,-1,-1,-1,-1,-1,-1,-1,-1],"split_conditions":[5.0566685E-1,4.463966E-1,-1.7701931E-3,1.7E2,-4.7526863E-1,-1.5067881E-1,-2.8436467E-1,6.0579564E-2,8.45842E-2,1.094735E-1,1.8211238E-1,-5.372919E-1,1.9422096E-1,-1.0312514E-1,-4.5589194E-1,-3.396003E-2,3.9996617E-2,-6.0642567E-2,-5.774699E-3,1.7517655E-1,2.2122234E-2,-5.277706E-2,5.6218315E-2,1.05416365E-1,-2.1084654E-1,1.2973736E-1,-6.973408E-2,2.9734057E-1,5.377301E-2,2.3082471E-1,-7.848972E-4],"split_indices":[121,71,487,533,18,124,215,370,138,47,59,447,301,311,349,0,0,0,0,0,0,0,0,0,0,0,0,0,0,0,0],"split_type":[0,0,0,0,0,0,0,0,0,0,0,0,0,0,0,0,0,0,0,0,0,0,0,0,0,0,0,0,0,0,0],"sum_hessian":[1.0430806E4,9.600668E3,8.3013776E2,8.096435E3,1.5042328E3,3.3967746E2,4.9046027E2,3.0733064E3,5.023129E3,4.321972E2,1.0720355E3,1.10829445E2,2.2884802E2,2.2064735E2,2.698129E2,1.2963765E3,1.7769299E3,2.7969775E3,2.2261514E3,2.2062292E2,2.1157428E2,5.1656805E2,5.5546747E2,2.6675936E1,8.415351E1,1.453848E2,8.346322E1,1.2774591E2,9.290145E1,4.8676765E1,2.2113614E2],"tree_param":{"num_deleted":"0","num_feature":"536","num_nodes":"31","size_leaf_vector":"0"}},{"base_weights":[1.1662337E-2,-3.0060552E-2,9.471263E-2,-8.071734E-2,6.722356E-2,2.4343535E-1,1.703596E-2,4.8873335E-2,-1.3734597E-1,5.2469086E-2,9.6568745E-1,3.77096E-1,4.2268127E-2,-6.4436115E-2,2.058221E-1,1.15738995E-1,-7.597312E-3,-2.5070043E-2,-8.927181E-2,2.216495E-1,1.0343944E-2,4.643309E-1,-1.14108846E-1,1.3547713E-1,-6.636995E-2,1.18489735E-1,-3.20308E-2,2.6598923E-2,-5.764138E-2,7.5243376E-2,-2.0084795E-1],"categories":[],"categories_nodes":[],"categories_segments":[],"categories_sizes":[],"default_left":[0,0,0,0,0,0,0,0,0,0,0,0,0,0,0,0,0,0,0,0,0,0,0,0,0,0,0,0,0,0,0],"id":32,"left_children":[1,3,5,7,9,11,13,15,17,19,21,23,25,27,29,-1,-1,-1,-1,-1,-1,-1,-1,-1,-1,-1,-1,-1,-1,-1,-1],"loss_changes":[3.615402E1,3.423124E1,4.030076E1,3.3524933E1,3.1481041E1,3.216797E1,3.5280758E1,3.4750153E1,2.7365952E1,2.8882168E1,3.0654186E1,3.214792E1,2.52178E1,3.1347246E1,2.7397915E1,0E0,0E0,0E0,0E0,0E0,0E0,0E0,0E0,0E0,0E0,0E0,0E0,0E0,0E0,0E0,0E0],"parents":[2147483647,0,0,1,1,2,2,3,3,4,4,5,5,6,6,7,7,8,8,9,9,10,10,11,11,12,12,13,13,14,14],"right_children":[2,4,6,8,10,12,14,16,18,20,22,24,26,28,30,-1,-1,-1,-1,-1,-1,-1,-1,-1,-1,-1,-1,-1,-1,-1,-1],"split_conditions":[2.1525507E-1,1.6607785E-1,-1.9515397E-1,-9.862357E-3,8.4126514E-1,1.9939464E-1,9.127455E-2,-3.982746E-1,3E2,-6.7057866E-1,-1.0300354E-2,4.3671638E-1,-1.6234572E-1,2.2943339E-1,5.23E2,1.15738995E-1,-7.597312E-3,-2.5070043E-2,-8.927181E-2,2.216495E-1,1.0343944E-2,4.643309E-1,-1.14108846E-1,1.3547713E-1,-6.636995E-2,1.18489735E-1,-3.20308E-2,2.6598923E-2,-5.764138E-2,7.5243376E-2,-2.0084795E-1],"split_indices":[229,23,296,54,138,344,439,175,533,47,229,495,83,247,533,0,0,0,0,0,0,0,0,0,0,0,0,0,0,0,0],"split_type":[0,0,0,0,0,0,0,0,0,0,0,0,0,0,0,0,0,0,0,0,0,0,0,0,0,0,0,0,0,0,0],"sum_hessian":[1.0431943E4,6.9440317E3,3.4879116E3,4.5664214E3,2.37761E3,1.1959556E3,2.291956E3,1.3886743E3,3.1777473E3,2.3402373E3,3.7372707E1,7.180141E2,4.7794144E2,1.6014828E3,6.904732E2,2.4986525E2,1.1388091E3,2.3803262E3,7.974211E2,5.874667E1,2.2814907E3,2.5985676E1,1.13870325E1,6.387343E2,7.927976E1,1.4147954E2,3.364619E2,7.284564E2,8.7302637E2,6.5739795E2,3.307525E1],"tree_param":{"num_deleted":"0","num_feature":"536","num_nodes":"31","size_leaf_vector":"0"}},{"base_weights":[3.3452678E-3,7.04337E-1,-1.7473549E-3,1.5171739E0,1.9784725E-1,1.9973755E-2,-1.6014709E-1,2.2707975E0,-4.3111506E-1,9.3750656E-1,-3.1645453E-1,3.1295583E-2,-3.5636476E-1,-2.3170145E-1,2.925254E-1,8.251659E-1,6.332104E-2,-3.545887E-1,4.125887E-1,4.8008418E-1,-1.2550499E-1,-1.5546417E-1,5.30425E-1,-1.5197824E-1,1.1601361E-2,-1.3670316E-1,1.1624378E-1,-1.1270992E-1,-9.086101E-3,2.0966662E-1,-8.742846E-3],"categories":[],"categories_nodes":[],"categories_segments":[],"categories_sizes":[],"default_left":[0,0,0,0,0,0,0,0,0,0,0,0,0,0,0,0,0,0,0,0,0,0,0,0,0,0,0,0,0,0,0],"id":33,"left_children":[1,3,5,7,9,11,13,15,17,19,21,23,25,27,29,-1,-1,-1,-1,-1,-1,-1,-1,-1,-1,-1,-1,-1,-1,-1,-1],"loss_changes":[3.7246044E1,3.0680061E1,3.564388E1,4.3175484E1,1.8370592E1,3.882955E1,4.053341E1,2.0054771E1,1.363773E1,1.8407446E1,1.3017417E1,3.511145E1,1.983844E1,3.1292873E1,2.2367912E1,0E0,0E0,0E0,0E0,0E0,0E0,0E0,0E0,0E0,0E0,0E0,0E0,0E0,0E0,0E0,0E0],"parents":[2147483647,0,0,1,1,2,2,3,3,4,4,5,5,6,6,7,7,8,8,9,9,10,10,11,11,12,12,13,13,14,14],"right_children":[2,4,6,8,10,12,14,16,18,20,22,24,26,28,30,-1,-1,-1,-1,-1,-1,-1,-1,-1,-1,-1,-1,-1,-1,-1,-1],"split_conditions":[-9.460022E-1,-2.6752007E-1,1.8013863E-1,2.714592E-1,-8.616584E-2,7.2974104E-1,4.4323683E-1,1.8916841E-1,-5.088528E-3,1.8517806E-1,7.627043E-1,-8.503135E-1,4.8808074E-1,1.1131455E-1,-3.9434586E-2,8.251659E-1,6.332104E-2,-3.545887E-1,4.125887E-1,4.8008418E-1,-1.2550499E-1,-1.5546417E-1,5.30425E-1,-1.5197824E-1,1.1601361E-2,-1.3670316E-1,1.1624378E-1,-1.1270992E-1,-9.086101E-3,2.0966662E-1,-8.742846E-3],"split_indices":[86,11,77,373,433,220,422,352,143,67,28,376,353,358,213,0,0,0,0,0,0,0,0,0,0,0,0,0,0,0,0],"split_type":[0,0,0,0,0,0,0,0,0,0,0,0,0,0,0,0,0,0,0,0,0,0,0,0,0,0,0,0,0,0,0],"sum_hessian":[1.0432052E4,7.425071E1,1.0357802E4,2.7738802E1,4.6511906E1,9.109503E3,1.2482981E3,1.988247E1,7.856333E0,1.873898E1,2.7772926E1,8.844346E3,2.651579E2,1.0783331E3,1.6996497E2,1.5854267E1,4.028201E0,5.793789E0,2.0625439E0,1.2465353E1,6.2736263E0,2.6007135E1,1.7657908E0,1.18718895E2,8.725627E3,2.3426764E2,3.0890247E1,6.282849E2,4.5004825E2,7.4577965E1,9.5387E1],"tree_param":{"num_deleted":"0","num_feature":"536","num_nodes":"31","size_leaf_vector":"0"}},{"base_weights":[-8.261189E-3,1.575932E-2,-1.5268481E-1,-6.133219E-1,2.1816144E-2,-2.739296E-1,1.346855E-2,-8.247647E-1,6.736657E-1,-1.8833397E-2,1.18097074E-1,5.7389134E-1,-3.180919E-1,2.718633E-1,-1.3435021E-1,1.6045442E-1,-2.674485E-1,4.9277332E-1,-3.0364245E-1,-1.8018736E-2,3.0006865E-2,-3.2869376E-2,4.899477E-2,3.290137E-1,-1.6435012E-1,1.2711737E-1,-1.0579036E-1,-6.2355734E-2,1.4149487E-1,4.681668E-2,-9.940266E-2],"categories":[],"categories_nodes":[],"categories_segments":[],"categories_sizes":[],"default_left":[0,0,0,0,0,0,0,0,0,0,0,0,0,0,0,0,0,0,0,0,0,0,0,0,0,0,0,0,0,0,0],"id":34,"left_children":[1,3,5,7,9,11,13,15,17,19,21,23,25,27,29,-1,-1,-1,-1,-1,-1,-1,-1,-1,-1,-1,-1,-1,-1,-1,-1],"loss_changes":[3.602568E1,3.394002E1,2.9836128E1,2.3671415E1,3.452227E1,3.223944E1,2.3935043E1,7.1369934E0,2.2140562E1,3.0400959E1,2.6974354E1,2.5669893E1,2.1018707E1,2.1951124E1,2.2858835E1,0E0,0E0,0E0,0E0,0E0,0E0,0E0,0E0,0E0,0E0,0E0,0E0,0E0,0E0,0E0,0E0],"parents":[2147483647,0,0,1,1,2,2,3,3,4,4,5,5,6,6,7,7,8,8,9,9,10,10,11,11,12,12,13,13,14,14],"right_children":[2,4,6,8,10,12,14,16,18,20,22,24,26,28,30,-1,-1,-1,-1,-1,-1,-1,-1,-1,-1,-1,-1,-1,-1,-1,-1],"split_conditions":[4.539891E-1,-8.090927E-1,3.2579058E-1,5.2060664E-1,1.499361E-1,-6.6554236E-1,-4.0102133E-1,-6.6174185E-1,2.0165221E-1,4.7552085E-1,-5.360481E-1,1.6810168E-1,-6.4407843E-1,9.0959355E-2,-8.032265E-2,1.6045442E-1,-2.674485E-1,4.9277332E-1,-3.0364245E-1,-1.8018736E-2,3.0006865E-2,-3.2869376E-2,4.899477E-2,3.290137E-1,-1.6435012E-1,1.2711737E-1,-1.0579036E-1,-6.2355734E-2,1.4149487E-1,4.681668E-2,-9.940266E-2],"split_indices":[254,388,375,387,147,419,126,200,120,316,67,488,220,207,312,0,0,0,0,0,0,0,0,0,0,0,0,0,0,0,0],"split_type":[0,0,0,0,0,0,0,0,0,0,0,0,0,0,0,0,0,0,0,0,0,0,0,0,0,0,0,0,0,0,0],"sum_hessian":[1.0382953E4,8.903085E3,1.4798685E3,8.394575E1,8.819139E3,8.551807E2,6.246878E2,7.2408676E1,1.1537074E1,6.201632E3,2.6175073E3,4.1746334E1,8.134344E2,2.2701494E2,3.9767288E2,3.059388E0,6.934929E1,7.3425894E0,4.1944847E0,4.6048047E3,1.5968271E3,4.3350937E2,2.183998E3,2.848988E1,1.32564535E1,3.569091E1,7.7774347E2,6.673475E1,1.6028018E2,1.6081178E2,2.3686111E2],"tree_param":{"num_deleted":"0","num_feature":"536","num_nodes":"31","size_leaf_vector":"0"}},{"base_weights":[-1.0896549E-2,-3.475223E-2,1.5673465E-1,-2.1921283E-1,-1.5666898E-2,5.4870886E-1,9.185169E-2,6.696711E-2,-3.5155722E-1,9.797733E-2,-5.052057E-2,6.7324203E-1,-8.0269355E-1,1.61294E0,7.6959506E-2,4.4478798E-1,2.7692793E-3,1.1897658E-2,-1.3630347E-1,-6.926554E-2,4.68532E-2,2.2411026E-2,-2.8017255E-2,3.3842796E-1,9.1037415E-2,2.6370347E-1,-2.9889035E-1,1.3790882E-1,1.2641098E0,5.4309394E-2,-5.0405E-2],"categories":[],"categories_nodes":[],"categories_segments":[],"categories_sizes":[],"default_left":[0,0,0,0,0,0,0,0,0,0,0,0,0,0,0,0,0,0,0,0,0,0,0,0,0,0,0,0,0,0,0],"id":35,"left_children":[1,3,5,7,9,11,13,15,17,19,21,23,25,27,29,-1,-1,-1,-1,-1,-1,-1,-1,-1,-1,-1,-1,-1,-1,-1,-1],"loss_changes":[4.1559124E1,3.2023914E1,3.2877544E1,3.232786E1,3.2664597E1,3.1452E1,2.5066303E1,2.2099836E1,2.3477104E1,3.708342E1,3.3886078E1,2.8036095E1,6.0702085E0,3.0250978E1,2.8134039E1,0E0,0E0,0E0,0E0,0E0,0E0,0E0,0E0,0E0,0E0,0E0,0E0,0E0,0E0,0E0,0E0],"parents":[2147483647,0,0,1,1,2,2,3,3,4,4,5,5,6,6,7,7,8,8,9,9,10,10,11,11,12,12,13,13,14,14],"right_children":[2,4,6,8,10,12,14,16,18,20,22,24,26,28,30,-1,-1,-1,-1,-1,-1,-1,-1,-1,-1,-1,-1,-1,-1,-1,-1],"split_conditions":[5.9081167E-1,-5.7734364E-1,-4.0361652E-1,-7.966503E-2,-1.4239451E-1,3.1170428E-1,-8.248147E-1,-8.9096725E-1,-2.8730968E-1,-2.8555793E-1,-3.872693E-1,-3.412773E-1,-6.544634E-1,1.5563087E-1,2.72E2,4.4478798E-1,2.7692793E-3,1.1897658E-2,-1.3630347E-1,-6.926554E-2,4.68532E-2,2.2411026E-2,-2.8017255E-2,3.3842796E-1,9.1037415E-2,2.6370347E-1,-2.9889035E-1,1.3790882E-1,1.2641098E0,5.4309394E-2,-5.0405E-2],"split_indices":[233,270,197,380,433,111,222,414,110,186,383,101,373,312,533,0,0,0,0,0,0,0,0,0,0,0,0,0,0,0,0],"split_type":[0,0,0,0,0,0,0,0,0,0,0,0,0,0,0,0,0,0,0,0,0,0,0,0,0,0,0,0,0,0,0],"sum_hessian":[1.0390129E4,9.096407E3,1.2937219E3,8.5193475E2,8.244473E3,1.8267564E2,1.1110463E3,2.6955225E2,5.823825E2,1.9346199E3,6.3098525E3,1.6772173E2,1.49539175E1,9.731802E0,1.1013145E3,9.595539E0,2.599567E2,1.2130448E2,4.6107803E2,2.904497E2,1.6441702E3,1.6090574E3,4.7007954E3,7.4290436E1,9.343129E1,1.1783569E0,1.3775561E1,7.557407E0,2.1743948E0,7.731308E2,3.2818362E2],"tree_param":{"num_deleted":"0","num_feature":"536","num_nodes":"31","size_leaf_vector":"0"}},{"base_weights":[-8.914842E-3,7.625832E-2,-4.412478E-2,6.997984E-1,4.733196E-2,-2.8275654E-1,-2.566163E-2,-4.6952444E-1,9.356242E-1,2.0570837E-1,-2.3649752E-2,-6.329834E-1,-1.463483E-1,-4.0279114E-1,-1.428844E-2,-2.3957667E-1,4.5170593E-1,-8.442484E-2,3.5232264E-1,-6.986201E-2,9.307084E-2,4.665882E-2,-2.9442951E-2,-2.0375241E-1,4.2340425E-1,1.6290163E-1,-7.0537575E-2,2.3983021E-1,-1.4856987E-1,2.832983E-2,-1.630591E-2],"categories":[],"categories_nodes":[],"categories_segments":[],"categories_sizes":[],"default_left":[0,0,0,0,0,0,0,0,0,0,0,0,0,0,0,0,0,0,0,0,0,0,0,0,0,0,0,0,0,0,0],"id":36,"left_children":[1,3,5,7,9,11,13,15,17,19,21,23,25,27,29,-1,-1,-1,-1,-1,-1,-1,-1,-1,-1,-1,-1,-1,-1,-1,-1],"loss_changes":[3.106865E1,5.4620346E1,3.228632E1,3.7463554E1,3.257081E1,2.5049496E1,2.9179264E1,1.628138E1,3.2897736E1,4.1176918E1,2.672706E1,1.4860443E1,2.3386578E1,2.2529354E1,2.8780888E1,0E0,0E0,0E0,0E0,0E0,0E0,0E0,0E0,0E0,0E0,0E0,0E0,0E0,0E0,0E0,0E0],"parents":[2147483647,0,0,1,1,2,2,3,3,4,4,5,5,6,6,7,7,8,8,9,9,10,10,11,11,12,12,13,13,14,14],"right_children":[2,4,6,8,10,12,14,16,18,20,22,24,26,28,30,-1,-1,-1,-1,-1,-1,-1,-1,-1,-1,-1,-1,-1,-1,-1,-1],"split_conditions":[2.6916608E-2,-6.1080164E-1,-5.578081E-1,-3.5074544E-1,6.470485E-2,-2.8930682E-1,-5.017149E-1,5.123284E-1,-1.2928973E-1,-2.3734225E-1,-5.7819355E-1,6.892376E-1,-3.8150615E-1,-5.4119736E-1,-1.2437117E-1,-2.3957667E-1,4.5170593E-1,-8.442484E-2,3.5232264E-1,-6.986201E-2,9.307084E-2,4.665882E-2,-2.9442951E-2,-2.0375241E-1,4.2340425E-1,1.6290163E-1,-7.0537575E-2,2.3983021E-1,-1.4856987E-1,2.832983E-2,-1.630591E-2],"split_indices":[141,419,441,56,243,410,431,437,39,388,101,329,206,66,44,0,0,0,0,0,0,0,0,0,0,0,0,0,0,0,0],"split_type":[0,0,0,0,0,0,0,0,0,0,0,0,0,0,0,0,0,0,0,0,0,0,0,0,0,0,0,0,0,0,0],"sum_hessian":[1.0357751E4,3.029119E3,7.328632E3,1.3326433E2,2.8958545E3,5.252742E2,6.803358E3,2.2199408E1,1.1106492E2,8.9562115E2,2.0002334E3,1.4621869E2,3.7905545E2,1.9815685E2,6.605201E3,1.9539824E1,2.6595838E0,1.81876E1,9.287732E1,1.7213643E2,7.234847E2,5.8706854E2,1.4131648E3,1.4364093E2,2.5777626E0,4.2662697E1,3.3639276E2,1.3602702E1,1.8455414E2,1.7782632E3,4.826938E3],"tree_param":{"num_deleted":"0","num_feature":"536","num_nodes":"31","size_leaf_vector":"0"}},{"base_weights":[1.4093208E-2,-8.76189E-2,4.5900013E-2,3.0676493E-2,-2.2991247E-1,4.1577782E-2,9.9463814E-1,-1.4895755E-1,1.8272133E-1,-4.7895603E-2,-3.6533296E-1,1.2329402E-1,-6.3321483E-3,1.7248183E0,8.113195E-2,2.6792663E-1,-5.7503927E-2,-1.6132392E-1,6.762118E-2,3.2943407E-1,-2.899641E-2,-2.2511087E-2,-1.5413761E-1,2.6786422E-2,1.2082749E-1,2.298468E-2,-3.116702E-2,-1.1018742E-1,7.165811E-1,3.712007E-1,-1.955889E-1],"categories":[],"categories_nodes":[],"categories_segments":[],"categories_sizes":[],"default_left":[0,0,0,0,0,0,0,0,0,0,0,0,0,0,0,0,0,0,0,0,0,0,0,0,0,0,0,0,0,0,0],"id":37,"left_children":[1,3,5,7,9,11,13,15,17,19,21,23,25,27,29,-1,-1,-1,-1,-1,-1,-1,-1,-1,-1,-1,-1,-1,-1,-1,-1],"loss_changes":[3.3162373E1,4.1111782E1,3.1978611E1,3.647033E1,2.730954E1,3.043658E1,2.3451824E1,2.7425825E1,2.235743E1,2.6598585E1,2.7351631E1,2.7270931E1,3.967391E1,2.8106308E1,1.5013696E1,0E0,0E0,0E0,0E0,0E0,0E0,0E0,0E0,0E0,0E0,0E0,0E0,0E0,0E0,0E0,0E0],"parents":[2147483647,0,0,1,1,2,2,3,3,4,4,5,5,6,6,7,7,8,8,9,9,10,10,11,11,12,12,13,13,14,14],"right_children":[2,4,6,8,10,12,14,16,18,20,22,24,26,28,30,-1,-1,-1,-1,-1,-1,-1,-1,-1,-1,-1,-1,-1,-1,-1,-1],"split_conditions":[-3.590492E-1,-7.7486865E-2,1.0963227E0,-2.4619146E-1,2.7597694E-2,-2.1008079E-1,-3.3970633E-1,-8.860241E-1,-5.599194E-1,-1.054811E0,-5.4057145E-1,5.9686047E-1,-3.1887908E-2,-6.620139E-1,4.2014992E-1,2.6792663E-1,-5.7503927E-2,-1.6132392E-1,6.762118E-2,3.2943407E-1,-2.899641E-2,-2.2511087E-2,-1.5413761E-1,2.6786422E-2,1.2082749E-1,2.298468E-2,-3.116702E-2,-1.1018742E-1,7.165811E-1,3.712007E-1,-1.955889E-1],"split_indices":[410,86,282,74,290,346,377,165,443,122,8,53,206,256,243,0,0,0,0,0,0,0,0,0,0,0,0,0,0,0,0],"split_type":[0,0,0,0,0,0,0,0,0,0,0,0,0,0,0,0,0,0,0,0,0,0,0,0,0,0,0,0,0,0,0],"sum_hessian":[1.0248442E4,2.4409604E3,7.8074814E3,1.333305E3,1.1076553E3,7.773113E3,3.4368675E1,6.1120935E2,7.220957E2,4.731092E2,6.345461E2,2.872367E3,4.900746E3,1.8607372E1,1.5761303E1,2.3287764E1,5.8792163E2,3.9737713E1,6.82358E2,1.8429533E1,4.5467966E2,2.1521715E2,4.1932892E2,2.5619426E3,3.1042444E2,2.6488228E3,2.251923E3,4.58936E0,1.4018012E1,5.848885E0,9.912417E0],"tree_param":{"num_deleted":"0","num_feature":"536","num_nodes":"31","size_leaf_vector":"0"}},{"base_weights":[-5.5681923E-3,8.108032E-3,-2.0968497E-1,-1.939644E-1,2.4058955E-2,-3.923459E-1,-2.5265545E-2,-1.17622465E-1,-6.096517E-1,5.013571E-2,-1.043195E-1,9.469491E-2,-5.4201865E-1,1.0997725E0,-1.0578473E-1,2.1167243E-2,-1.008065E-1,-2.0235126E-1,4.2712608E-1,-1.0685668E-2,2.8845116E-2,6.082384E-2,-4.8979446E-2,-1.3690869E-2,5.6030947E-1,-1.7986704E-1,1.576594E-1,1.3516478E-1,1.1158624E0,2.2478426E-2,-1.5157115E-1],"categories":[],"categories_nodes":[],"categories_segments":[],"categories_sizes":[],"default_left":[0,0,0,0,0,0,0,0,0,0,0,0,0,0,0,0,0,0,0,0,0,0,0,0,0,0,0,0,0,0,0],"id":38,"left_children":[1,3,5,7,9,11,13,15,17,19,21,23,25,27,29,-1,-1,-1,-1,-1,-1,-1,-1,-1,-1,-1,-1,-1,-1,-1,-1],"loss_changes":[2.8811024E1,3.1183441E1,2.1821793E1,2.2390194E1,3.0021654E1,2.3781296E1,2.9426857E1,2.4650948E1,1.5411167E1,2.9413494E1,2.7438612E1,1.933635E1,1.5619408E1,3.5229168E1,2.1900385E1,0E0,0E0,0E0,0E0,0E0,0E0,0E0,0E0,0E0,0E0,0E0,0E0,0E0,0E0,0E0,0E0],"parents":[2147483647,0,0,1,1,2,2,3,3,4,4,5,5,6,6,7,7,8,8,9,9,10,10,11,11,12,12,13,13,14,14],"right_children":[2,4,6,8,10,12,14,16,18,20,22,24,26,28,30,-1,-1,-1,-1,-1,-1,-1,-1,-1,-1,-1,-1,-1,-1,-1,-1],"split_conditions":[5.07876E-1,-6.188048E-1,-1.3289434E-1,4.4263077E-1,4.0727857E-1,-4.3040422E-1,-5.9301263E-1,-2.0821981E-2,9.6221226E-1,-6.571186E-2,-3.4796363E-1,4.944233E-1,7.522311E-1,3.512264E-1,-4.2018127E-2,2.1167243E-2,-1.008065E-1,-2.0235126E-1,4.2712608E-1,-1.0685668E-2,2.8845116E-2,6.082384E-2,-4.8979446E-2,-1.3690869E-2,5.6030947E-1,-1.7986704E-1,1.576594E-1,1.3516478E-1,1.1158624E0,2.2478426E-2,-1.5157115E-1],"split_indices":[386,272,497,254,269,40,229,350,93,228,188,320,353,449,111,0,0,0,0,0,0,0,0,0,0,0,0,0,0,0,0],"split_type":[0,0,0,0,0,0,0,0,0,0,0,0,0,0,0,0,0,0,0,0,0,0,0,0,0,0,0,0,0,0,0],"sum_hessian":[1.03192E4,9.67211E3,6.470901E2,7.068099E2,8.965301E3,3.2452856E2,3.2256155E2,5.98227E2,1.0858285E2,7.4521904E3,1.5131099E3,7.637351E1,2.4815504E2,2.069843E1,3.0186313E2,3.2170892E2,2.765181E2,1.0587443E2,2.7084212E0,2.6024314E3,4.8497593E3,2.4329036E2,1.2698196E3,7.16748E1,4.6987166E0,2.3588008E2,1.2274949E1,1.7526937E1,3.1714923E0,2.0839662E2,9.346649E1],"tree_param":{"num_deleted":"0","num_feature":"536","num_nodes":"31","size_leaf_vector":"0"}},{"base_weights":[-1.1620551E-3,-9.753279E-2,3.204764E-2,-1.5740567E-1,1.3837707E-1,1.3811257E-1,-2.2302354E-2,2.781475E-1,-1.8143816E-1,-3.7565088E-1,2.956985E-1,2.7314678E-3,2.3533611E-1,-5.374338E-2,1.5395088E-1,-2.2267625E-2,3.2995468E-1,1.4609584E-1,-5.8945958E-2,-1.6834835E-2,-2.2976317E-1,-2.71941E-2,1.4379223E-1,1.173843E-1,-1.900125E-2,8.577976E-2,-5.3089518E-2,-4.9750812E-2,4.769679E-3,-6.3217105E-4,1.16983615E-1],"categories":[],"categories_nodes":[],"categories_segments":[],"categories_sizes":[],"default_left":[0,0,0,0,0,0,0,0,0,0,0,0,0,0,0,0,0,0,0,0,0,0,0,0,0,0,0,0,0,0,0],"id":39,"left_children":[1,3,5,7,9,11,13,15,17,19,21,23,25,27,29,-1,-1,-1,-1,-1,-1,-1,-1,-1,-1,-1,-1,-1,-1,-1,-1],"loss_changes":[3.302155E1,3.737162E1,4.423807E1,2.2131618E1,4.343981E1,3.4221104E1,2.8129173E1,3.2135635E1,2.0211113E1,1.56677475E1,2.9184216E1,2.794853E1,3.1618317E1,3.3625378E1,2.8301846E1,0E0,0E0,0E0,0E0,0E0,0E0,0E0,0E0,0E0,0E0,0E0,0E0,0E0,0E0,0E0,0E0],"parents":[2147483647,0,0,1,1,2,2,3,3,4,4,5,5,6,6,7,7,8,8,9,9,10,10,11,11,12,12,13,13,14,14],"right_children":[2,4,6,8,10,12,14,16,18,20,22,24,26,28,30,-1,-1,-1,-1,-1,-1,-1,-1,-1,-1,-1,-1,-1,-1,-1,-1],"split_conditions":[-1.6820379E-1,5.0449306E-1,-1.101177E-1,-6.675071E-1,-3.2927978E-1,-2.022407E-1,1.2633689E-1,1.9303192E-1,-5.2511495E-1,-2.1037482E-2,4.468885E-2,-2.775341E-1,3.89E2,4.1949916E-1,2.0033537E-1,-2.2267625E-2,3.2995468E-1,1.4609584E-1,-5.8945958E-2,-1.6834835E-2,-2.2976317E-1,-2.71941E-2,1.4379223E-1,1.173843E-1,-1.900125E-2,8.577976E-2,-5.3089518E-2,-4.9750812E-2,4.769679E-3,-6.3217105E-4,1.16983615E-1],"split_indices":[352,94,96,211,355,11,152,458,243,447,445,347,533,535,388,0,0,0,0,0,0,0,0,0,0,0,0,0,0,0,0],"split_type":[0,0,0,0,0,0,0,0,0,0,0,0,0,0,0,0,0,0,0,0,0,0,0,0,0,0,0,0,0,0,0],"sum_hessian":[1.0315831E4,2.6433103E3,7.6725205E3,2.108512E3,5.347984E2,2.5989956E3,5.073525E3,1.097046E2,1.9988073E3,1.2499738E2,4.09801E2,1.0867518E3,1.5122438E3,4.306078E3,7.674469E2,7.7415794E1,3.22888E1,4.3318207E1,1.9554891E3,6.935236E1,5.564502E1,1.3217912E2,2.776219E2,1.5722052E2,9.295313E2,1.3472229E3,1.6502083E2,1.6495946E3,2.6564834E3,4.6255814E2,3.0488876E2],"tree_param":{"num_deleted":"0","num_feature":"536","num_nodes":"31","size_leaf_vector":"0"}},{"base_weights":[-1.8503248E-4,-3.7354335E-2,8.454843E-2,-8.457656E-2,8.252246E-2,-6.42905E-2,1.8280621E-1,-2.1519835E-1,-4.1525554E-2,2.4328695E-3,3.041886E-1,1.25368675E-2,-4.3955168E-1,-3.5560284E-2,2.5433767E-1,-2.924814E-2,-1.1605381E-1,-1.1294079E-1,-7.028301E-3,-3.6313385E-2,4.092724E-2,7.316049E-2,4.0387997E-1,-4.026377E-2,7.088906E-2,-1.7777586E-1,1.9490356E-2,2.2311267E-2,-1.23965226E-1,5.1709555E-2,1.5242068E-1],"categories":[],"categories_nodes":[],"categories_segments":[],"categories_sizes":[],"default_left":[0,0,0,0,0,0,0,0,0,0,0,0,0,0,0,0,0,0,0,0,0,0,0,0,0,0,0,0,0,0,0],"id":40,"left_children":[1,3,5,7,9,11,13,15,17,19,21,23,25,27,29,-1,-1,-1,-1,-1,-1,-1,-1,-1,-1,-1,-1,-1,-1,-1,-1],"loss_changes":[3.232305E1,4.0389713E1,4.5776108E1,2.8772747E1,3.5798286E1,3.590197E1,2.9455746E1,2.5590492E1,2.3333313E1,2.454096E1,3.3313038E1,3.400045E1,1.6377243E1,1.937901E1,2.9449944E1,0E0,0E0,0E0,0E0,0E0,0E0,0E0,0E0,0E0,0E0,0E0,0E0,0E0,0E0,0E0,0E0],"parents":[2147483647,0,0,1,1,2,2,3,3,4,4,5,5,6,6,7,7,8,8,9,9,10,10,11,11,12,12,13,13,14,14],"right_children":[2,4,6,8,10,12,14,16,18,20,22,24,26,28,30,-1,-1,-1,-1,-1,-1,-1,-1,-1,-1,-1,-1,-1,-1,-1,-1],"split_conditions":[1.5771574E-1,1.7888905E-1,-1.9283454E-1,-1.9345228E-1,1.06125865E-2,2.4346521E-1,-1.4489305E-1,3.6436386E-2,-6.720925E-1,1.2220274E-1,6.216881E-1,-8.9466855E-2,3.203073E-1,8.8528246E-2,3.1782952E-1,-2.924814E-2,-1.1605381E-1,-1.1294079E-1,-7.028301E-3,-3.6313385E-2,4.092724E-2,7.316049E-2,4.0387997E-1,-4.026377E-2,7.088906E-2,-1.7777586E-1,1.9490356E-2,2.2311267E-2,-1.23965226E-1,5.1709555E-2,1.5242068E-1],"split_indices":[437,154,462,310,152,120,91,72,470,264,10,270,402,7,440,0,0,0,0,0,0,0,0,0,0,0,0,0,0,0,0],"split_type":[0,0,0,0,0,0,0,0,0,0,0,0,0,0,0,0,0,0,0,0,0,0,0,0,0,0,0,0,0,0,0],"sum_hessian":[1.0260965E4,7.132689E3,3.1282764E3,5.1172E3,2.0154885E3,1.2440936E3,1.8841827E3,1.2674897E3,3.8497104E3,1.4812963E3,5.341922E2,1.0334762E3,2.106174E2,4.6504068E2,1.4191421E3,7.528223E2,5.146675E2,1.9633163E2,3.653379E3,7.7094293E2,7.103534E2,5.0612912E2,2.8063074E1,6.243841E2,4.0909213E2,1.6146587E2,4.915154E1,3.6081506E2,1.0422559E2,1.0738837E3,3.452584E2],"tree_param":{"num_deleted":"0","num_feature":"536","num_nodes":"31","size_leaf_vector":"0"}},{"base_weights":[5.5341017E-3,-1.3824359E-1,2.760106E-2,1.9497393E0,-1.4686821E-1,9.194933E-2,-3.1141197E-2,-2.500487E-1,9.887376E-1,-5.9042895E-1,-1.10358715E-1,4.3544818E-2,2.4532624E-1,-3.822743E-1,-1.336868E-2,3.2043526E-1,-2.0065674E-1,-1.0180762E-1,-7.710822E-3,5.268027E-2,-7.4621835E-3,6.603357E-1,6.924703E-2,-1.5807337E-1,8.09407E-2,-8.198272E-3,1.2252771E-1],"categories":[],"categories_nodes":[],"categories_segments":[],"categories_sizes":[],"default_left":[0,0,0,0,0,0,0,0,0,0,0,0,0,0,0,0,0,0,0,0,0,0,0,0,0,0,0],"id":41,"left_children":[1,3,5,7,9,11,13,-1,-1,15,17,19,21,23,25,-1,-1,-1,-1,-1,-1,-1,-1,-1,-1,-1,-1],"loss_changes":[3.2666103E1,2.4956625E1,3.3741753E1,2.4122063E1,2.2043945E1,3.161507E1,2.9118534E1,0E0,0E0,1.41898575E1,2.4469322E1,2.9270845E1,2.8470936E1,2.134365E1,2.6170975E1,0E0,0E0,0E0,0E0,0E0,0E0,0E0,0E0,0E0,0E0,0E0,0E0],"parents":[2147483647,0,0,1,1,2,2,3,3,4,4,5,5,6,6,9,9,10,10,11,11,12,12,13,13,14,14],"right_children":[2,4,6,8,10,12,14,-1,-1,16,18,20,22,24,26,-1,-1,-1,-1,-1,-1,-1,-1,-1,-1,-1,-1],"split_conditions":[-6.5001136E-1,-1.0663623E0,-1.7695263E-1,1.0636126E-1,-3.0930668E-1,3.944658E-1,-6.46824E-1,-2.500487E-1,9.887376E-1,-1.1542808E0,-2.128829E-1,-2.0600754E-1,-7.7755386E-1,4.4238478E-1,5.561608E-1,3.2043526E-1,-2.0065674E-1,-1.0180762E-1,-7.710822E-3,5.268027E-2,-7.4621835E-3,6.603357E-1,6.924703E-2,-1.5807337E-1,8.09407E-2,-8.198272E-3,1.2252771E-1],"split_indices":[152,124,126,289,335,202,161,0,0,414,36,40,142,95,277,0,0,0,0,0,0,0,0,0,0,0,0],"split_type":[0,0,0,0,0,0,0,0,0,0,0,0,0,0,0,0,0,0,0,0,0,0,0,0,0,0,0],"sum_hessian":[1.0293675E4,1.3689553E3,8.92472E3,4.705516E0,1.3642498E3,4.258857E3,4.665863E3,1.658017E0,3.047499E0,1.0259783E2,1.261652E3,3.238193E3,1.02066376E3,2.2379605E2,4.4420664E3,4.0626597E0,9.853517E1,3.3970874E2,9.2194324E2,1.1046074E3,2.1335857E3,6.403046E0,1.0142607E3,1.833248E2,4.0471256E1,4.300675E3,1.4139165E2],"tree_param":{"num_deleted":"0","num_feature":"536","num_nodes":"27","size_leaf_vector":"0"}},{"base_weights":[-5.963434E-3,3.3058487E-2,-1.0368447E-1,-3.722283E-1,4.2767573E-2,-5.374062E-2,-3.4959745E-1,6.290671E-1,-4.630933E-1,1.4152756E-1,3.0331053E-3,1.4174506E-1,-1.2511487E-1,-4.7540012E-1,4.5755807E-2,4.687084E-1,-7.103392E-2,-1.6232385E-1,2.9862913E-1,1.6116937E-1,2.9582772E-2,4.823198E-3,-1.4466114E-1,-7.3983045E-3,1.5640755E-1,-1.4863811E-2,-1.0744709E-1,-1.8378474E-1,-1.4495192E-2,1.70764E-1,-9.130384E-2],"categories":[],"categories_nodes":[],"categories_segments":[],"categories_sizes":[],"default_left":[0,0,0,0,0,0,0,0,0,0,0,0,0,0,0,0,0,0,0,0,0,0,0,0,0,0,0,0,0,0,0],"id":42,"left_children":[1,3,5,7,9,11,13,15,17,19,21,23,25,27,29,-1,-1,-1,-1,-1,-1,-1,-1,-1,-1,-1,-1,-1,-1,-1,-1],"loss_changes":[3.918921E1,2.8916107E1,3.6000473E1,1.5934093E1,2.814975E1,3.4045864E1,2.4636051E1,1.2271698E1,1.8533352E1,3.4899334E1,3.239247E1,4.1247536E1,3.145389E1,2.1976707E1,2.223367E1,0E0,0E0,0E0,0E0,0E0,0E0,0E0,0E0,0E0,0E0,0E0,0E0,0E0,0E0,0E0,0E0],"parents":[2147483647,0,0,1,1,2,2,3,3,4,4,5,5,6,6,7,7,8,8,9,9,10,10,11,11,12,12,13,13,14,14],"right_children":[2,4,6,8,10,12,14,16,18,20,22,24,26,28,30,-1,-1,-1,-1,-1,-1,-1,-1,-1,-1,-1,-1,-1,-1,-1,-1],"split_conditions":[2.4180834E-1,-6.102665E-1,4.019117E-1,-5.117471E-1,-3.4624493E-1,-3.216537E-1,3.895737E-1,-1.742868E-1,8.769814E-1,-3.4343502E-1,5.821931E-1,1.5519342E-1,2.1935432E-1,4.1258088E-1,1.6018675E-1,4.687084E-1,-7.103392E-2,-1.6232385E-1,2.9862913E-1,1.6116937E-1,2.9582772E-2,4.823198E-3,-1.4466114E-1,-7.3983045E-3,1.5640755E-1,-1.4863811E-2,-1.0744709E-1,-1.8378474E-1,-1.4495192E-2,1.70764E-1,-9.130384E-2],"split_indices":[82,68,465,181,107,439,202,259,216,498,174,293,72,204,43,0,0,0,0,0,0,0,0,0,0,0,0,0,0,0,0],"split_type":[0,0,0,0,0,0,0,0,0,0,0,0,0,0,0,0,0,0,0,0,0,0,0,0,0,0,0,0,0,0,0],"sum_hessian":[1.0275183E4,7.3434585E3,2.9317246E3,1.7093126E2,7.172527E3,2.4378303E3,4.9389417E2,1.3728269E1,1.5720299E2,2.0570842E3,5.115443E3,6.5175745E2,1.786073E3,3.7451868E2,1.19375496E2,6.21967E0,7.5085983E0,1.4982118E2,7.3818026E0,2.0015479E2,1.8569294E3,4.98247E3,1.3297275E2,4.5377655E2,1.9798091E2,1.3496371E3,4.3643585E2,2.8312137E2,9.139731E1,4.7592045E1,7.1783455E1],"tree_param":{"num_deleted":"0","num_feature":"536","num_nodes":"31","size_leaf_vector":"0"}},{"base_weights":[-3.5679666E-3,5.269738E-1,-8.571855E-3,-5.843655E-1,7.307517E-1,-1.9883005E-1,6.103784E-3,-8.9943355E-1,4.0252855E-1,8.452162E-1,-1.0246218E0,-3.250222E-1,1.6951682E-1,-2.3197348E-1,1.7986253E-2,2.1847251E-1,-4.0661818E-1,4.8002053E-2,3.5464042E-1,-3.5640255E-1,-4.9909677E-2,-1.0860529E-1,2.6919907E-1,-2.8509697E-2,2.523526E-1,1.5469727E-1,-9.129701E-2,-9.997216E-3,2.1091122E-2],"categories":[],"categories_nodes":[],"categories_segments":[],"categories_sizes":[],"default_left":[0,0,0,0,0,0,0,0,0,0,0,0,0,0,0,0,0,0,0,0,0,0,0,0,0,0,0,0,0],"id":43,"left_children":[1,3,5,7,9,11,13,15,-1,17,19,21,23,25,27,-1,-1,-1,-1,-1,-1,-1,-1,-1,-1,-1,-1,-1,-1],"loss_changes":[2.7160864E1,2.2075722E1,2.8298826E1,1.0533002E1,1.7186512E1,3.3791588E1,2.66242E1,1.123336E1,0E0,1.7541145E1,5.629997E-1,2.4786556E1,3.310439E1,2.435693E1,2.4064148E1,0E0,0E0,0E0,0E0,0E0,0E0,0E0,0E0,0E0,0E0,0E0,0E0,0E0,0E0],"parents":[2147483647,0,0,1,1,2,2,3,3,4,4,5,5,6,6,7,7,9,9,10,10,11,11,12,12,13,13,14,14],"right_children":[2,4,6,8,10,12,14,16,-1,18,20,22,24,26,28,-1,-1,-1,-1,-1,-1,-1,-1,-1,-1,-1,-1,-1,-1],"split_conditions":[-9.718485E-1,-2.1447723E-1,-2.9078916E-1,6.81966E-1,5.545461E-1,2.2989245E-1,-8.116597E-1,-2.7422443E-1,4.0252855E-1,-7.648237E-2,5.1540047E-1,7.5821215E-1,1.7543864E-1,-4.5127326E-1,1.2773876E-1,2.1847251E-1,-4.0661818E-1,4.8002053E-2,3.5464042E-1,-3.5640255E-1,-4.9909677E-2,-1.0860529E-1,2.6919907E-1,-2.8509697E-2,2.523526E-1,1.5469727E-1,-9.129701E-2,-9.997216E-3,2.1091122E-2],"split_indices":[238,473,108,115,289,496,432,50,0,35,106,179,165,394,68,0,0,0,0,0,0,0,0,0,0,0,0,0,0],"split_type":[0,0,0,0,0,0,0,0,0,0,0,0,0,0,0,0,0,0,0,0,0,0,0,0,0,0,0,0,0],"sum_hessian":[1.0228259E4,9.4593414E1,1.0133666E4,1.4367889E1,8.0225525E1,7.247893E2,9.408876E3,1.2806147E1,1.5617421E0,7.580117E1,4.424352E0,5.399315E2,1.8485779E2,4.4639423E2,8.962482E3,2.671683E0,1.0134463E1,2.5472097E1,5.0329075E1,3.3940196E0,1.0303323E0,5.247533E2,1.5178223E1,1.3323746E2,5.162033E1,3.8846336E1,4.075479E2,4.5249785E3,4.4375034E3],"tree_param":{"num_deleted":"0","num_feature":"536","num_nodes":"29","size_leaf_vector":"0"}},{"base_weights":[-1.0392264E-2,-1.9499522E-1,3.504787E-3,8.622682E-2,-3.389184E-1,6.7902274E-2,-4.0886242E-2,-3.0974308E-1,3.7426695E-1,-9.037325E-2,-5.070096E-1,1.1750713E-1,-8.875165E-2,-1.0490339E-2,-2.1322277E-1,5.0115097E-1,-1.24764316E-1,1.8982638E-1,-1.4315356E-1,1.9400436E-2,-2.2710897E-1,-1.7259423E-1,5.28853E-2,4.3151714E-2,-6.9406934E-2,1.8765305E-1,-3.8195558E-2,8.797442E-3,-4.897511E-2,3.38185E-3,-1.1931756E-1],"categories":[],"categories_nodes":[],"categories_segments":[],"categories_sizes":[],"default_left":[0,0,0,0,0,0,0,0,0,0,0,0,0,0,0,0,0,0,0,0,0,0,0,0,0,0,0,0,0,0,0],"id":44,"left_children":[1,3,5,7,9,11,13,15,17,19,21,23,25,27,29,-1,-1,-1,-1,-1,-1,-1,-1,-1,-1,-1,-1,-1,-1,-1,-1],"loss_changes":[2.6094408E1,2.8851469E1,2.7046227E1,2.7702015E1,1.9641972E1,3.0010199E1,2.9335365E1,2.2216717E1,3.1217241E1,1.982572E1,1.3211838E1,2.6972374E1,2.5671522E1,