{"learner":{"attributes":{"best_iteration":"199","best_ntree_limit":"200","scikit_learn":"{\"use_label_encoder\": false, \"n_estimators\": 200, \"objective\": \"binary:logistic\", \"max_depth\": 4, \"max_leaves\": null, \"max_bin\": null, \"grow_policy\": null, \"learning_rate\": 0.3, \"verbosity\": null, \"booster\": null, \"tree_method\": \"gpu_hist\", \"gamma\": null, \"min_child_weight\": null, \"max_delta_step\": null, \"subsample\": 0.5, \"sampling_method\": null, \"colsample_bytree\": 1, \"colsample_bylevel\": null, \"colsample_bynode\": null, \"reg_alpha\": null, \"reg_lambda\": null, \"scale_pos_weight\": null, \"base_score\": null, \"missing\": NaN, \"num_parallel_tree\": null, \"random_state\": null, \"n_jobs\": null, \"monotone_constraints\": null, \"interaction_constraints\": null, \"importance_type\": null, \"gpu_id\": 0, \"validate_parameters\": null, \"predictor\": null, \"enable_categorical\": false, \"max_cat_to_onehot\": null, \"eval_metric\": null, \"early_stopping_rounds\": null, \"callbacks\": null, \"kwargs\": {\"seed\": 144}, \"classes_\": [0, 1], \"n_classes_\": 2, \"_estimator_type\": \"classifier\"}"},"feature_names":[],"feature_types":[],"gradient_booster":{"model":{"gbtree_model_param":{"num_parallel_tree":"1","num_trees":"200","size_leaf_vector":"0"},"tree_info":[0,0,0,0,0,0,0,0,0,0,0,0,0,0,0,0,0,0,0,0,0,0,0,0,0,0,0,0,0,0,0,0,0,0,0,0,0,0,0,0,0,0,0,0,0,0,0,0,0,0,0,0,0,0,0,0,0,0,0,0,0,0,0,0,0,0,0,0,0,0,0,0,0,0,0,0,0,0,0,0,0,0,0,0,0,0,0,0,0,0,0,0,0,0,0,0,0,0,0,0,0,0,0,0,0,0,0,0,0,0,0,0,0,0,0,0,0,0,0,0,0,0,0,0,0,0,0,0,0,0,0,0,0,0,0,0,0,0,0,0,0,0,0,0,0,0,0,0,0,0,0,0,0,0,0,0,0,0,0,0,0,0,0,0,0,0,0,0,0,0,0,0,0,0,0,0,0,0,0,0,0,0,0,0,0,0,0,0,0,0,0,0,0,0,0,0,0,0,0,0],"trees":[{"base_weights":[-1.126478E0,-1.681245E0,-8.3376133E-1,-1.8715686E0,-1.4240749E0,-4.9889418E-1,-1.2305782E0,-1.9507065E0,-1.7204819E0,-1.186542E0,-1.661475E0,-2.0726073E-1,-6.5763766E-1,-1.1067683E0,-1.4501086E0,-1.20000005E-1,-5.854577E-1,5.8064517E-2,-5.193216E-1,-1.1896552E-1,-3.6641937E-1,-5.034352E-1,-5.6250002E-2,-1.20442905E-1,5.264406E-3,-1.585315E-1,-2.439334E-1,-2.7132204E-1,-3.765146E-1,-4.889276E-1,-3.7775448E-1],"categories":[],"categories_nodes":[],"categories_segments":[],"categories_sizes":[],"default_left":[0,0,0,0,0,0,0,0,0,0,0,0,0,0,1,0,0,0,0,0,0,0,0,0,0,0,0,0,0,0,0],"id":0,"left_children":[1,3,5,7,9,11,13,15,17,19,21,23,25,27,29,-1,-1,-1,-1,-1,-1,-1,-1,-1,-1,-1,-1,-1,-1,-1,-1],"loss_changes":[2.9445898E3,3.0397656E2,1.5776787E3,3.9655273E1,1.4852002E2,2.9815332E2,1.4612598E2,2.2089844E0,2.5571045E1,3.634485E1,3.2365967E1,9.9227486E1,8.336865E1,1.03271484E2,6.506445E1,0E0,0E0,0E0,0E0,0E0,0E0,0E0,0E0,0E0,0E0,0E0,0E0,0E0,0E0,0E0,0E0],"parents":[2147483647,0,0,1,1,2,2,3,3,4,4,5,5,6,6,7,7,8,8,9,9,10,10,11,11,12,12,13,13,14,14],"right_children":[2,4,6,8,10,12,14,16,18,20,22,24,26,28,30,-1,-1,-1,-1,-1,-1,-1,-1,-1,-1,-1,-1,-1,-1,-1,-1],"split_conditions":[1.7595108E-1,5.026278E-2,2.46E2,1.5008614E-2,2.73E2,1.2E2,3.9E2,-2.8609008E-1,-1.0111859E0,-6.451452E-1,1.20537E0,1.9704267E-1,-3.987879E-2,-1.14373095E-1,4.381279E-1,-1.20000005E-1,-5.854577E-1,5.8064517E-2,-5.193216E-1,-1.1896552E-1,-3.6641937E-1,-5.034352E-1,-5.6250002E-2,-1.20442905E-1,5.264406E-3,-1.585315E-1,-2.439334E-1,-2.7132204E-1,-3.765146E-1,-4.889276E-1,-3.7775448E-1],"split_indices":[535,535,533,535,533,533,533,120,347,290,216,157,389,510,535,0,0,0,0,0,0,0,0,0,0,0,0,0,0,0,0],"split_type":[0,0,0,0,0,0,0,0,0,0,0,0,0,0,0,0,0,0,0,0,0,0,0,0,0,0,0,0,0,0,0],"sum_hessian":[1.81405E4,6.264E3,1.18765E4,3.59625E3,2.66775E3,6.44225E3,5.43425E3,2.35225E3,1.244E3,1.3365E3,1.33125E3,2.2715E3,4.17075E3,3.4785E3,1.95575E3,1.5E0,2.35075E3,6.75E0,1.23725E3,5.7E1,1.2795E3,1.31625E3,1.5E1,1.21825E3,1.05325E3,2.28025E3,1.8905E3,1.474E3,2.0045E3,1.00375E3,9.52E2],"tree_param":{"num_deleted":"0","num_feature":"536","num_nodes":"31","size_leaf_vector":"0"}},{"base_weights":[-8.225192E-1,-1.3139651E0,-6.269267E-1,-1.4607167E0,-1.0954942E0,-3.861311E-1,-9.089264E-1,-1.5330459E0,-1.3910195E0,-8.6562157E-1,-1.2831402E0,-5.195559E-1,-2.0135614E-1,-1.0449817E0,-7.683866E-1,-4.6031192E-1,-2.388526E-1,-3.7666193E-1,-4.4503787E-1,-1.2545973E-1,-2.831658E-1,-3.9683682E-1,-2.3696841E-1,-1.1001272E-1,-1.9153264E-1,-3.0061772E-2,-1.5179592E-1,-2.84098E-1,-3.677507E-1,-3.1406817E-1,-1.9809487E-1],"categories":[],"categories_nodes":[],"categories_segments":[],"categories_sizes":[],"default_left":[0,0,0,0,0,0,0,0,0,0,0,0,0,0,0,0,0,0,0,0,0,0,0,0,0,0,0,0,0,0,0],"id":1,"left_children":[1,3,5,7,9,11,13,15,17,19,21,23,25,27,29,-1,-1,-1,-1,-1,-1,-1,-1,-1,-1,-1,-1,-1,-1,-1,-1],"loss_changes":[1.6742002E3,1.5742383E2,8.4619775E2,1.280957E1,8.5029785E1,1.6572559E2,1.08979004E2,1.9116211E-1,1.7176758E1,3.1141602E1,2.0417114E1,7.073096E1,8.690775E1,5.048755E1,8.442456E1,0E0,0E0,0E0,0E0,0E0,0E0,0E0,0E0,0E0,0E0,0E0,0E0,0E0,0E0,0E0,0E0],"parents":[2147483647,0,0,1,1,2,2,3,3,4,4,5,5,6,6,7,7,8,8,9,9,10,10,11,11,12,12,13,13,14,14],"right_children":[2,4,6,8,10,12,14,16,18,20,22,24,26,28,30,-1,-1,-1,-1,-1,-1,-1,-1,-1,-1,-1,-1,-1,-1,-1,-1],"split_conditions":[1.2976494E-1,3.8262468E-2,2.42E2,3.6785079E-3,2.5E2,5.310299E-1,1.2439932E-1,1.3855934E0,2.6E2,-4.291121E-1,7.678962E-1,-1.0509571E-1,5.1968527E-1,3.94E2,-1.7422788E-2,-4.6031192E-1,-2.388526E-1,-3.7666193E-1,-4.4503787E-1,-1.2545973E-1,-2.831658E-1,-3.9683682E-1,-2.3696841E-1,-1.1001272E-1,-1.9153264E-1,-3.0061772E-2,-1.5179592E-1,-2.84098E-1,-3.677507E-1,-3.1406817E-1,-1.9809487E-1],"split_indices":[535,535,533,535,533,535,359,19,533,386,94,386,19,533,341,0,0,0,0,0,0,0,0,0,0,0,0,0,0,0,0],"split_type":[0,0,0,0,0,0,0,0,0,0,0,0,0,0,0,0,0,0,0,0,0,0,0,0,0,0,0,0,0,0,0],"sum_hessian":[1.742482E4,4.959032E3,1.2465787E4,2.9630203E3,1.9960116E3,6.7254175E3,5.74037E3,1.4437523E3,1.5192681E3,8.995931E2,1.0964186E3,3.9043206E3,2.8210967E3,2.9134502E3,2.82692E3,1.4400764E3,3.67591E0,6.221008E2,8.971672E2,1.3487605E2,7.6471704E2,1.01328485E3,8.31337E1,1.70997E3,2.1943506E3,2.1188704E3,7.022264E2,1.8936748E3,1.01977545E3,7.8785583E2,2.0390641E3],"tree_param":{"num_deleted":"0","num_feature":"536","num_nodes":"31","size_leaf_vector":"0"}},{"base_weights":[-6.247761E-1,-1.116783E0,-4.6198893E-1,-1.2670361E0,-9.383176E-1,-2.8317887E-1,-7.142183E-1,-1.310452E0,-1.1475964E0,-7.372681E-1,-1.0922482E0,-9.712293E-2,-4.0042382E-1,-7.807632E-1,-3.1662107E-1,-3.9435616E-1,-1.9769786E-1,-3.4940737E-1,2.0669997E-2,1.2642007E-1,-2.3343082E-1,1.7963472E-1,-3.317778E-1,-1.0705631E-1,1.6746717E-2,-8.0926254E-2,-1.6155146E-1,-2.0108292E-1,-2.9039377E-1,-1.3415532E-1,8.199047E-2],"categories":[],"categories_nodes":[],"categories_segments":[],"categories_sizes":[],"default_left":[0,0,0,0,0,0,1,0,0,0,0,0,0,0,0,0,0,0,0,0,0,0,0,0,0,0,0,0,0,0,0],"id":2,"left_children":[1,3,5,7,9,11,13,15,17,19,21,23,25,27,29,-1,-1,-1,-1,-1,-1,-1,-1,-1,-1,-1,-1,-1,-1,-1,-1],"loss_changes":[1.3115698E3,1.0800244E2,5.550432E2,9.945557E0,5.6916138E1,1.5714697E2,1.3485889E2,3.4069824E0,1.248822E1,3.8739807E1,2.5047241E1,1.1072381E2,7.960327E1,8.981885E1,5.664102E1,0E0,0E0,0E0,0E0,0E0,0E0,0E0,0E0,0E0,0E0,0E0,0E0,0E0,0E0,0E0,0E0],"parents":[2147483647,0,0,1,1,2,2,3,3,4,4,5,5,6,6,7,7,8,8,9,9,10,10,11,11,12,12,13,13,14,14],"right_children":[2,4,6,8,10,12,14,16,18,20,22,24,26,28,30,-1,-1,-1,-1,-1,-1,-1,-1,-1,-1,-1,-1,-1,-1,-1,-1],"split_conditions":[1.1264698E-1,2.6040014E-2,2.73E2,9.892247E-3,2.38E2,1.3E2,6.982783E-1,9.43011E-1,9.104155E-1,7.2E1,-7.4657637E-1,-9.551704E-2,-9.481489E-2,3.94E2,4.4559044E-1,-3.9435616E-1,-1.9769786E-1,-3.4940737E-1,2.0669997E-2,1.2642007E-1,-2.3343082E-1,1.7963472E-1,-3.317778E-1,-1.0705631E-1,1.6746717E-2,-8.0926254E-2,-1.6155146E-1,-2.0108292E-1,-2.9039377E-1,-1.3415532E-1,8.199047E-2],"split_indices":[535,535,533,535,533,533,535,373,440,533,399,80,390,533,157,0,0,0,0,0,0,0,0,0,0,0,0,0,0,0,0],"split_type":[0,0,0,0,0,0,0,0,0,0,0,0,0,0,0,0,0,0,0,0,0,0,0,0,0,0,0,0,0,0,0],"sum_hessian":[1.6381142E4,4.0710288E3,1.2310112E4,2.206902E3,1.8641268E3,7.204695E3,5.105418E3,1.6112479E3,5.956541E2,8.108549E2,1.053272E3,2.7857766E3,4.4189185E3,4.3726196E3,7.3279846E2,1.6002362E3,1.1011778E1,5.874416E2,8.212464E0,2.7286612E1,7.835683E2,8.107815E0,1.0451641E3,1.0319641E3,1.7538125E3,2.271907E3,2.1470112E3,2.7526833E3,1.619936E3,6.00202E2,1.3259642E2],"tree_param":{"num_deleted":"0","num_feature":"536","num_nodes":"31","size_leaf_vector":"0"}},{"base_weights":[-4.844655E-1,-1.0221897E0,-3.5770473E-1,-1.1779398E0,-8.811052E-1,-1.5097229E-1,-5.23152E-1,-1.022075E0,-1.1927507E0,-6.844432E-1,-9.831548E-1,-4.6482522E-2,-3.4843758E-1,-3.416339E-1,-6.165602E-1,-3.2645822E-1,2.4923186E-1,-6.496209E-2,-3.5826838E-1,2.795552E-1,-2.1557666E-1,-3.0622664E-1,-1.776856E-1,-8.671378E-2,1.5137601E-2,1.2689351E-2,-1.3041776E-1,-4.1391253E-2,-1.5473762E-1,-2.1023451E-1,-1.2775458E-1],"categories":[],"categories_nodes":[],"categories_segments":[],"categories_sizes":[],"default_left":[0,0,0,0,0,0,0,0,0,0,0,0,0,0,1,0,0,0,0,0,0,0,0,0,0,0,0,0,0,0,0],"id":3,"left_children":[1,3,5,7,9,11,13,15,17,19,21,23,25,27,29,-1,-1,-1,-1,-1,-1,-1,-1,-1,-1,-1,-1,-1,-1,-1,-1],"loss_changes":[1.0401853E3,6.2942383E1,4.2250757E2,1.96875E0,3.0067505E1,1.1333601E2,1.161438E2,1.6440796E1,1.5513916E0,2.9731049E1,1.4182617E1,8.452048E1,6.410928E1,8.2707855E1,7.245642E1,0E0,0E0,0E0,0E0,0E0,0E0,0E0,0E0,0E0,0E0,0E0,0E0,0E0,0E0,0E0,0E0],"parents":[2147483647,0,0,1,1,2,2,3,3,4,4,5,5,6,6,7,7,8,8,9,9,10,10,11,11,12,12,13,13,14,14],"right_children":[2,4,6,8,10,12,14,16,18,20,22,24,26,28,30,-1,-1,-1,-1,-1,-1,-1,-1,-1,-1,-1,-1,-1,-1,-1,-1],"split_conditions":[8.1095934E-2,1.22753475E-2,2.06E2,1.27E2,2.13E2,1.0004022E-1,-2.0105414E-1,7.9187626E-1,-1.5671004E-1,-9.191076E-1,5.636238E-1,-7.490301E-2,9.5E1,2.196638E-2,5.310299E-1,-3.2645822E-1,2.4923186E-1,-6.496209E-2,-3.5826838E-1,2.795552E-1,-2.1557666E-1,-3.0622664E-1,-1.776856E-1,-8.671378E-2,1.5137601E-2,1.2689351E-2,-1.3041776E-1,-4.1391253E-2,-1.5473762E-1,-2.1023451E-1,-1.2775458E-1],"split_indices":[535,535,533,533,533,386,510,349,252,238,422,388,533,55,535,0,0,0,0,0,0,0,0,0,0,0,0,0,0,0,0],"split_type":[0,0,0,0,0,0,0,0,0,0,0,0,0,0,0,0,0,0,0,0,0,0,0,0,0,0,0,0,0,0,0],"sum_hessian":[1.526478E4,2.9106448E3,1.2354135E4,1.3799268E3,1.530718E3,5.492707E3,6.861428E3,1.2582208E2,1.2541047E3,5.2557587E2,1.0051422E3,3.592796E3,1.8999109E3,2.3328032E3,4.528625E3,1.2188529E2,3.9367895E0,2.1178856E0,1.2519868E3,1.0329637E1,5.152462E2,9.1546533E2,8.96769E1,1.025311E3,2.5674849E3,3.4376498E2,1.556146E3,1.0761409E3,1.2566622E3,3.1394968E3,1.3891283E3],"tree_param":{"num_deleted":"0","num_feature":"536","num_nodes":"31","size_leaf_vector":"0"}},{"base_weights":[-3.727029E-1,-7.7136457E-1,-2.2987953E-1,-1.0353895E0,-5.9770894E-1,-1.2186547E-1,-4.631573E-1,-1.1279423E0,-9.412525E-1,-5.116958E-1,-9.802952E-1,-3.9577532E-1,-6.4134926E-2,-7.2407085E-1,-3.547682E-1,2.5877722E-2,-3.391416E-1,5.3024326E-2,-2.8888232E-1,9.081047E-2,-1.6274343E-1,-2.953231E-2,-3.1625256E-1,-1.5093923E-1,-1.9823832E-2,3.273193E-2,-4.746696E-2,-1.450147E-1,-2.522932E-1,-7.673893E-2,-2.209428E-1],"categories":[],"categories_nodes":[],"categories_segments":[],"categories_sizes":[],"default_left":[0,0,0,0,0,0,0,0,0,0,0,0,0,0,0,0,0,0,0,0,0,0,0,0,0,0,0,0,0,0,0],"id":4,"left_children":[1,3,5,7,9,11,13,15,17,19,21,23,25,27,29,-1,-1,-1,-1,-1,-1,-1,-1,-1,-1,-1,-1,-1,-1,-1,-1],"loss_changes":[8.083845E2,1.7109595E2,2.634192E2,1.1873047E1,7.3921814E1,1.1301407E2,9.332178E1,2.3812866E0,1.8162903E1,4.650592E1,2.6871002E1,4.4004486E1,9.6274155E1,2.6893402E1,8.820401E1,0E0,0E0,0E0,0E0,0E0,0E0,0E0,0E0,0E0,0E0,0E0,0E0,0E0,0E0,0E0,0E0],"parents":[2147483647,0,0,1,1,2,2,3,3,4,4,5,5,6,6,7,7,8,8,9,9,10,10,11,11,12,12,13,13,14,14],"right_children":[2,4,6,8,10,12,14,16,18,20,22,24,26,28,30,-1,-1,-1,-1,-1,-1,-1,-1,-1,-1,-1,-1,-1,-1,-1,-1],"split_conditions":[1.685219E-1,2.7998766E-2,3.02E2,2.9822213E-3,3.9E2,-4.5544606E-1,-4.178705E-2,-1.1229336E0,-8.7138903E-1,-7.7523565E-1,-7.9612625E-1,3.0294865E-1,-1.6566838E-1,-2.1383855E-1,4.63E2,2.5877722E-2,-3.391416E-1,5.3024326E-2,-2.8888232E-1,9.081047E-2,-1.6274343E-1,-2.953231E-2,-3.1625256E-1,-1.5093923E-1,-1.9823832E-2,3.273193E-2,-4.746696E-2,-1.450147E-1,-2.522932E-1,-7.673893E-2,-2.209428E-1],"split_indices":[535,535,533,535,533,137,359,102,238,238,406,425,349,510,533,0,0,0,0,0,0,0,0,0,0,0,0,0,0,0,0],"split_type":[0,0,0,0,0,0,0,0,0,0,0,0,0,0,0,0,0,0,0,0,0,0,0,0,0,0,0,0,0,0,0],"sum_hessian":[1.4199697E4,3.744185E3,1.0455512E4,1.4835864E3,2.2605986E3,7.14753E3,3.307982E3,7.425501E2,7.410364E2,1.8475658E3,4.1303275E2,1.2431923E3,5.904338E3,9.6921466E2,2.338767E3,1.4749604E0,7.410752E2,1.3965992E1,7.270704E2,6.6968414E1,1.7805974E3,3.2108486E1,3.8092426E2,9.37423E2,3.057693E2,2.078011E3,3.8263267E3,3.1853833E2,6.5067633E2,1.8585421E3,4.802251E2],"tree_param":{"num_deleted":"0","num_feature":"536","num_nodes":"31","size_leaf_vector":"0"}},{"base_weights":[-2.83091E-1,-8.453504E-1,-2.0318112E-1,-1.0171782E0,-6.377268E-1,-3.5833028E-1,-9.525206E-2,1.2009344E0,-1.0234753E0,-4.172833E-1,-8.419352E-1,-2.8962836E-1,-7.552091E-1,4.1238282E-2,-2.0835067E-1,5.665305E-1,-2.3672214E-2,-2.0555463E-1,-3.155754E-1,1.5238397E-1,-1.6168255E-1,-2.6656723E-1,-5.7148356E-2,-3.3678677E-2,-1.1556618E-1,-4.7243748E-2,-2.4912305E-1,-1.3720682E-2,8.3806455E-2,-5.0780114E-2,-1.9811018E-1],"categories":[],"categories_nodes":[],"categories_segments":[],"categories_sizes":[],"default_left":[0,0,1,0,0,0,0,0,0,0,0,0,0,0,0,0,0,0,0,0,0,0,0,0,0,0,0,0,0,0,0],"id":5,"left_children":[1,3,5,7,9,11,13,15,17,19,21,23,25,27,29,-1,-1,-1,-1,-1,-1,-1,-1,-1,-1,-1,-1,-1,-1,-1,-1],"loss_changes":[6.0371594E2,5.9007935E1,1.9704584E2,1.3985657E1,3.3856934E1,1.3142566E2,1.0717624E2,2.8287673E0,8.047241E0,4.163012E1,1.178183E1,6.9764404E1,3.1865448E1,6.518013E1,6.696146E1,0E0,0E0,0E0,0E0,0E0,0E0,0E0,0E0,0E0,0E0,0E0,0E0,0E0,0E0,0E0,0E0],"parents":[2147483647,0,0,1,1,2,2,3,3,4,4,5,5,6,6,7,7,8,8,9,9,10,10,11,11,12,12,13,13,14,14],"right_children":[2,4,6,8,10,12,14,16,18,20,22,24,26,28,30,-1,-1,-1,-1,-1,-1,-1,-1,-1,-1,-1,-1,-1,-1,-1,-1],"split_conditions":[5.784838E-2,1.5008614E-2,3.5044903E-1,7.345E1,2.71E2,3.94E2,2.3677132E-1,-4.8862287E-1,1.17E2,-5.2456063E-1,6.319624E-1,-1.9073054E-1,-4.926043E-1,4.3439108E-1,3.591722E-1,5.665305E-1,-2.3672214E-2,-2.0555463E-1,-3.155754E-1,1.5238397E-1,-1.6168255E-1,-2.6656723E-1,-5.7148356E-2,-3.3678677E-2,-1.1556618E-1,-4.7243748E-2,-2.4912305E-1,-1.3720682E-2,8.3806455E-2,-5.0780114E-2,-1.9811018E-1],"split_indices":[535,535,535,532,533,533,19,431,533,63,121,238,81,341,464,0,0,0,0,0,0,0,0,0,0,0,0,0,0,0,0],"split_type":[0,0,0,0,0,0,0,0,0,0,0,0,0,0,0,0,0,0,0,0,0,0,0,0,0,0,0,0,0,0,0],"sum_hessian":[1.3439609E4,1.6711984E3,1.176841E4,9.122925E2,7.589059E2,4.8270933E3,6.9413174E3,2.0455513E0,9.1024695E2,3.6640945E2,3.9249646E2,4.1162734E3,7.108198E2,3.145673E3,3.7956443E3,1.0213723E0,1.024179E0,7.2541245E1,8.377057E2,4.2211308E1,3.2419815E2,3.6594278E2,2.6553673E1,1.442314E3,2.6739595E3,7.9780914E1,6.310389E2,2.3046794E3,8.409937E2,3.4948374E3,3.0080685E2],"tree_param":{"num_deleted":"0","num_feature":"536","num_nodes":"31","size_leaf_vector":"0"}},{"base_weights":[-1.9951923E-1,-7.993258E-1,-1.3131404E-1,-1.0184325E0,-6.45903E-1,4.840424E-2,-2.163689E-1,-2.3432265E-1,-1.028758E0,-7.1464163E-1,-5.073283E-2,1.3268915E-1,-1.6607048E-1,6.577254E-2,-2.777842E-1,5.956898E-1,-2.7993965E-1,4.3076754E-2,-3.097089E-1,1.386485E-1,-2.2016919E-1,4.387059E-1,-1.0469263E-1,5.8455966E-2,-5.1779952E-2,-9.4060905E-2,4.6442285E-2,8.488831E-2,-4.4529974E-2,-9.330748E-2,6.5114304E-2],"categories":[],"categories_nodes":[],"categories_segments":[],"categories_sizes":[],"default_left":[0,0,0,0,0,0,0,0,0,0,0,0,0,0,0,0,0,0,0,0,0,0,0,0,0,0,0,0,0,0,0],"id":6,"left_children":[1,3,5,7,9,11,13,15,17,19,21,23,25,27,29,-1,-1,-1,-1,-1,-1,-1,-1,-1,-1,-1,-1,-1,-1,-1,-1],"loss_changes":[5.252124E2,4.3408447E1,1.7627167E2,4.115906E0,3.1618225E1,6.699696E1,1.3564246E2,1.4712323E1,2.3917236E0,1.6055115E1,3.714697E1,5.0520905E1,4.9528603E1,6.517343E1,1.057988E2,0E0,0E0,0E0,0E0,0E0,0E0,0E0,0E0,0E0,0E0,0E0,0E0,0E0,0E0,0E0,0E0],"parents":[2147483647,0,0,1,1,2,2,3,3,4,4,5,5,6,6,7,7,8,8,9,9,10,10,11,11,12,12,13,13,14,14],"right_children":[2,4,6,8,10,12,14,16,18,20,22,24,26,28,30,-1,-1,-1,-1,-1,-1,-1,-1,-1,-1,-1,-1,-1,-1,-1,-1],"split_conditions":[5.279767E-2,5.7704775E-3,1.62E2,-7.453115E-1,6.733131E-1,-5.5477604E-2,-5.3021294E-1,-3.1177247E-1,-1.0427074E0,7.799E1,-2.6573417E-1,2.663049E-1,8.405598E-1,-1.14373095E-1,1E0,5.956898E-1,-2.7993965E-1,4.3076754E-2,-3.097089E-1,1.386485E-1,-2.2016919E-1,4.387059E-1,-1.0469263E-1,5.8455966E-2,-5.1779952E-2,-9.4060905E-2,4.6442285E-2,8.488831E-2,-4.4529974E-2,-9.330748E-2,6.5114304E-2],"split_indices":[535,535,533,419,43,177,428,219,279,532,69,180,108,510,526,0,0,0,0,0,0,0,0,0,0,0,0,0,0,0,0],"split_type":[0,0,0,0,0,0,0,0,0,0,0,0,0,0,0,0,0,0,0,0,0,0,0,0,0,0,0,0,0,0,0],"sum_hessian":[1.283983E4,1.3098751E3,1.1529955E4,5.3713794E2,7.727371E2,3.7039836E3,7.825971E3,7.289341E0,5.2984863E2,6.925509E2,8.018625E1,2.659304E3,1.0446798E3,1.3989829E3,6.4269883E3,1.3043318E0,5.985009E0,1.5052365E0,5.283434E2,1.0779232E1,6.8177167E2,1.2560309E1,6.762594E1,2.2097153E3,4.495887E2,7.157607E2,3.289191E2,6.944957E2,7.044871E2,6.0227744E3,4.0421353E2],"tree_param":{"num_deleted":"0","num_feature":"536","num_nodes":"31","size_leaf_vector":"0"}},{"base_weights":[-1.4883351E-1,-7.0702386E-1,-9.687097E-2,-9.272733E-1,-5.174934E-1,-5.0935484E-2,-4.0185097E-1,-9.370014E-1,3.5107407E-1,-2.1297361E-1,-6.8174005E-1,4.2152118E-2,-2.0923968E-1,-5.2720445E-1,1.702269E-2,-1.9199747E-1,-2.93735E-1,-8.411098E-2,4.937054E-1,1.9242638E-1,-2.1898143E-1,-5.2554905E-2,3.696036E-2,5.7220466E-2,-7.8782804E-2,-1.1525061E-1,-2.6277718E-1,1.785161E-1,-6.828585E-2],"categories":[],"categories_nodes":[],"categories_segments":[],"categories_sizes":[],"default_left":[0,0,0,0,0,0,0,0,0,0,0,0,0,0,0,0,0,0,0,0,0,0,0,0,0,0,0,0,0],"id":7,"left_children":[1,3,5,7,9,11,13,15,-1,17,19,21,23,25,27,-1,-1,-1,-1,-1,-1,-1,-1,-1,-1,-1,-1,-1,-1],"loss_changes":[3.5935165E2,4.3566467E1,1.5881131E2,1.1028931E1,2.8333603E1,1.4522711E2,7.7927505E1,5.440979E0,0E0,2.5634686E1,2.402832E1,1.0934535E2,7.7947784E1,5.6634857E1,4.8607224E1,0E0,0E0,0E0,0E0,0E0,0E0,0E0,0E0,0E0,0E0,0E0,0E0,0E0,0E0],"parents":[2147483647,0,0,1,1,2,2,3,3,4,4,5,5,6,6,7,7,9,9,10,10,11,11,12,12,13,13,14,14],"right_children":[2,4,6,8,10,12,14,16,-1,18,20,22,24,26,28,-1,-1,-1,-1,-1,-1,-1,-1,-1,-1,-1,-1,-1,-1],"split_conditions":[5.026278E-2,9.892247E-3,3.89E2,1.4169675E0,2.12E2,2.3228027E-2,1.279864E0,-3.542889E-1,3.5107407E-1,6.2420267E-1,1.1113259E-1,-3.3041206E-1,-4.6322453E-1,-7.9898946E-2,-1.5414946E-1,-1.9199747E-1,-2.93735E-1,-8.411098E-2,4.937054E-1,1.9242638E-1,-2.1898143E-1,-5.2554905E-2,3.696036E-2,5.7220466E-2,-7.8782804E-2,-1.1525061E-1,-2.6277718E-1,1.785161E-1,-6.828585E-2],"split_indices":[535,535,533,108,533,390,108,433,0,86,170,11,349,464,344,0,0,0,0,0,0,0,0,0,0,0,0,0,0],"split_type":[0,0,0,0,0,0,0,0,0,0,0,0,0,0,0,0,0,0,0,0,0,0,0,0,0,0,0,0,0],"sum_hessian":[1.2390666E4,1.0541547E3,1.1336512E4,4.8576477E2,5.683899E2,9.853556E3,1.4829562E3,4.8407297E2,1.69181E0,1.9995744E2,3.6843243E2,6.205355E3,3.6482007E3,1.1411833E3,3.417729E2,6.2127308E1,4.2194568E2,1.9377998E2,6.1774516E0,1.2516417E1,3.5591602E2,1.6852238E3,4.5201313E3,4.2917914E2,3.2190215E3,8.107402E2,3.304432E2,1.0120867E2,2.4056421E2],"tree_param":{"num_deleted":"0","num_feature":"536","num_nodes":"29","size_leaf_vector":"0"}},{"base_weights":[-1.1368816E-1,-3.2635847E-1,-1.6438551E-2,-8.151066E-1,-2.5913966E-1,-2.4889793E-1,3.7713952E-2,9.1242796E-1,-8.3237326E-1,1.7681497E-3,-3.427383E-1,-3.4731993E-1,4.4281047E-2,1.768164E-1,-4.7794454E-2,-2.2496328E-1,8.5407394E-1,-1.7473862E-1,-2.7995285E-1,2.691003E-1,-1.9856762E-2,-7.4857704E-2,-1.6950251E-1,-1.17837854E-1,9.300013E-2,9.275877E-2,-9.0717085E-2,1.3906762E-1,2.8900852E-2,1.6559852E-2,-5.940616E-2],"categories":[],"categories_nodes":[],"categories_segments":[],"categories_sizes":[],"default_left":[0,0,0,0,0,0,0,0,0,0,0,0,0,0,0,0,0,0,0,0,0,0,0,0,0,0,0,0,0,0,0],"id":8,"left_children":[1,3,5,7,9,11,13,15,17,19,21,23,25,27,29,-1,-1,-1,-1,-1,-1,-1,-1,-1,-1,-1,-1,-1,-1,-1,-1],"loss_changes":[2.4806554E2,1.2343741E2,1.036332E2,1.4319E1,7.21991E1,4.4898193E1,7.943157E1,1.8134914E1,1.0807983E1,4.8986954E1,5.1797363E1,3.4932724E1,3.60777E1,5.8622993E1,6.400609E1,0E0,0E0,0E0,0E0,0E0,0E0,0E0,0E0,0E0,0E0,0E0,0E0,0E0,0E0,0E0,0E0],"parents":[2147483647,0,0,1,1,2,2,3,3,4,4,5,5,6,6,7,7,8,8,9,9,10,10,11,11,12,12,13,13,14,14],"right_children":[2,4,6,8,10,12,14,16,18,20,22,24,26,28,30,-1,-1,-1,-1,-1,-1,-1,-1,-1,-1,-1,-1,-1,-1,-1,-1],"split_conditions":[2.686176E-1,1.5008614E-2,-2.0603417E-1,-1.0582495E0,-2.886462E-1,2.3897761E-1,-4.882255E-1,3.154433E-1,5.311443E-1,-5.206431E-1,3.17E2,1E0,1.1599518E-1,1.3E2,-7.1212366E-2,-2.2496328E-1,8.5407394E-1,-1.7473862E-1,-2.7995285E-1,2.691003E-1,-1.9856762E-2,-7.4857704E-2,-1.6950251E-1,-1.17837854E-1,9.300013E-2,9.275877E-2,-9.0717085E-2,1.3906762E-1,2.8900852E-2,1.6559852E-2,-5.940616E-2],"split_indices":[535,535,425,390,419,155,101,398,252,380,533,526,22,533,151,0,0,0,0,0,0,0,0,0,0,0,0,0,0,0,0],"split_type":[0,0,0,0,0,0,0,0,0,0,0,0,0,0,0,0,0,0,0,0,0,0,0,0,0,0,0,0,0,0,0],"sum_hessian":[1.199347E4,3.7626855E3,8.230784E3,4.5357977E2,3.309106E3,1.5544465E3,6.676338E3,3.9756043E0,4.496042E2,8.0323193E2,2.505874E3,1.1636255E3,3.9082104E2,2.541247E3,4.135091E3,2.4675763E0,1.5080281E0,1.3117426E2,3.1842993E2,5.581086E1,7.47421E2,1.766983E3,7.3889087E2,1.0887117E3,7.491375E1,2.2159416E2,1.6922688E2,5.558948E2,1.9853523E3,2.4535715E3,1.681519E3],"tree_param":{"num_deleted":"0","num_feature":"536","num_nodes":"31","size_leaf_vector":"0"}},{"base_weights":[-9.3160026E-2,-6.739013E-1,-6.6253E-2,-4.4455326E-1,-8.7844664E-1,6.7207175E-3,-2.0829459E-1,7.310216E-2,-6.497609E-1,-8.9587677E-1,4.036752E-1,-1.10535175E-1,1.2181875E-1,-2.7549204E-1,2.3645326E-2,-9.6883126E-2,3.6970568E-1,4.4602054E-1,-2.0781678E-1,-2.7492258E-1,2.067459E-1,1.18944265E-1,-4.4755735E-2,5.4139722E-2,-6.472257E-2,-6.957697E-2,-1.7162794E-1,-4.8926696E-2,8.570603E-2],"categories":[],"categories_nodes":[],"categories_segments":[],"categories_sizes":[],"default_left":[0,0,0,0,0,0,0,0,0,0,0,0,0,0,0,0,0,0,0,0,0,0,0,0,0,0,0,0,0],"id":9,"left_children":[1,3,5,7,9,11,13,15,17,19,-1,21,23,25,27,-1,-1,-1,-1,-1,-1,-1,-1,-1,-1,-1,-1,-1,-1],"loss_changes":[1.829491E2,2.3931213E1,1.1602417E2,2.6225311E1,1.1789169E1,9.9821815E1,5.9215866E1,3.292946E1,1.7237373E1,9.467026E0,0E0,7.185878E1,7.393167E1,3.7932404E1,4.1849506E1,0E0,0E0,0E0,0E0,0E0,0E0,0E0,0E0,0E0,0E0,0E0,0E0,0E0,0E0],"parents":[2147483647,0,0,1,1,2,2,3,3,4,4,5,5,6,6,7,7,8,8,9,9,11,11,12,12,13,13,14,14],"right_children":[2,4,6,8,10,12,14,16,18,20,-1,22,24,26,28,-1,-1,-1,-1,-1,-1,-1,-1,-1,-1,-1,-1,-1,-1],"split_conditions":[2.7998766E-2,2.82E2,1.6458483E-1,-1.784992E-1,8.053378E-1,7.887963E-2,5.372728E-1,3.6734346E-1,-9.79051E-1,9.588381E-1,4.036752E-1,9.2E1,3.3123085E-1,4.437492E-1,1.9104905E-1,-9.6883126E-2,3.6970568E-1,4.4602054E-1,-2.0781678E-1,-2.7492258E-1,2.067459E-1,1.18944265E-1,-4.4755735E-2,5.4139722E-2,-6.472257E-2,-6.957697E-2,-1.7162794E-1,-4.8926696E-2,8.570603E-2],"split_indices":[535,533,349,61,270,71,326,171,238,209,0,533,90,469,43,0,0,0,0,0,0,0,0,0,0,0,0,0,0],"split_type":[0,0,0,0,0,0,0,0,0,0,0,0,0,0,0,0,0,0,0,0,0,0,0,0,0,0,0,0,0],"sum_hessian":[1.1709833E4,5.1745355E2,1.119238E4,2.454331E2,2.7202045E2,7.3944443E3,3.7979353E3,6.9856735E1,1.7557637E2,2.704977E2,1.522759E0,3.6629058E3,3.7315383E3,2.944631E3,8.533042E2,5.2605892E1,1.7250843E1,2.7985284E0,1.7277785E2,2.6745505E2,3.042661E0,2.5879474E2,3.404111E3,3.1795896E3,5.519489E2,2.5690378E3,3.755934E2,4.9846722E2,3.5483694E2],"tree_param":{"num_deleted":"0","num_feature":"536","num_nodes":"29","size_leaf_vector":"0"}},{"base_weights":[-7.0519485E-2,-4.6420637E-1,-4.2677745E-2,3.3848644E-3,-5.5906266E-1,-8.742012E-2,1.5708694E-1,-1.0989989E-1,1.9233176E0,-5.811359E-1,1.5003414E0,-2.117931E-1,-1.7929984E-2,-4.158329E-2,3.5277516E-1,3.269809E-1,-8.321051E-2,1.3212765E0,-7.898167E-2,1.18765585E-1,-1.8566036E-1,-2.456689E-1,1.132616E0,-6.909498E-2,1.556384E-1,-3.1584155E-2,4.529406E-2,-1.8478418E-2,6.3351095E-1,-9.103808E-2,1.2666196E-1],"categories":[],"categories_nodes":[],"categories_segments":[],"categories_sizes":[],"default_left":[0,0,0,0,0,0,0,0,0,0,0,0,0,0,0,0,0,0,0,0,0,0,0,0,0,0,0,0,0,0,0],"id":10,"left_children":[1,3,5,7,9,11,13,15,17,19,21,23,25,27,29,-1,-1,-1,-1,-1,-1,-1,-1,-1,-1,-1,-1,-1,-1,-1,-1],"loss_changes":[1.2602475E2,3.3685654E1,9.6016304E1,2.8284271E1,2.9572144E1,7.584583E1,7.644209E1,2.4982286E1,4.0464943E1,2.3299744E1,3.9891838E1,4.2690567E1,8.310436E1,4.220305E1,4.5257042E1,0E0,0E0,0E0,0E0,0E0,0E0,0E0,0E0,0E0,0E0,0E0,0E0,0E0,0E0,0E0,0E0],"parents":[2147483647,0,0,1,1,2,2,3,3,4,4,5,5,6,6,7,7,8,8,9,9,10,10,11,11,12,12,13,13,14,14],"right_children":[2,4,6,8,10,12,14,16,18,20,22,24,26,28,30,-1,-1,-1,-1,-1,-1,-1,-1,-1,-1,-1,-1,-1,-1,-1,-1],"split_conditions":[5.784838E-2,1.45E2,4.2754605E-1,6.076607E-1,8.1804913E-1,-4.095366E-2,1.9011597E-1,-4.8048145E-1,-8.190079E-2,1.1113259E-1,1.2953629E-1,6.999981E-1,9.638059E-2,1.20537E0,-6.2460184E-1,3.269809E-1,-8.321051E-2,1.3212765E0,-7.898167E-2,1.18765585E-1,-1.8566036E-1,-2.456689E-1,1.132616E0,-6.909498E-2,1.556384E-1,-3.1584155E-2,4.529406E-2,-1.8478418E-2,6.3351095E-1,-9.103808E-2,1.2666196E-1],"split_indices":[535,533,125,422,266,388,26,283,393,170,253,266,458,216,29,0,0,0,0,0,0,0,0,0,0,0,0,0,0,0,0],"split_type":[0,0,0,0,0,0,0,0,0,0,0,0,0,0,0,0,0,0,0,0,0,0,0,0,0,0,0,0,0,0,0],"sum_hessian":[1.149844E4,7.584307E2,1.074001E4,1.2807133E2,6.3035944E2,8.775153E3,1.9648562E3,1.2182581E2,6.245518E0,6.243849E2,5.974527E0,3.1447153E3,5.6304385E3,9.7539E2,9.894661E2,1.42466545E1,1.07579155E2,2.450703E0,3.7948155E0,2.2863787E1,6.015211E2,3.275477E0,2.69905E0,3.0676228E3,7.7092476E1,3.7114624E3,1.918976E3,9.673712E2,8.018807E0,9.4349014E1,8.951171E2],"tree_param":{"num_deleted":"0","num_feature":"536","num_nodes":"31","size_leaf_vector":"0"}},{"base_weights":[-5.16264E-2,2.3197914E-2,-1.7117846E-1,1.1680568E-1,-8.912915E-2,-4.561439E-1,-8.738469E-2,-1.2195604E-1,1.7456058E-1,3.0840603E-1,-1.2693825E-1,-6.5564394E-1,-2.5823697E-1,1.3029623E-1,-1.9298431E-1,-1.0409056E-1,1.657621E-2,6.9854386E-2,-6.882589E-2,3.7387945E-2,3.2447618E-1,-6.524701E-2,1.3544361E-2,4.283143E-2,-2.095535E-1,1.6389768E-1,-1.0903789E-1,1.42825E-1,-1.6607471E-3,-1.1084893E-2,-9.8751366E-2],"categories":[],"categories_nodes":[],"categories_segments":[],"categories_sizes":[],"default_left":[0,0,0,0,0,0,0,0,0,0,0,0,0,0,0,0,0,0,0,0,0,0,0,0,0,0,0,0,0,0,0],"id":11,"left_children":[1,3,5,7,9,11,13,15,17,19,21,23,25,27,29,-1,-1,-1,-1,-1,-1,-1,-1,-1,-1,-1,-1,-1,-1,-1,-1],"loss_changes":[1.0121061E2,7.318732E1,1.03957954E2,5.2373547E1,4.7595627E1,3.8895813E1,7.741998E1,2.9528702E1,7.2046455E1,3.895292E1,4.504268E1,1.6941833E1,4.2387836E1,5.168695E1,4.817193E1,0E0,0E0,0E0,0E0,0E0,0E0,0E0,0E0,0E0,0E0,0E0,0E0,0E0,0E0,0E0,0E0],"parents":[2147483647,0,0,1,1,2,2,3,3,4,4,5,5,6,6,7,7,8,8,9,9,10,10,11,11,12,12,13,13,14,14],"right_children":[2,4,6,8,10,12,14,16,18,20,22,24,26,28,30,-1,-1,-1,-1,-1,-1,-1,-1,-1,-1,-1,-1,-1,-1,-1,-1],"split_conditions":[2.52E2,8.988045E-3,1.8431912E-1,-4.4212165E-1,8.7E1,1.15590975E-1,-1.980993E-1,-1.9872494E-1,1.644194E-1,3.1817904E-1,1.8882412E-1,-6.1620206E-1,-5.211734E-1,-2.4228315E-1,2.6855893E-2,-1.0409056E-1,1.657621E-2,6.9854386E-2,-6.882589E-2,3.7387945E-2,3.2447618E-1,-6.524701E-2,1.3544361E-2,4.283143E-2,-2.095535E-1,1.6389768E-1,-1.0903789E-1,1.42825E-1,-1.6607471E-3,-1.1084893E-2,-9.8751366E-2],"split_indices":[533,180,108,162,533,341,285,74,164,154,155,81,119,376,391,0,0,0,0,0,0,0,0,0,0,0,0,0,0,0,0],"split_type":[0,0,0,0,0,0,0,0,0,0,0,0,0,0,0,0,0,0,0,0,0,0,0,0,0,0,0,0,0,0,0],"sum_hessian":[1.1312818E4,6.9584956E3,4.3543228E3,3.7954866E3,3.163009E3,9.884304E2,3.3658926E3,7.3906055E2,3.056426E3,2.7408182E2,2.888927E3,4.9108212E2,4.9734827E2,1.0993927E3,2.2664998E3,3.251912E2,4.138694E2,2.6714111E3,3.8501492E2,2.2238396E2,5.169786E1,1.892716E3,9.9621124E2,2.490441E1,4.6617773E2,5.7036755E1,4.403115E2,3.0935754E2,7.9003516E2,1.0568717E3,1.209628E3],"tree_param":{"num_deleted":"0","num_feature":"536","num_nodes":"31","size_leaf_vector":"0"}},{"base_weights":[-3.3475835E-2,-7.3906016E-1,-2.1105932E-2,7.078485E-1,-7.702115E-1,-1.5219362E-1,3.7320428E-2,7.834108E-1,-2.211936E-1,-1.4978741E-1,-8.3997464E-1,-1.0541112E-1,-6.705427E-1,1.7873675E-1,-3.938756E-2,6.234356E-1,-1.476838E-1,2.0475066E-1,-2.5844356E-1,-1.3014673E-2,-9.987502E-2,-2.1792753E-1,1.6537191E-1,2.5318354E-1,4.2274803E-2,-2.568552E-2,7.3362164E-2],"categories":[],"categories_nodes":[],"categories_segments":[],"categories_sizes":[],"default_left":[0,0,0,0,0,0,0,0,0,0,0,0,0,0,0,0,0,0,0,0,0,0,0,0,0,0,0],"id":12,"left_children":[1,3,5,7,9,11,13,-1,-1,15,17,19,21,23,25,-1,-1,-1,-1,-1,-1,-1,-1,-1,-1,-1,-1],"loss_changes":[9.780083E1,9.247162E0,8.437023E1,1.4552174E1,8.075111E0,8.228389E1,8.266709E1,0E0,0E0,1.6565153E1,6.1570435E0,4.3960575E1,1.9582527E1,6.7304214E1,6.487889E1,0E0,0E0,0E0,0E0,0E0,0E0,0E0,0E0,0E0,0E0,0E0,0E0],"parents":[2147483647,0,0,1,1,2,2,3,3,4,4,5,5,6,6,9,9,10,10,11,11,12,12,13,13,14,14],"right_children":[2,4,6,8,10,12,14,-1,-1,16,18,20,22,24,26,-1,-1,-1,-1,-1,-1,-1,-1,-1,-1,-1,-1],"split_conditions":[8.771466E-3,8.7E1,-4.1302737E-2,-3.82403E-2,-3.46544E-1,4.35E2,-1.5899982E-1,7.834108E-1,-2.211936E-1,-2.837116E-1,-7.0680124E-1,2.5566915E-1,6.38855E-1,-1.2761966E0,6.127299E-1,6.234356E-1,-1.476838E-1,2.0475066E-1,-2.5844356E-1,-1.3014673E-2,-9.987502E-2,-2.1792753E-1,1.6537191E-1,2.5318354E-1,4.2274803E-2,-2.568552E-2,7.3362164E-2],"split_indices":[535,533,429,290,219,533,510,0,0,214,359,390,501,215,316,0,0,0,0,0,0,0,0,0,0,0,0],"split_type":[0,0,0,0,0,0,0,0,0,0,0,0,0,0,0,0,0,0,0,0,0,0,0,0,0,0,0],"sum_hessian":[1.1206185E4,1.920634E2,1.1014121E4,3.590067E0,1.8847334E2,3.3951108E3,7.6190103E3,1.2010741E0,2.3889928E0,1.9368715E1,1.6910463E2,3.1151619E3,2.79949E2,2.678917E3,4.9400933E3,1.905542E0,1.7463175E1,1.9271028E0,1.6717752E2,2.4487158E3,6.664461E2,2.6809235E2,1.185667E1,1.429706E2,2.5359465E3,4.248952E3,6.9114087E2],"tree_param":{"num_deleted":"0","num_feature":"536","num_nodes":"27","size_leaf_vector":"0"}},{"base_weights":[-2.152128E-2,4.275058E-3,-3.516158E-1,-1.34547725E-2,4.5893446E-1,2.0129988E-1,-4.6455482E-1,6.60492E-2,-1.10928014E-1,1.0648321E0,1.9797161E-1,4.5015576E-1,-6.842117E-1,3.3883727E-1,-5.392877E-1,-1.2638957E-3,7.119988E-2,-6.688457E-2,-9.082602E-4,1.6911845E-1,5.270677E-1,1.749008E-1,-4.8993018E-2,4.8135045E-1,6.1178204E-2,-2.971544E-1,1.4331912E-1,2.9177272E-1,-1.8611605E-1,-2.7180228E-1,-1.2322117E-1],"categories":[],"categories_nodes":[],"categories_segments":[],"categories_sizes":[],"default_left":[0,0,0,0,0,0,0,0,0,0,0,0,0,0,0,0,0,0,0,0,0,0,0,0,0,0,0,0,0,0,0],"id":13,"left_children":[1,3,5,7,9,11,13,15,17,19,21,23,25,27,29,-1,-1,-1,-1,-1,-1,-1,-1,-1,-1,-1,-1,-1,-1,-1,-1],"loss_changes":[9.459349E1,8.307E1,5.037507E1,7.687153E1,6.0944717E1,3.055801E1,4.034523E1,6.575247E1,5.3860863E1,3.9309708E1,3.787142E1,3.0301992E1,1.133242E1,3.558395E1,2.8497055E1,0E0,0E0,0E0,0E0,0E0,0E0,0E0,0E0,0E0,0E0,0E0,0E0,0E0,0E0,0E0,0E0],"parents":[2147483647,0,0,1,1,2,2,3,3,4,4,5,5,6,6,7,7,8,8,9,9,10,10,11,11,12,12,13,13,14,14],"right_children":[2,4,6,8,10,12,14,16,18,20,22,24,26,28,30,-1,-1,-1,-1,-1,-1,-1,-1,-1,-1,-1,-1,-1,-1,-1,-1],"split_conditions":[4.1077662E-1,1E0,-4.6693075E-1,4.251044E-2,-1.02552935E-1,-8.779392E-1,-5.862607E-1,2.669125E-1,1.26949E-1,-8.311798E-2,-2.2168787E-1,-3.8465998E-1,5.4673576E-1,-2.1846509E-2,-2.963612E-1,-1.2638957E-3,7.119988E-2,-6.688457E-2,-9.082602E-4,1.6911845E-1,5.270677E-1,1.749008E-1,-4.8993018E-2,4.8135045E-1,6.1178204E-2,-2.971544E-1,1.4331912E-1,2.9177272E-1,-1.8611605E-1,-2.7180228E-1,-1.2322117E-1],"split_indices":[464,531,199,90,182,122,349,31,245,77,366,196,105,387,376,0,0,0,0,0,0,0,0,0,0,0,0,0,0,0,0],"split_type":[0,0,0,0,0,0,0,0,0,0,0,0,0,0,0,0,0,0,0,0,0,0,0,0,0,0,0,0,0,0,0],"sum_hessian":[1.1107566E4,1.0303363E4,8.042037E2,9.917589E3,3.857744E2,1.3627243E2,6.679313E2,5.4624595E3,4.455129E3,1.15207596E2,2.705668E2,1.0676096E2,2.9511461E1,5.6543575E1,6.113877E2,3.8742014E3,1.5882583E3,2.1853096E3,2.269819E3,6.7875305E1,4.7332294E1,1.3068129E2,1.3988551E2,1.779935E1,8.896161E1,2.3471584E1,6.0398784E0,3.4040104E1,2.2503473E1,1.5711972E2,4.5426794E2],"tree_param":{"num_deleted":"0","num_feature":"536","num_nodes":"31","size_leaf_vector":"0"}},{"base_weights":[-1.3181773E-2,7.1243746E-3,-3.878848E-1,-1.291033E-1,6.081591E-2,-1.6737784E-1,-6.008737E-1,-7.651352E-2,-3.8060957E-1,-5.2572414E-2,1.4223386E-1,6.044369E-1,-2.956523E-1,-6.523436E-1,1.0627638E0,-3.0640924E-2,2.065677E-1,2.6547882E-1,-1.2903477E-1,-8.4860146E-2,-3.7500413E-5,-1.200533E-2,6.819454E-2,-4.1943856E-2,3.6470908E-1,4.268237E-1,-1.04137E-1,-1.4344555E-1,-3.045821E-1,8.3123237E-1,-6.593385E-2],"categories":[],"categories_nodes":[],"categories_segments":[],"categories_sizes":[],"default_left":[0,0,0,0,0,0,0,0,0,0,0,0,0,0,0,0,0,0,0,0,0,0,0,0,0,0,0,0,0,0,0],"id":14,"left_children":[1,3,5,7,9,11,13,15,17,19,21,23,25,27,29,-1,-1,-1,-1,-1,-1,-1,-1,-1,-1,-1,-1,-1,-1,-1,-1],"loss_changes":[8.4380005E1,7.6956726E1,2.6674088E1,3.9313652E1,6.9678986E1,2.8047218E1,2.5491203E1,4.8321114E1,3.259346E1,3.810589E1,6.812744E1,1.8569275E1,2.190211E1,1.7312828E1,2.0480444E1,0E0,0E0,0E0,0E0,0E0,0E0,0E0,0E0,0E0,0E0,0E0,0E0,0E0,0E0,0E0,0E0],"parents":[2147483647,0,0,1,1,2,2,3,3,4,4,5,5,6,6,7,7,8,8,9,9,10,10,11,11,12,12,13,13,14,14],"right_children":[2,4,6,8,10,12,14,16,18,20,22,24,26,28,30,-1,-1,-1,-1,-1,-1,-1,-1,-1,-1,-1,-1,-1,-1,-1,-1],"split_conditions":[1E0,-1.2630029E-1,-1.3117944E-1,1.9903153E-1,-2.0629515E-1,1E2,8.482272E-1,4.9431172E-1,-7.4681836E-1,-4.4486734E-1,3.4448054E-2,-1.7386937E-1,-1.1681432E0,-7.465557E-2,-1.8831094E-1,-3.0640924E-2,2.065677E-1,2.6547882E-1,-1.2903477E-1,-8.4860146E-2,-3.7500413E-5,-1.200533E-2,6.819454E-2,-4.1943856E-2,3.6470908E-1,4.268237E-1,-1.04137E-1,-1.4344555E-1,-3.045821E-1,8.3123237E-1,-6.593385E-2],"split_indices":[529,388,474,366,67,533,321,415,401,137,157,107,407,231,450,0,0,0,0,0,0,0,0,0,0,0,0,0,0,0,0],"split_type":[0,0,0,0,0,0,0,0,0,0,0,0,0,0,0,0,0,0,0,0,0,0,0,0,0,0,0,0,0,0,0],"sum_hessian":[1.1088465E4,1.0519373E4,5.690916E2,2.9735059E3,7.5458667E3,2.8048843E2,2.886032E2,2.4603523E3,5.131536E2,3.1538914E3,4.3919756E3,3.944425E1,2.4104417E2,2.8053195E2,8.071261E0,2.381462E3,7.889053E1,1.868295E1,4.9447064E2,5.8421796E2,2.5696736E3,1.3979569E3,2.9940186E3,1.813498E1,2.130927E1,6.2352133E0,2.3480896E2,1.9111967E2,8.941228E1,2.9638364E0,5.107425E0],"tree_param":{"num_deleted":"0","num_feature":"536","num_nodes":"31","size_leaf_vector":"0"}},{"base_weights":[-1.8068548E-2,-5.4765284E-2,1.6708201E-1,-3.187421E-1,-2.7509319E-2,2.3123257E-2,3.3667275E-1,2.3828414E-1,-3.9749968E-1,1.6009705E-1,-7.569288E-2,-2.964083E-1,1.488635E-1,2.0227845E0,3.0955482E-1,2.3454286E-1,-9.062503E-2,1.5120815E-1,-1.3034499E-1,2.3174036E-2,1.5548332E-1,-4.104669E-2,2.9223042E-2,2.0429471E-1,-1.1756204E-1,1.8376628E-2,1.8706495E-1,-2.5977415E-1,7.6917404E-1,-1.7296445E-2,1.2270517E-1],"categories":[],"categories_nodes":[],"categories_segments":[],"categories_sizes":[],"default_left":[0,0,0,0,0,0,0,0,0,0,0,0,0,0,0,0,0,0,0,0,0,0,0,0,0,0,0,0,0,0,0],"id":15,"left_children":[1,3,5,7,9,11,13,15,17,19,21,23,25,27,29,-1,-1,-1,-1,-1,-1,-1,-1,-1,-1,-1,-1,-1,-1,-1,-1],"loss_changes":[7.471405E1,6.601959E1,4.4401016E1,3.7768967E1,7.521462E1,3.9616005E1,3.755645E1,3.1663946E1,2.5317451E1,5.041884E1,7.006324E1,2.6249453E1,2.9382092E1,2.2599415E1,3.0083633E1,0E0,0E0,0E0,0E0,0E0,0E0,0E0,0E0,0E0,0E0,0E0,0E0,0E0,0E0,0E0,0E0],"parents":[2147483647,0,0,1,1,2,2,3,3,4,4,5,5,6,6,7,7,8,8,9,9,10,10,11,11,12,12,13,13,14,14],"right_children":[2,4,6,8,10,12,14,16,18,20,22,24,26,28,30,-1,-1,-1,-1,-1,-1,-1,-1,-1,-1,-1,-1,-1,-1,-1,-1],"split_conditions":[3.7510377E-1,-3.8903862E-1,2.674403E-1,-3.6019742E-1,-1.01525486E-1,-1.1871721E-1,-7.9488254E-1,4.616411E-3,-4.0235227E-1,5.5703205E-1,4.6243963E-1,-7.8457487E-1,3.7676623E-1,-4.828504E-1,-2.9896337E-1,2.3454286E-1,-9.062503E-2,1.5120815E-1,-1.3034499E-1,2.3174036E-2,1.5548332E-1,-4.104669E-2,2.9223042E-2,2.0429471E-1,-1.1756204E-1,1.8376628E-2,1.8706495E-1,-2.5977415E-1,7.6917404E-1,-1.7296445E-2,1.2270517E-1],"split_indices":[121,388,375,477,234,487,314,159,105,375,316,259,429,294,305,0,0,0,0,0,0,0,0,0,0,0,0,0,0,0,0],"split_type":[0,0,0,0,0,0,0,0,0,0,0,0,0,0,0,0,0,0,0,0,0,0,0,0,0,0,0,0,0,0,0],"sum_hessian":[1.0994035E4,9.176052E3,1.817984E3,8.5776965E2,8.318281E3,9.8391473E2,8.340692E2,1.06005104E2,7.517645E2,1.6993623E3,6.6189194E3,2.7746426E2,7.064505E2,1.2037254E1,8.22032E2,5.262538E1,5.3379723E1,2.912692E1,7.2263763E2,1.3811143E3,3.18248E2,4.8916846E3,1.7272349E3,2.4143646E1,2.5332062E2,5.973353E2,1.09115135E2,1.8044412E0,1.0232813E1,1.7529031E2,6.467417E2],"tree_param":{"num_deleted":"0","num_feature":"536","num_nodes":"31","size_leaf_vector":"0"}},{"base_weights":[-1.6242955E-2,-1.6580993E-1,2.564076E-2,3.407884E-2,-2.8261933E-1,-2.5377644E-2,1.9549046E-1,-3.8618457E-1,1.7005853E-1,-3.1176585E-1,4.3676263E-1,-2.7878037E-1,1.01197725E-2,5.832609E-1,1.083212E-1,4.1932684E-1,-1.4094485E-1,-1.026541E-1,8.09462E-2,-1.3108289E-1,-4.9421433E-2,6.8130606E-1,6.0443632E-2,-1.0397933E-1,7.872426E-2,1.905753E-2,-5.2638244E-2,1.15871236E-1,3.467818E-1,-2.259449E-2,9.142928E-2],"categories":[],"categories_nodes":[],"categories_segments":[],"categories_sizes":[],"default_left":[0,0,0,0,0,0,0,0,0,0,0,0,0,0,0,0,0,0,0,0,0,0,0,0,0,0,0,0,0,0,0],"id":16,"left_children":[1,3,5,7,9,11,13,15,17,19,21,23,25,27,29,-1,-1,-1,-1,-1,-1,-1,-1,-1,-1,-1,-1,-1,-1,-1,-1],"loss_changes":[6.84302E1,5.5807648E1,7.395774E1,5.0487656E1,3.1764244E1,5.9044838E1,6.6574524E1,3.288218E1,3.4193672E1,2.6619736E1,2.5070984E1,2.9692562E1,5.7080975E1,4.0353683E1,5.8132065E1,0E0,0E0,0E0,0E0,0E0,0E0,0E0,0E0,0E0,0E0,0E0,0E0,0E0,0E0,0E0,0E0],"parents":[2147483647,0,0,1,1,2,2,3,3,4,4,5,5,6,6,7,7,8,8,9,9,10,10,11,11,12,12,13,13,14,14],"right_children":[2,4,6,8,10,12,14,16,18,20,22,24,26,28,30,-1,-1,-1,-1,-1,-1,-1,-1,-1,-1,-1,-1,-1,-1,-1,-1],"split_conditions":[-1.0255201E-1,-8.43152E-2,4.807347E-1,-3.716469E-1,4.5171416E-1,-3.5328713E-1,-3.979303E-1,-5.951766E-1,-3.7785694E-1,5.5773847E-2,-6.241053E-1,4.1156644E-1,1.2974942E-1,2.125119E-1,1.497931E-1,4.1932684E-1,-1.4094485E-1,-1.026541E-1,8.09462E-2,-1.3108289E-1,-4.9421433E-2,6.8130606E-1,6.0443632E-2,-1.0397933E-1,7.872426E-2,1.905753E-2,-5.2638244E-2,1.15871236E-1,3.467818E-1,-2.259449E-2,9.142928E-2],"split_indices":[501,163,341,137,377,305,300,297,363,376,378,411,322,147,263,0,0,0,0,0,0,0,0,0,0,0,0,0,0,0,0],"split_type":[0,0,0,0,0,0,0,0,0,0,0,0,0,0,0,0,0,0,0,0,0,0,0,0,0,0,0,0,0,0,0],"sum_hessian":[1.092195E4,2.3887505E3,8.5332E3,8.813162E2,1.5074342E3,6.562767E3,1.9704329E3,2.1499756E2,6.6631866E2,1.4492817E3,5.8152565E1,8.0553094E2,5.7572363E3,3.6060388E2,1.609829E3,8.924131E0,2.0607343E2,1.0822033E2,5.580983E2,7.817447E2,6.67537E2,5.627636E0,5.252493E1,7.161495E2,8.938149E1,4.4711978E3,1.2860383E3,2.695446E2,9.1059296E1,8.3235504E2,7.77474E2],"tree_param":{"num_deleted":"0","num_feature":"536","num_nodes":"31","size_leaf_vector":"0"}},{"base_weights":[-7.314071E-3,-5.8639895E-2,1.2257951E-1,2.0327976E-2,-1.6036858E-1,-1.4826335E-2,2.5691128E-1,-1.5896463E-1,9.085921E-2,-2.3747106E-1,-1.5188639E-2,-1.0213634E-1,2.4807411E-1,1.2219099E0,2.1988562E-1,-1.2879823E-2,-1.2657723E-1,5.6914976E-3,9.5171295E-2,8.681607E-3,-8.7141186E-2,1.395611E-1,-2.1324702E-2,7.03206E-2,-5.7540108E-2,1.912912E-1,2.2224724E-2,5.103253E-1,7.457101E-2,4.3860972E-2,1.56202E-1],"categories":[],"categories_nodes":[],"categories_segments":[],"categories_sizes":[],"default_left":[0,0,0,0,0,0,0,0,0,0,0,0,0,0,0,0,0,0,0,0,0,0,0,0,0,0,0,0,0,0,0],"id":17,"left_children":[1,3,5,7,9,11,13,15,17,19,21,23,25,27,29,-1,-1,-1,-1,-1,-1,-1,-1,-1,-1,-1,-1,-1,-1,-1,-1],"loss_changes":[7.262842E1,6.2730255E1,5.695473E1,5.5615845E1,3.819525E1,3.505777E1,5.5477737E1,3.786824E1,5.135654E1,3.1477623E1,3.1844957E1,3.4638752E1,2.5762827E1,2.636354E1,3.3252075E1,0E0,0E0,0E0,0E0,0E0,0E0,0E0,0E0,0E0,0E0,0E0,0E0,0E0,0E0,0E0,0E0],"parents":[2147483647,0,0,1,1,2,2,3,3,4,4,5,5,6,6,7,7,8,8,9,9,10,10,11,11,12,12,13,13,14,14],"right_children":[2,4,6,8,10,12,14,16,18,20,22,24,26,28,30,-1,-1,-1,-1,-1,-1,-1,-1,-1,-1,-1,-1,-1,-1,-1,-1],"split_conditions":[1.8795602E-1,5.2629195E-2,2.20248E-1,-3.3172905E-1,1.0379685E-1,2.9268208E-1,-8.482679E-1,1.7847432E-1,1.8111843E-1,-4.749642E-1,9.7E1,-2.0129706E-1,-1.17684975E-1,9.5942795E-2,5.244638E-1,-1.2879823E-2,-1.2657723E-1,5.6914976E-3,9.5171295E-2,8.681607E-3,-8.7141186E-2,1.395611E-1,-2.1324702E-2,7.03206E-2,-5.7540108E-2,1.912912E-1,2.2224724E-2,5.103253E-1,7.457101E-2,4.3860972E-2,1.56202E-1],"split_indices":[456,230,341,162,80,16,300,386,67,177,533,118,57,254,263,0,0,0,0,0,0,0,0,0,0,0,0,0,0,0,0],"split_type":[0,0,0,0,0,0,0,0,0,0,0,0,0,0,0,0,0,0,0,0,0,0,0,0,0,0,0,0,0,0,0],"sum_hessian":[1.08918125E4,7.8073745E3,3.0844377E3,4.395852E3,3.4115222E3,1.5252122E3,1.5592256E3,1.2407001E3,3.155152E3,2.227762E3,1.1837604E3,1.1454247E3,3.797874E2,5.643225E1,1.5027933E3,8.616548E2,3.7904532E2,2.3955251E3,7.596267E2,3.6972745E2,1.8580344E3,1.22612625E2,1.0611478E3,2.4063367E2,9.047911E2,1.16432686E2,2.6335474E2,3.7314617E1,1.9117636E1,1.2082908E3,2.9450256E2],"tree_param":{"num_deleted":"0","num_feature":"536","num_nodes":"31","size_leaf_vector":"0"}},{"base_weights":[-1.2131589E-2,6.268267E-2,-8.647814E-2,8.945587E-3,2.3937601E-1,-2.0170058E-1,-1.7863104E-2,4.6775773E-1,-1.46849435E-2,4.536247E-1,9.622541E-2,3.3932135E-2,-2.81721E-1,1.8528199E-1,-9.94144E-2,1.82659E-1,-9.27863E-2,9.048662E-3,-8.354309E-2,2.0714699E-1,4.691639E-2,1.6415719E-3,1.7024973E-1,1.1260151E-1,-5.718965E-2,-6.088371E-3,-1.0339248E-1,-8.575262E-2,7.927934E-2,-7.115947E-3,-9.6351065E-2],"categories":[],"categories_nodes":[],"categories_segments":[],"categories_sizes":[],"default_left":[0,0,0,0,0,0,0,0,0,0,0,0,0,0,0,0,0,0,0,0,0,0,0,0,0,0,0,0,0,0,0],"id":18,"left_children":[1,3,5,7,9,11,13,15,17,19,21,23,25,27,29,-1,-1,-1,-1,-1,-1,-1,-1,-1,-1,-1,-1,-1,-1,-1,-1],"loss_changes":[6.0548317E1,5.151654E1,4.316196E1,4.512671E1,3.8762695E1,3.8431732E1,5.6728527E1,2.2541649E1,4.684132E1,3.555387E1,3.249205E1,3.974483E1,2.5016273E1,3.6575535E1,4.100365E1,0E0,0E0,0E0,0E0,0E0,0E0,0E0,0E0,0E0,0E0,0E0,0E0,0E0,0E0,0E0,0E0],"parents":[2147483647,0,0,1,1,2,2,3,3,4,4,5,5,6,6,7,7,8,8,9,9,10,10,11,11,12,12,13,13,14,14],"right_children":[2,4,6,8,10,12,14,16,18,20,22,24,26,28,30,-1,-1,-1,-1,-1,-1,-1,-1,-1,-1,-1,-1,-1,-1,-1,-1],"split_conditions":[-6.543532E-2,3.0590335E-1,-6.8362646E-2,7.8E1,-9.289472E-2,-4.073083E-1,-3.582364E-1,1.7054047E-1,2.8725266E-1,2.4770074E-1,3.99848E-1,-1.8874274E-1,-6.615592E-1,-6.040843E-1,1.3731003E-1,1.82659E-1,-9.27863E-2,9.048662E-3,-8.354309E-2,2.0714699E-1,4.691639E-2,1.6415719E-3,1.7024973E-1,1.1260151E-1,-5.718965E-2,-6.088371E-3,-1.0339248E-1,-8.575262E-2,7.927934E-2,-7.115947E-3,-9.6351065E-2],"split_indices":[291,292,352,533,312,72,474,150,475,105,411,296,101,241,180,0,0,0,0,0,0,0,0,0,0,0,0,0,0,0,0],"split_type":[0,0,0,0,0,0,0,0,0,0,0,0,0,0,0,0,0,0,0,0,0,0,0,0,0,0,0,0,0,0,0],"sum_hessian":[1.0883737E4,5.424883E3,5.458854E3,4.160589E3,1.264294E3,2.036725E3,3.4221292E3,2.0286928E2,3.9577197E3,5.0552414E2,7.587698E2,5.164709E2,1.520254E3,9.799047E2,2.4422246E3,1.7187459E2,3.0994692E1,3.383396E3,5.743238E2,2.8059637E2,2.2492773E2,6.370955E2,1.2167431E2,2.0465758E2,3.1181332E2,2.9517303E2,1.225081E3,1.4031544E2,8.395893E2,1.8215574E3,6.2066705E2],"tree_param":{"num_deleted":"0","num_feature":"536","num_nodes":"31","size_leaf_vector":"0"}},{"base_weights":[-1.2867491E-2,9.128628E-2,-6.7806706E-2,1.3613299E-1,-2.1379393E-1,-1.4779414E-1,2.777735E-2,-3.9521572E-1,1.6744214E-1,6.8436986E-1,-2.8191924E-1,-3.118995E-1,-6.437942E-2,1.0818332E-1,-1.5114032E-1,-1.6479157E-1,2.3486604E-1,2.7737537E-2,9.894355E-2,4.3443108E-1,-1.1200577E-1,-9.920108E-2,2.1025361E-1,-1.06942475E-1,4.8881903E-2,-2.0527053E-3,-1.0101063E-1,-4.1710887E-2,5.382478E-2,-5.6425836E-2,1.4824484E-1],"categories":[],"categories_nodes":[],"categories_segments":[],"categories_sizes":[],"default_left":[0,0,0,0,0,0,0,0,0,0,0,0,0,0,0,0,0,0,0,0,0,0,0,0,0,0,0,0,0,0,0],"id":19,"left_children":[1,3,5,7,9,11,13,15,17,19,21,23,25,27,29,-1,-1,-1,-1,-1,-1,-1,-1,-1,-1,-1,-1,-1,-1,-1,-1],"loss_changes":[6.1734188E1,5.1003315E1,5.4003796E1,5.4113617E1,2.9432901E1,5.261786E1,4.631912E1,3.3301697E1,3.7331543E1,2.7992561E1,2.1546803E1,2.7481415E1,3.996379E1,3.9140747E1,2.3894913E1,0E0,0E0,0E0,0E0,0E0,0E0,0E0,0E0,0E0,0E0,0E0,0E0,0E0,0E0,0E0,0E0],"parents":[2147483647,0,0,1,1,2,2,3,3,4,4,5,5,6,6,7,7,8,8,9,9,10,10,11,11,12,12,13,13,14,14],"right_children":[2,4,6,8,10,12,14,16,18,20,22,24,26,28,30,-1,-1,-1,-1,-1,-1,-1,-1,-1,-1,-1,-1,-1,-1,-1,-1],"split_conditions":[-1.0990567E-1,3.3942738E-1,-3.979257E-3,-5.022983E-1,-5.604898E-1,-2.1841852E-1,3.390043E-1,1.0487535E0,1.7878188E-1,3.8455207E-2,8.4323514E-1,5.134249E-1,4.190045E-1,2.0412435E-1,7.2273105E-1,-1.6479157E-1,2.3486604E-1,2.7737537E-2,9.894355E-2,4.3443108E-1,-1.1200577E-1,-9.920108E-2,2.1025361E-1,-1.06942475E-1,4.8881903E-2,-2.0527053E-3,-1.0101063E-1,-4.1710887E-2,5.382478E-2,-5.6425836E-2,1.4824484E-1],"split_indices":[503,56,320,108,220,48,399,326,266,183,316,440,303,108,87,0,0,0,0,0,0,0,0,0,0,0,0,0,0,0,0],"split_type":[0,0,0,0,0,0,0,0,0,0,0,0,0,0,0,0,0,0,0,0,0,0,0,0,0,0,0,0,0,0,0],"sum_hessian":[1.0786599E4,3.724683E3,7.061916E3,3.2478096E3,4.7687335E2,3.8443276E3,3.2175884E3,1.8007793E2,3.0677317E3,3.2982777E1,4.4389056E2,1.2946224E3,2.549705E3,2.2202146E3,9.973737E2,1.5972101E2,2.0356915E1,2.0996604E3,9.6807135E2,1.8938828E1,1.404395E1,4.235438E2,2.0346785E1,1.1837478E3,1.108747E2,2.105809E3,4.438959E2,4.9641324E2,1.7238014E3,9.440321E2,5.334163E1],"tree_param":{"num_deleted":"0","num_feature":"536","num_nodes":"31","size_leaf_vector":"0"}},{"base_weights":[2.5638576E-5,5.3413577E-2,-1.005375E-1,-1.711204E-2,1.5570746E-1,-1.3646196E-1,2.7555716E-1,-2.110476E-1,4.128409E-2,-1.19515605E-1,2.0728964E-1,-2.0890994E-1,3.8193353E-2,4.9068895E-1,-2.0237026E-1,-4.206556E-2,-2.0480022E-1,2.8769468E-4,1.1242078E-1,-9.825897E-3,-2.5995475E-1,7.641281E-2,-4.318794E-2,-6.5949015E-2,4.6517327E-1,-7.01277E-2,6.012861E-2,1.8622732E-1,-1.5759479E-1,2.630867E-1,-1.2446448E-1],"categories":[],"categories_nodes":[],"categories_segments":[],"categories_sizes":[],"default_left":[0,0,0,0,0,0,0,0,0,0,0,0,0,0,0,0,0,0,0,0,0,0,0,0,0,0,0,0,0,0,0],"id":20,"left_children":[1,3,5,7,9,11,13,15,17,19,21,23,25,27,29,-1,-1,-1,-1,-1,-1,-1,-1,-1,-1,-1,-1,-1,-1,-1,-1],"loss_changes":[5.784665E1,5.0777542E1,5.052047E1,4.7198143E1,4.0800888E1,4.3172775E1,3.3629593E1,3.212185E1,4.307321E1,2.9394995E1,4.033226E1,4.667119E1,4.4211494E1,3.0083462E1,2.3745024E1,0E0,0E0,0E0,0E0,0E0,0E0,0E0,0E0,0E0,0E0,0E0,0E0,0E0,0E0,0E0,0E0],"parents":[2147483647,0,0,1,1,2,2,3,3,4,4,5,5,6,6,7,7,8,8,9,9,10,10,11,11,12,12,13,13,14,14],"right_children":[2,4,6,8,10,12,14,16,18,20,22,24,26,28,30,-1,-1,-1,-1,-1,-1,-1,-1,-1,-1,-1,-1,-1,-1,-1,-1],"split_conditions":[1.3684878E-1,3.8586862E-2,1E0,-2.5179172E-2,-4.326213E-1,2.8046435E-1,1.8156487E-1,3.0328164E-1,5.2450264E-1,3.5341197E-1,3.7603667E-1,8.067309E-1,-6.716654E-3,3.2754278E-1,-3.7136427E-1,-4.206556E-2,-2.0480022E-1,2.8769468E-4,1.1242078E-1,-9.825897E-3,-2.5995475E-1,7.641281E-2,-4.318794E-2,-6.5949015E-2,4.6517327E-1,-7.01277E-2,6.012861E-2,1.8622732E-1,-1.5759479E-1,2.630867E-1,-1.2446448E-1],"split_indices":[372,214,526,216,467,359,72,206,361,163,464,182,91,484,181,0,0,0,0,0,0,0,0,0,0,0,0,0,0,0,0],"split_type":[0,0,0,0,0,0,0,0,0,0,0,0,0,0,0,0,0,0,0,0,0,0,0,0,0,0,0,0,0,0,0],"sum_hessian":[1.0772478E4,7.0370493E3,3.7354285E3,4.1658047E3,2.8712446E3,3.4103135E3,3.25115E2,9.634709E2,3.202334E3,4.5298254E2,2.418262E3,2.410308E3,1.0000053E3,2.2417796E2,1.0093703E2,8.3879565E2,1.2467521E2,2.8577432E3,3.445907E2,4.0677972E2,4.6202827E1,2.1308638E3,2.873982E2,2.3963108E3,1.3997418E1,3.7348984E2,6.265155E2,1.9908072E2,2.509725E1,1.609012E1,8.484691E1],"tree_param":{"num_deleted":"0","num_feature":"536","num_nodes":"31","size_leaf_vector":"0"}},{"base_weights":[-1.00802295E-2,3.3037003E-2,-1.2074727E-1,-1.00351505E-1,8.375008E-2,-3.4322745E-1,-4.0069304E-2,1.5160474E-2,-2.8350058E-1,7.871389E-1,7.251074E-2,2.0082555E0,-3.645953E-1,-1.8098235E-1,1.2970304E-1,9.449006E-2,-2.5865277E-2,-5.963974E-3,-1.1734534E-1,-1.6493645E-1,3.0490825E-1,1.0799635E-2,8.1416264E-2,8.181873E-1,-1.966032E-1,-7.531867E-3,-1.5181711E-1,-9.472165E-2,7.324841E-3,1.19822375E-1,-3.7788134E-2],"categories":[],"categories_nodes":[],"categories_segments":[],"categories_sizes":[],"default_left":[0,0,0,0,0,0,0,0,0,0,0,0,0,0,0,0,0,0,0,0,0,0,0,0,0,0,0,0,0,0,0],"id":21,"left_children":[1,3,5,7,9,11,13,15,17,19,21,23,25,27,29,-1,-1,-1,-1,-1,-1,-1,-1,-1,-1,-1,-1,-1,-1,-1,-1],"loss_changes":[5.1101402E1,5.2142128E1,5.3880943E1,4.4927177E1,4.4091824E1,4.0875786E1,5.2766266E1,3.9633373E1,2.3300331E1,2.7443535E1,3.9911583E1,1.5860764E1,3.8051247E1,3.336482E1,6.904024E1,0E0,0E0,0E0,0E0,0E0,0E0,0E0,0E0,0E0,0E0,0E0,0E0,0E0,0E0,0E0,0E0],"parents":[2147483647,0,0,1,1,2,2,3,3,4,4,5,5,6,6,7,7,8,8,9,9,10,10,11,11,12,12,13,13,14,14],"right_children":[2,4,6,8,10,12,14,16,18,20,22,24,26,28,30,-1,-1,-1,-1,-1,-1,-1,-1,-1,-1,-1,-1,-1,-1,-1,-1],"split_conditions":[3.02E2,-1.731782E-1,-1.6573903E-1,2.5716355E-1,-9.352082E-1,-1.35083E0,1.1739352E-1,-2.7150136E-1,-3.3643395E-1,-3.3378547E-1,1.8695864E-1,1.7082383E-1,-3.133343E-1,2.0927879E-1,-1.1012558E-1,9.449006E-2,-2.5865277E-2,-5.963974E-3,-1.1734534E-1,-1.6493645E-1,3.0490825E-1,1.0799635E-2,8.1416264E-2,8.181873E-1,-1.966032E-1,-7.531867E-3,-1.5181711E-1,-9.472165E-2,7.324841E-3,1.19822375E-1,-3.7788134E-2],"split_indices":[533,286,138,128,160,18,95,319,151,314,11,180,383,27,392,0,0,0,0,0,0,0,0,0,0,0,0,0,0,0,0],"split_type":[0,0,0,0,0,0,0,0,0,0,0,0,0,0,0,0,0,0,0,0,0,0,0,0,0,0,0,0,0,0,0],"sum_hessian":[1.0707528E4,7.705912E3,3.001616E3,2.12242E3,5.583492E3,7.97939E2,2.203677E3,1.3021022E3,8.203177E2,8.672882E1,5.496763E3,6.348208E0,7.915908E2,1.2041512E3,9.9952576E2,3.285048E2,9.735974E2,2.3819565E2,5.82122E2,1.2488962E1,7.423986E1,4.645139E3,8.516239E2,4.9799614E0,1.3682463E0,2.3317642E2,5.5841437E2,7.2678784E2,4.7736334E2,4.8613226E2,5.133935E2],"tree_param":{"num_deleted":"0","num_feature":"536","num_nodes":"31","size_leaf_vector":"0"}},{"base_weights":[-2.9287478E-3,-3.4711125E-1,1.2579833E-2,-4.544926E-2,-4.810247E-1,1.3851169E-1,-2.5035039E-2,-3.4083655E-1,8.383127E-1,-5.0297457E-1,7.1370304E-1,3.6047307E-1,6.078649E-2,4.4603767E-3,-2.1800967E-1,-1.4224723E-1,2.5949678E-1,9.078024E-2,6.096846E-1,7.0575136E-1,-1.5584756E-1,-1.4906634E-1,1.3235065E-1,-1.7521618E-2,7.582759E-2,9.589862E-2,-4.1756737E-3,1.4076999E-2,-9.342587E-2],"categories":[],"categories_nodes":[],"categories_segments":[],"categories_sizes":[],"default_left":[0,0,0,0,0,0,0,0,0,0,0,0,0,0,0,0,0,0,0,0,0,0,0,0,0,0,0,0,0],"id":22,"left_children":[1,3,5,7,9,11,13,15,17,19,-1,21,23,25,27,-1,-1,-1,-1,-1,-1,-1,-1,-1,-1,-1,-1,-1,-1],"loss_changes":[5.7038246E1,1.8590107E1,4.8439365E1,3.7551327E1,2.122126E1,4.055298E1,4.482051E1,1.7724503E1,2.2443195E1,1.619107E1,0E0,4.24066E1,3.990007E1,3.9579437E1,2.5851059E1,0E0,0E0,0E0,0E0,0E0,0E0,0E0,0E0,0E0,0E0,0E0,0E0,0E0,0E0],"parents":[2147483647,0,0,1,1,2,2,3,3,4,4,5,5,6,6,7,7,8,8,9,9,11,11,12,12,13,13,14,14],"right_children":[2,4,6,8,10,12,14,16,18,20,-1,22,24,26,28,-1,-1,-1,-1,-1,-1,-1,-1,-1,-1,-1,-1,-1,-1],"split_conditions":[-5.6613827E-1,-6.577113E-2,-2.9798076E-1,1.5740648E-2,8.96E2,9.973009E-2,3.5499153E-1,4.4660574E-1,1.5305513E-1,-8.1974465E-1,7.1370304E-1,-3.9529067E-1,1.7352182E-2,-6.968346E-1,1.56E2,-1.4224723E-1,2.5949678E-1,9.078024E-2,6.096846E-1,7.0575136E-1,-1.5584756E-1,-1.4906634E-1,1.3235065E-1,-1.7521618E-2,7.582759E-2,9.589862E-2,-4.1756737E-3,1.4076999E-2,-9.342587E-2],"split_indices":[305,402,453,381,533,247,346,354,411,144,0,427,283,175,533,0,0,0,0,0,0,0,0,0,0,0,0,0,0],"split_type":[0,0,0,0,0,0,0,0,0,0,0,0,0,0,0,0,0,0,0,0,0,0,0,0,0,0,0,0,0],"sum_hessian":[1.0683939E4,4.59731E2,1.0224208E4,1.4175162E2,3.1797937E2,2.3508965E3,7.873312E3,1.0670202E2,3.504959E1,3.1637543E2,1.6039429E0,6.0877313E2,1.7421233E3,6.8303037E3,1.0430083E3,9.66255E1,1.0076518E1,2.5059362E1,9.990231E0,1.00616E0,3.1536926E2,5.192567E1,5.568475E2,1.0752294E3,6.668939E2,3.7542557E2,6.454878E3,2.7201254E2,7.709957E2],"tree_param":{"num_deleted":"0","num_feature":"536","num_nodes":"29","size_leaf_vector":"0"}},{"base_weights":[-6.206617E-3,-8.112191E-2,5.63598E-2,8.639177E-2,-1.395531E-1,5.0990433E-2,1.3290292E0,-3.555585E-1,1.518197E-1,-9.801802E-2,-3.7220207E-1,-4.878069E-2,1.1769817E-1,-5.637538E-1,1.9091827E0,-4.5808416E-2,-2.7372846E-1,9.482333E-3,1.3024963E-1,3.9943323E-2,-4.5343854E-2,-3.488625E-2,-1.553884E-1,-9.308925E-3,-1.9328E-1,9.019383E-2,1.9120906E-2,-3.021855E-1,2.5496382E-1,6.9777507E-1,-1.330926E-1],"categories":[],"categories_nodes":[],"categories_segments":[],"categories_sizes":[],"default_left":[0,0,0,0,0,0,0,0,0,0,0,0,0,0,0,0,0,0,0,0,0,0,0,0,0,0,0,0,0,0,0],"id":23,"left_children":[1,3,5,7,9,11,13,15,17,19,21,23,25,27,29,-1,-1,-1,-1,-1,-1,-1,-1,-1,-1,-1,-1,-1,-1,-1,-1],"loss_changes":[5.0038403E1,4.7565292E1,3.968439E1,3.640173E1,3.4772804E1,3.8567085E1,2.7870167E1,1.8206253E1,3.7173096E1,3.757555E1,2.028199E1,2.4527855E1,3.4262955E1,4.929199E0,1.956707E1,0E0,0E0,0E0,0E0,0E0,0E0,0E0,0E0,0E0,0E0,0E0,0E0,0E0,0E0,0E0,0E0],"parents":[2147483647,0,0,1,1,2,2,3,3,4,4,5,5,6,6,7,7,8,8,9,9,10,10,11,11,12,12,13,13,14,14],"right_children":[2,4,6,8,10,12,14,16,18,20,22,24,26,28,30,-1,-1,-1,-1,-1,-1,-1,-1,-1,-1,-1,-1,-1,-1,-1,-1],"split_conditions":[8.12417E-2,-1.2146743E-1,1.0996553E0,-5.418667E-1,9.704911E-2,-1.3101016E-1,7.7955596E-2,3.4880587E-1,3.251529E-1,-3.6835402E-1,1.6E2,5.41E2,-5.189544E-2,2.8315386E-1,3.5434955E-1,-4.5808416E-2,-2.7372846E-1,9.482333E-3,1.3024963E-1,3.9943323E-2,-4.5343854E-2,-3.488625E-2,-1.553884E-1,-9.308925E-3,-1.9328E-1,9.019383E-2,1.9120906E-2,-3.021855E-1,2.5496382E-1,6.9777507E-1,-1.330926E-1],"split_indices":[68,290,282,458,18,51,303,419,292,208,533,533,141,406,75,0,0,0,0,0,0,0,0,0,0,0,0,0,0,0,0],"split_type":[0,0,0,0,0,0,0,0,0,0,0,0,0,0,0,0,0,0,0,0,0,0,0,0,0,0,0,0,0,0,0],"sum_hessian":[1.067361E4,4.857308E3,5.816302E3,1.256016E3,3.6012922E3,5.792902E3,2.3400095E1,1.613952E2,1.0946207E3,3.0569524E3,5.443398E2,2.3213115E3,3.4715903E3,5.4963183E0,1.7903776E1,1.1923347E2,4.2161736E1,7.6852454E2,3.2609622E2,5.710011E2,2.4859512E3,1.9818222E2,3.461576E2,2.2551396E3,6.617174E1,7.896959E2,2.6818943E3,4.4024787E0,1.09384E0,1.5219521E1,2.6842563E0],"tree_param":{"num_deleted":"0","num_feature":"536","num_nodes":"31","size_leaf_vector":"0"}},{"base_weights":[-8.526697E-3,7.0068804E-3,-3.1041476E-1,-1.0576413E-1,4.9680043E-2,1.1657414E0,-3.7029725E-1,6.086606E-2,-1.9515166E-1,9.049112E-2,-9.599897E-2,-9.846675E-1,1.6901453E0,1.0203414E0,-4.0560907E-1,1.039163E-1,-8.913435E-3,4.9837533E-1,-6.0625553E-2,3.1446707E-2,-1.1490018E-1,2.1285509E-1,-3.7738703E-2,-9.3264E-2,-3.2874978E-1,6.357771E-1,-8.433351E-2,5.6210434E-1,-1.9870156E-1,-5.530398E-2,-1.7984238E-1],"categories":[],"categories_nodes":[],"categories_segments":[],"categories_sizes":[],"default_left":[0,0,0,0,0,0,0,0,0,0,0,0,0,0,0,0,0,0,0,0,0,0,0,0,0,0,0,0,0,0,0],"id":24,"left_children":[1,3,5,7,9,11,13,15,17,19,21,23,25,27,29,-1,-1,-1,-1,-1,-1,-1,-1,-1,-1,-1,-1,-1,-1,-1,-1],"loss_changes":[4.987144E1,4.868174E1,4.643624E1,4.1376396E1,4.364071E1,2.4815945E1,2.5011406E1,2.5106308E1,2.360395E1,3.89452E1,3.8648296E1,8.137226E-3,1.4868816E1,1.9460787E1,2.087461E1,0E0,0E0,0E0,0E0,0E0,0E0,0E0,0E0,0E0,0E0,0E0,0E0,0E0,0E0,0E0,0E0],"parents":[2147483647,0,0,1,1,2,2,3,3,4,4,5,5,6,6,7,7,8,8,9,9,10,10,11,11,12,12,13,13,14,14],"right_children":[2,4,6,8,10,12,14,16,18,20,22,24,26,28,30,-1,-1,-1,-1,-1,-1,-1,-1,-1,-1,-1,-1,-1,-1,-1,-1],"split_conditions":[1E0,-2.934489E-1,-1.0336688E0,-1.255311E-1,8.821166E-2,3.4025464E-2,-1.0738798E0,-3.662867E-2,-1.291436E0,5.36E2,-5.717514E-1,-1.992047E-1,4.6967825E-1,-2.768331E-1,2.4044884E-2,1.039163E-1,-8.913435E-3,4.9837533E-1,-6.0625553E-2,3.1446707E-2,-1.1490018E-1,2.1285509E-1,-3.7738703E-2,-9.3264E-2,-3.2874978E-1,6.357771E-1,-8.433351E-2,5.6210434E-1,-1.9870156E-1,-5.530398E-2,-1.7984238E-1],"split_indices":[512,272,101,426,111,498,18,120,163,533,297,436,204,462,163,0,0,0,0,0,0,0,0,0,0,0,0,0,0,0,0],"split_type":[0,0,0,0,0,0,0,0,0,0,0,0,0,0,0,0,0,0,0,0,0,0,0,0,0,0,0,0,0,0,0],"sum_hessian":[1.0633462E4,1.0114024E4,5.1943787E2,2.7761367E3,7.337887E3,1.9530348E1,4.999075E2,9.6938806E2,1.8067488E3,5.732376E3,1.6055112E3,3.6569011E0,1.5873446E1,1.1688772E1,4.8821872E2,2.3278159E2,7.366065E2,5.835122E0,1.8009136E3,5.5647266E3,1.6764954E2,5.645698E1,1.5490543E3,1.0555604E0,2.6013408E0,1.2974108E1,2.8993382E0,7.680328E0,4.008445E0,2.2891011E2,2.5930862E2],"tree_param":{"num_deleted":"0","num_feature":"536","num_nodes":"31","size_leaf_vector":"0"}},{"base_weights":[1.2727617E-2,-6.4600155E-2,7.151175E-2,-1.1012793E-1,1.3373317E-1,1.0200105E-1,-1.7253074E-1,-6.391331E-3,-2.1468364E-1,-5.3713894E-1,1.9605881E-1,-5.190897E-2,1.5884195E-1,1.2388287E0,-2.0110795E-1,-2.3411961E-1,4.3590926E-3,-7.064358E-3,-8.9292526E-2,8.125415E-2,-2.2811298E-1,3.3744067E-2,1.9884756E-1,-3.5702605E-2,8.7690994E-2,6.99854E-2,8.4150507E-4,7.607826E-1,-6.674451E-2,-1.1082949E-1,1.1525533E-2],"categories":[],"categories_nodes":[],"categories_segments":[],"categories_sizes":[],"default_left":[0,0,0,0,0,0,0,0,0,0,0,0,0,0,0,0,0,0,0,0,0,0,0,0,0,0,0,0,0,0,0],"id":25,"left_children":[1,3,5,7,9,11,13,15,17,19,21,23,25,27,29,-1,-1,-1,-1,-1,-1,-1,-1,-1,-1,-1,-1,-1,-1,-1,-1],"loss_changes":[4.8556293E1,4.167232E1,4.5171448E1,4.0700882E1,3.613746E1,4.7207294E1,2.7446903E1,3.0531832E1,2.9627045E1,1.3467148E1,3.0714771E1,3.366029E1,4.5769188E1,2.619614E1,2.6697138E1,0E0,0E0,0E0,0E0,0E0,0E0,0E0,0E0,0E0,0E0,0E0,0E0,0E0,0E0,0E0,0E0],"parents":[2147483647,0,0,1,1,2,2,3,3,4,4,5,5,6,6,7,7,8,8,9,9,10,10,11,11,12,12,13,13,14,14],"right_children":[2,4,6,8,10,12,14,16,18,20,22,24,26,28,30,-1,-1,-1,-1,-1,-1,-1,-1,-1,-1,-1,-1,-1,-1,-1,-1],"split_conditions":[-1.1371751E-1,4.8124155E-1,3.7098983E-1,-2.1635452E-2,-5.3764504E-1,-6.711924E-2,-9.3592787E-1,-7.02173E-1,-3.9767888E-1,-3.6830822E-1,3.3855045E-1,4.4190872E-1,3.3917296E-1,1.64E2,1.8923269E-1,-2.3411961E-1,4.3590926E-3,-7.064358E-3,-8.9292526E-2,8.125415E-2,-2.2811298E-1,3.3744067E-2,1.9884756E-1,-3.5702605E-2,8.7690994E-2,6.99854E-2,8.4150507E-4,7.607826E-1,-6.674451E-2,-1.1082949E-1,1.1525533E-2],"split_indices":[437,501,180,175,281,403,447,201,107,123,435,28,141,533,391,0,0,0,0,0,0,0,0,0,0,0,0,0,0,0,0],"split_type":[0,0,0,0,0,0,0,0,0,0,0,0,0,0,0,0,0,0,0,0,0,0,0,0,0,0,0,0,0,0,0],"sum_hessian":[1.0679918E4,4.61241E3,6.067508E3,3.7516555E3,8.6075464E2,5.3941724E3,6.733355E2,1.883737E3,1.8679183E3,7.252105E1,7.882336E2,1.4548672E3,3.9393052E3,1.2522628E1,6.6081287E2,4.8622448E1,1.8351146E3,5.6573846E2,1.3021798E3,1.5653069E1,5.6867985E1,6.695803E2,1.1865324E2,1.2180739E3,2.3679341E2,2.6666125E3,1.2726927E3,6.244441E0,6.2781873E0,3.8777048E2,2.730424E2],"tree_param":{"num_deleted":"0","num_feature":"536","num_nodes":"31","size_leaf_vector":"0"}},{"base_weights":[7.196167E-3,-4.3406803E-2,8.851921E-2,3.7530925E-2,-1.185881E-1,-1.1848591E-2,1.9038478E-1,8.459328E-2,-1.8314722E-1,-1.777803E-1,1.0140117E-1,2.6608056E-1,-6.7385055E-2,1.0009308E0,1.6592108E-1,1.3732995E-1,1.4640841E-2,-6.8116724E-2,2.6153073E-1,-6.025086E-2,8.7055095E-2,-2.790304E-2,1.144927E-1,1.0866258E-1,-2.902671E-1,-5.4525632E-2,2.8925795E-2,-3.728246E-2,4.7296688E-1,3.1183783E-3,8.5480876E-2],"categories":[],"categories_nodes":[],"categories_segments":[],"categories_sizes":[],"default_left":[0,0,0,0,0,0,0,0,0,0,0,0,0,0,0,0,0,0,0,0,0,0,0,0,0,0,0,0,0,0,0],"id":26,"left_children":[1,3,5,7,9,11,13,15,17,19,21,23,25,27,29,-1,-1,-1,-1,-1,-1,-1,-1,-1,-1,-1,-1,-1,-1,-1,-1],"loss_changes":[4.4026417E1,4.0134903E1,4.1957672E1,3.3007145E1,4.4543133E1,3.1937046E1,4.0218925E1,3.4956688E1,2.6076666E1,2.91324E1,3.956775E1,4.1216095E1,3.2320984E1,3.871485E1,3.6613503E1,0E0,0E0,0E0,0E0,0E0,0E0,0E0,0E0,0E0,0E0,0E0,0E0,0E0,0E0,0E0,0E0],"parents":[2147483647,0,0,1,1,2,2,3,3,4,4,5,5,6,6,7,7,8,8,9,9,10,10,11,11,12,12,13,13,14,14],"right_children":[2,4,6,8,10,12,14,16,18,20,22,24,26,28,30,-1,-1,-1,-1,-1,-1,-1,-1,-1,-1,-1,-1,-1,-1,-1,-1],"split_conditions":[1.4810817E-1,-1.7810532E-1,-1.3368165E-1,-7.303077E-2,5.503295E-1,-2.6290703E-1,-3.6547336E-1,-3.2324535E-1,7.048542E-1,7.9758716E-1,3.188767E-1,1.4580946E-1,-9.21888E-3,-3.4263015E-1,-5.3974606E-2,1.3732995E-1,1.4640841E-2,-6.8116724E-2,2.6153073E-1,-6.025086E-2,8.7055095E-2,-2.790304E-2,1.144927E-1,1.0866258E-1,-2.902671E-1,-5.4525632E-2,2.8925795E-2,-3.728246E-2,4.7296688E-1,3.1183783E-3,8.5480876E-2],"split_indices":[411,294,441,464,341,391,105,348,457,129,245,276,443,7,356,0,0,0,0,0,0,0,0,0,0,0,0,0,0,0,0],"split_type":[0,0,0,0,0,0,0,0,0,0,0,0,0,0,0,0,0,0,0,0,0,0,0,0,0,0,0,0,0,0,0],"sum_hessian":[1.0696588E4,6.5939756E3,4.102612E3,3.1756624E3,3.4183135E3,2.066943E3,2.0356685E3,2.6179653E3,5.5769696E2,2.693712E3,7.2460144E2,3.4360416E2,1.7233391E3,5.8470592E1,1.9771979E3,2.2807957E2,2.3898857E3,5.361651E2,2.1531895E1,2.5677725E3,1.25939514E2,4.2820883E2,2.9639264E2,3.194205E2,2.418364E1,1.01474304E3,7.08596E2,2.0054024E1,3.841657E1,8.575965E2,1.1196013E3],"tree_param":{"num_deleted":"0","num_feature":"536","num_nodes":"31","size_leaf_vector":"0"}},{"base_weights":[-1.1845569E-2,-4.835714E-1,-1.7216469E-3,-5.3840774E-1,1.0808594E0,-7.7037436E-1,4.8343204E-3,-6.330313E-1,4.0543377E-1,7.718591E-1,-1.567019E-1,5.449115E-1,-8.6308E-1,6.8160824E-2,-5.8327895E-2,-6.587033E-2,-2.3639058E-1,-3.173676E-1,2.9524577E-1,3.377359E-1,-2.3406366E-1,8.377378E-1,-1.8794493E-1,2.5114763E-1,-2.7278772E-1,7.6912944E-3,7.596554E-2,-6.8357974E-2,-1.1001498E-3],"categories":[],"categories_nodes":[],"categories_segments":[],"categories_sizes":[],"default_left":[0,0,0,0,0,0,0,0,0,0,0,0,0,0,0,0,0,0,0,0,0,0,0,0,0,0,0,0,0],"id":27,"left_children":[1,3,5,7,9,11,13,15,17,-1,19,21,23,25,27,-1,-1,-1,-1,-1,-1,-1,-1,-1,-1,-1,-1,-1,-1],"loss_changes":[5.0435932E1,1.9617416E1,5.2110703E1,1.9462147E1,1.4891876E1,1.1133919E1,4.1017345E1,1.2372658E1,1.8151047E1,0E0,5.0618696E0,1.8523184E1,7.210621E0,4.028932E1,4.7575283E1,0E0,0E0,0E0,0E0,0E0,0E0,0E0,0E0,0E0,0E0,0E0,0E0,0E0,0E0],"parents":[2147483647,0,0,1,1,2,2,3,3,4,4,5,5,6,6,7,7,8,8,10,10,11,11,12,12,13,13,14,14],"right_children":[2,4,6,8,10,12,14,16,18,-1,20,22,24,26,28,-1,-1,-1,-1,-1,-1,-1,-1,-1,-1,-1,-1,-1,-1],"split_conditions":[-4.8980242E-1,7.449843E-1,2.9822213E-3,4.942862E-1,-5.657305E-1,9.26E1,-8.22082E-3,-2.7355787E-1,-2.2088216E-1,7.718591E-1,-1.3321546E-1,-3.31647E-1,-1.3119305E0,4.0996084E-1,-4.517995E-2,-6.587033E-2,-2.3639058E-1,-3.173676E-1,2.9524577E-1,3.377359E-1,-2.3406366E-1,8.377378E-1,-1.8794493E-1,2.5114763E-1,-2.7278772E-1,7.6912944E-3,7.596554E-2,-6.8357974E-2,-1.1001498E-3],"split_indices":[121,211,535,495,239,532,230,107,115,0,319,471,413,361,359,0,0,0,0,0,0,0,0,0,0,0,0,0,0],"split_type":[0,0,0,0,0,0,0,0,0,0,0,0,0,0,0,0,0,0,0,0,0,0,0,0,0,0,0,0,0],"sum_hessian":[1.0560091E4,2.2089061E2,1.03392E4,2.1404381E2,6.846803E0,8.6453674E1,1.0252746E4,1.9483972E2,1.9204094E1,2.6150818E0,4.2317214E0,5.371155E0,8.108252E1,5.1196753E3,5.1330713E3,5.376917E1,1.4107056E2,5.207818E0,1.3996276E1,1.1208014E0,3.1109202E0,1.3661176E0,4.0050373E0,1.6926168E0,7.938991E1,4.1639966E3,9.5567896E2,1.2507284E3,3.8823428E3],"tree_param":{"num_deleted":"0","num_feature":"536","num_nodes":"29","size_leaf_vector":"0"}},{"base_weights":[-5.2648974E-3,3.4665594E-1,-1.8368753E-2,2.3980045E-1,1.1766721E0,-7.618681E-2,5.2847553E-2,4.9257448E-1,-1.3292678E-1,4.5666495E-1,1.8115572E0,-2.502057E-2,-1.9334269E-1,2.3553162E-3,2.2123513E-1,1.4798497E-2,2.580392E-1,2.566307E-1,-8.352589E-2,-2.154397E-1,2.8984588E-1,6.0323644E-1,-1.2171885E-1,7.7142003E-3,-5.0377507E-2,-6.4056806E-2,1.8700552E-1,-2.1731487E-2,3.9389845E-2,4.9438134E-2,2.9251662E-1],"categories":[],"categories_nodes":[],"categories_segments":[],"categories_sizes":[],"default_left":[0,0,0,0,0,0,0,0,0,0,0,0,0,0,0,0,0,0,0,0,0,0,0,0,0,0,0,0,0,0,0],"id":28,"left_children":[1,3,5,7,9,11,13,15,17,19,21,23,25,27,29,-1,-1,-1,-1,-1,-1,-1,-1,-1,-1,-1,-1,-1,-1,-1,-1],"loss_changes":[4.8609467E1,3.3279068E1,4.1847347E1,3.1769072E1,1.8784634E1,3.361817E1,3.8719204E1,3.2659744E1,1.9905926E1,1.3527144E1,1.0738548E1,2.8317543E1,2.8231033E1,3.38077E1,4.45362E1,0E0,0E0,0E0,0E0,0E0,0E0,0E0,0E0,0E0,0E0,0E0,0E0,0E0,0E0,0E0,0E0],"parents":[2147483647,0,0,1,1,2,2,3,3,4,4,5,5,6,6,7,7,8,8,9,9,10,10,11,11,12,12,13,13,14,14],"right_children":[2,4,6,8,10,12,14,16,18,20,22,24,26,28,30,-1,-1,-1,-1,-1,-1,-1,-1,-1,-1,-1,-1,-1,-1,-1,-1],"split_conditions":[7.2E1,2.0626377E-1,2.2478902E-3,-2.3977455E-1,4.1080967E-2,3.029913E-2,6.391446E-1,1.7685413E-1,-3.5120052E-1,-1.1348616E-1,5.695025E-1,2.3377886E-1,6.624742E-1,1.54024E-1,7.4424934E-1,1.4798497E-2,2.580392E-1,2.566307E-1,-8.352589E-2,-2.154397E-1,2.8984588E-1,6.0323644E-1,-1.2171885E-1,7.7142003E-3,-5.0377507E-2,-6.4056806E-2,1.8700552E-1,-2.1731487E-2,3.9389845E-2,4.9438134E-2,2.9251662E-1],"split_indices":[533,397,277,315,229,208,460,91,368,278,344,510,255,440,94,0,0,0,0,0,0,0,0,0,0,0,0,0,0,0,0],"split_type":[0,0,0,0,0,0,0,0,0,0,0,0,0,0,0,0,0,0,0,0,0,0,0,0,0,0,0,0,0,0,0],"sum_hessian":[1.0538497E4,3.7740292E2,1.0161094E4,3.354999E2,4.1903027E1,5.608046E3,4.5530483E3,1.9972798E2,1.3577193E2,2.0440855E1,2.1462172E1,3.904167E3,1.7038785E3,3.5035095E3,1.0495387E3,9.105565E1,1.08672325E2,1.679571E1,1.1897622E2,6.0593805E0,1.43814745E1,1.9778166E1,1.6840055E0,2.8818574E3,1.02230975E3,1.6635128E3,4.036581E1,2.2176233E3,1.2858864E3,9.7756354E2,7.1975235E1],"tree_param":{"num_deleted":"0","num_feature":"536","num_nodes":"31","size_leaf_vector":"0"}},{"base_weights":[1.3445173E-3,3.851693E-2,-1.0906945E-1,-3.714771E-2,1.0000268E-1,1.22946166E-1,-1.7924602E-1,8.2265146E-2,-1.2159495E-1,-2.257618E-1,1.3227637E-1,6.940212E-1,2.753299E-2,4.3496212E-1,-1.9779544E-1,1.9678747E-2,3.703258E-1,1.4054967E-1,-4.450882E-2,-3.0227972E-2,-1.9692804E-1,8.26957E-2,2.3139488E-2,3.294076E-1,-2.1184795E-2,-1.8390985E-1,3.3952776E-2,3.7912777E-1,-3.8133515E-3,-8.30478E-2,-1.3393381E-2],"categories":[],"categories_nodes":[],"categories_segments":[],"categories_sizes":[],"default_left":[0,0,0,0,0,0,0,0,0,0,0,0,0,0,0,0,0,0,0,0,0,0,0,0,0,0,0,0,0,0,0],"id":29,"left_children":[1,3,5,7,9,11,13,15,17,19,21,23,25,27,29,-1,-1,-1,-1,-1,-1,-1,-1,-1,-1,-1,-1,-1,-1,-1,-1],"loss_changes":[4.3218925E1,3.665363E1,4.3205116E1,3.563125E1,4.5726124E1,3.3572647E1,2.3290459E1,2.80336E1,3.27591E1,2.104507E1,3.1250519E1,2.732869E1,2.9105755E1,2.2284779E1,2.3924591E1,0E0,0E0,0E0,0E0,0E0,0E0,0E0,0E0,0E0,0E0,0E0,0E0,0E0,0E0,0E0,0E0],"parents":[2147483647,0,0,1,1,2,2,3,3,4,4,5,5,6,6,7,7,8,8,9,9,10,10,11,11,12,12,13,13,14,14],"right_children":[2,4,6,8,10,12,14,16,18,20,22,24,26,28,30,-1,-1,-1,-1,-1,-1,-1,-1,-1,-1,-1,-1,-1,-1,-1,-1],"split_conditions":[2.0379895E-1,7.388311E-2,-6.815396E-2,1.66E2,-4.2515463E-1,-5.645068E-1,-1.0806873E0,1.1295027E0,-6.55894E-1,1.0488534E-1,-2.6742458E-1,2.08E2,-4.5800462E-1,-9.9033415E-2,2.0394588E-1,1.9678747E-2,3.703258E-1,1.4054967E-1,-4.450882E-2,-3.0227972E-2,-1.9692804E-1,8.26957E-2,2.3139488E-2,3.294076E-1,-2.1184795E-2,-1.8390985E-1,3.3952776E-2,3.7912777E-1,-3.8133515E-3,-8.30478E-2,-1.3393381E-2],"split_indices":[61,70,234,533,80,177,101,27,394,102,389,533,495,39,109,0,0,0,0,0,0,0,0,0,0,0,0,0,0,0,0],"split_type":[0,0,0,0,0,0,0,0,0,0,0,0,0,0,0,0,0,0,0,0,0,0,0,0,0,0,0,0,0,0,0],"sum_hessian":[1.0527997E4,7.8768096E3,2.6511875E3,3.531422E3,4.3453877E3,6.1549725E2,2.0356902E3,1.4628711E3,2.068551E3,3.911543E2,3.9542332E3,8.721526E1,5.28282E2,5.901859E1,1.9766716E3,1.4430499E3,1.9821062E1,8.904554E1,1.9795055E3,3.0411725E2,8.703705E1,1.0972894E3,2.8569438E3,5.677931E1,3.0435951E1,6.157489E1,4.6670712E2,2.005919E1,3.8959396E1,1.3033138E3,6.733578E2],"tree_param":{"num_deleted":"0","num_feature":"536","num_nodes":"31","size_leaf_vector":"0"}},{"base_weights":[-6.177572E-3,3.0203393E-2,-1.162788E-1,1.5951654E-2,3.5430396E-1,-2.4116561E-1,-2.3237258E-2,-3.7030447E-2,1.1068361E-1,5.906329E-1,-1.6715401E-1,4.2418364E-2,-3.1837583E-1,5.2036613E-1,-6.0165983E-2,-2.663422E-2,4.2353623E-2,1.7150848E-1,2.3133062E-2,9.584377E-2,3.4044185E-1,-9.154728E-2,4.472756E-1,2.0217372E-1,-3.360409E-2,-8.1866205E-2,-2.3412682E-1,3.7688203E-3,3.683151E-1,1.1541334E-1,-2.9589418E-2],"categories":[],"categories_nodes":[],"categories_segments":[],"categories_sizes":[],"default_left":[0,0,0,0,0,0,0,0,0,0,0,0,0,0,0,0,0,0,0,0,0,0,0,0,0,0,0,0,0,0,0],"id":30,"left_children":[1,3,5,7,9,11,13,15,17,19,21,23,25,27,29,-1,-1,-1,-1,-1,-1,-1,-1,-1,-1,-1,-1,-1,-1,-1,-1],"loss_changes":[4.183751E1,3.6257187E1,3.0136967E1,3.7753586E1,4.0844944E1,2.426088E1,2.9896093E1,4.4503338E1,4.1713955E1,3.3241898E1,2.4228027E1,2.3273146E1,1.8083893E1,3.4014175E1,2.3891796E1,0E0,0E0,0E0,0E0,0E0,0E0,0E0,0E0,0E0,0E0,0E0,0E0,0E0,0E0,0E0,0E0],"parents":[2147483647,0,0,1,1,2,2,3,3,4,4,5,5,6,6,7,7,8,8,9,9,10,10,11,11,12,12,13,13,14,14],"right_children":[2,4,6,8,10,12,14,16,18,20,22,24,26,28,30,-1,-1,-1,-1,-1,-1,-1,-1,-1,-1,-1,-1,-1,-1,-1,-1],"split_conditions":[1.6646919E-1,1E0,5.2351404E-2,2.0323616E-1,1.7590675E-1,-5.2483374E-1,-5.898658E-1,6.864392E-1,-4.0154308E-1,6.8908083E-1,7.5475514E-1,-2.114987E-1,4.0664428E-1,6.678522E-2,-9.7228605E-1,-2.663422E-2,4.2353623E-2,1.7150848E-1,2.3133062E-2,9.584377E-2,3.4044185E-1,-9.154728E-2,4.472756E-1,2.0217372E-1,-3.360409E-2,-8.1866205E-2,-2.3412682E-1,3.7688203E-3,3.683151E-1,1.1541334E-1,-2.9589418E-2],"split_indices":[206,531,504,71,183,360,103,535,234,446,67,175,277,505,122,0,0,0,0,0,0,0,0,0,0,0,0,0,0,0,0],"split_type":[0,0,0,0,0,0,0,0,0,0,0,0,0,0,0,0,0,0,0,0,0,0,0,0,0,0,0,0,0,0,0],"sum_hessian":[1.0442906E4,7.8498057E3,2.593101E3,7.520169E3,3.2963663E2,1.1064094E3,1.4866917E3,4.823224E3,2.6969446E3,2.2674246E2,1.0289417E2,2.3686885E2,8.695405E2,9.3738464E1,1.3929531E3,3.7381904E3,1.0850337E3,1.8198605E2,2.5149585E3,1.5239386E2,7.434859E1,9.574144E1,7.152731E0,4.5883007E1,1.9098586E2,7.9305493E2,7.648561E1,5.515834E1,3.858012E1,1.10137764E2,1.2828154E3],"tree_param":{"num_deleted":"0","num_feature":"536","num_nodes":"31","size_leaf_vector":"0"}},{"base_weights":[-1.1232063E-3,-5.204502E-2,8.565486E-2,-5.853071E-2,6.1679804E-1,-1.9270639E-1,1.1728079E-1,1.6869372E-2,-1.15446635E-1,1.1366562E0,-3.4320244E-1,-4.504347E-1,8.016643E-2,2.3653163E-1,3.616652E-2,1.4603655E-2,-8.465703E-2,-5.7750292E-2,-1.1096036E-2,1.4196356E-1,5.8566266E-1,2.666759E-1,-2.2136368E-1,6.3121015E-1,-1.523593E-1,-6.787449E-2,2.4429129E-1,3.9479346E-3,1.08881004E-1,3.983827E-2,-4.4639617E-2],"categories":[],"categories_nodes":[],"categories_segments":[],"categories_sizes":[],"default_left":[0,0,0,0,0,0,0,0,0,0,0,0,0,0,0,0,0,0,0,0,0,0,0,0,0,0,0,0,0,0,0],"id":31,"left_children":[1,3,5,7,9,11,13,15,17,19,21,23,25,27,29,-1,-1,-1,-1,-1,-1,-1,-1,-1,-1,-1,-1,-1,-1,-1,-1],"loss_changes":[4.6370567E1,2.872306E1,3.418525E1,2.8113136E1,3.2129128E1,2.7906065E1,3.3704704E1,2.6826624E1,2.2560848E1,2.152428E1,1.1893603E1,3.098875E1,4.3675903E1,3.982926E1,3.711517E1,0E0,0E0,0E0,0E0,0E0,0E0,0E0,0E0,0E0,0E0,0E0,0E0,0E0,0E0,0E0,0E0],"parents":[2147483647,0,0,1,1,2,2,3,3,4,4,5,5,6,6,7,7,8,8,9,9,10,10,11,11,12,12,13,13,14,14],"right_children":[2,4,6,8,10,12,14,16,18,20,22,24,26,28,30,-1,-1,-1,-1,-1,-1,-1,-1,-1,-1,-1,-1,-1,-1,-1,-1],"split_conditions":[1.5398006E-1,1.0031643E0,-4.8579922E-1,-1.7610514E-1,1.4293842E-1,1.8167385E-1,-2.4921301E-1,3.8627782E-1,2.3085739E-1,2.8292003E-1,-4.3369892E-1,-8.4004974E-1,3.709749E-1,-1.6123132E-1,8.490024E-2,1.4603655E-2,-8.465703E-2,-5.7750292E-2,-1.1096036E-2,1.4196356E-1,5.8566266E-1,2.666759E-1,-2.2136368E-1,6.3121015E-1,-1.523593E-1,-6.787449E-2,2.4429129E-1,3.9479346E-3,1.08881004E-1,3.983827E-2,-4.4639617E-2],"split_indices":[190,353,499,328,1,338,107,180,316,418,260,58,21,401,20,0,0,0,0,0,0,0,0,0,0,0,0,0,0,0,0],"split_type":[0,0,0,0,0,0,0,0,0,0,0,0,0,0,0,0,0,0,0,0,0,0,0,0,0,0,0,0,0,0,0],"sum_hessian":[1.0491689E4,6.612085E3,3.8796047E3,6.549488E3,6.25971E1,3.9529062E2,3.4843142E3,2.8175745E3,3.7319133E3,4.0488052E1,2.2109047E1,2.0295189E2,1.9233875E2,1.4097872E3,2.074527E3,2.5474517E3,2.7012265E2,1.8820875E3,1.8498257E3,2.3197414E1,1.7290638E1,5.060047E0,1.7049E1,3.6788754E0,1.9927301E2,1.3618826E2,5.6150486E1,5.098787E2,8.9990857E2,1.3628451E3,7.1168195E2],"tree_param":{"num_deleted":"0","num_feature":"536","num_nodes":"31","size_leaf_vector":"0"}},{"base_weights":[6.813469E-3,1.21551625E-1,-2.6208293E-2,2.7580455E-2,2.7786008E-1,-7.709325E-1,-1.9832123E-2,7.8058034E-2,-3.7346992E-1,5.9861565E-1,1.6160406E-1,5.0484544E-1,-8.899531E-1,-1.3071711E-1,1.6401393E-2,3.0247265E-2,-2.4787928E-1,-1.420739E-1,3.221332E-1,2.388547E-1,-8.032943E-2,5.4591584E-1,4.1527174E-2,6.19592E-1,-3.0084166E-1,3.922338E-1,-2.8841826E-1,-8.7835394E-2,-9.768397E-3,1.0481312E-2,-9.3085945E-2],"categories":[],"categories_nodes":[],"categories_segments":[],"categories_sizes":[],"default_left":[0,0,0,0,0,0,0,0,0,0,0,0,0,0,0,0,0,0,0,0,0,0,0,0,0,0,0,0,0,0,0],"id":32,"left_children":[1,3,5,7,9,11,13,15,17,19,21,23,25,27,29,-1,-1,-1,-1,-1,-1,-1,-1,-1,-1,-1,-1,-1,-1,-1,-1],"loss_changes":[3.9566296E1,3.4271965E1,3.849112E1,2.9557835E1,3.257431E1,1.0898178E1,3.2310425E1,2.6773487E1,2.4158983E1,4.004487E1,2.4517195E1,1.7386768E1,1.119463E1,3.1497688E1,3.6718437E1,0E0,0E0,0E0,0E0,0E0,0E0,0E0,0E0,0E0,0E0,0E0,0E0,0E0,0E0,0E0,0E0],"parents":[2147483647,0,0,1,1,2,2,3,3,4,4,5,5,6,6,7,7,8,8,9,9,10,10,11,11,12,12,13,13,14,14],"right_children":[2,4,6,8,10,12,14,16,18,20,22,24,26,28,30,-1,-1,-1,-1,-1,-1,-1,-1,-1,-1,-1,-1,-1,-1,-1,-1],"split_conditions":[-2.6558498E-1,2.4389751E-1,-8.298106E-1,4.9645928E-1,-1.8855228E-1,-5.587821E-1,-1.6029024E-1,6.305259E-1,7.8396255E-1,3.4642568E-1,-1.0127676E0,-2.2741213E-1,-8.949938E-1,3.6083797E-1,5.2713233E-1,3.0247265E-2,-2.4787928E-1,-1.420739E-1,3.221332E-1,2.388547E-1,-8.032943E-2,5.4591584E-1,4.1527174E-2,6.19592E-1,-3.0084166E-1,3.922338E-1,-2.8841826E-1,-8.7835394E-2,-9.768397E-3,1.0481312E-2,-9.3085945E-2],"split_indices":[296,229,499,465,459,74,352,133,414,450,66,432,62,535,61,0,0,0,0,0,0,0,0,0,0,0,0,0,0,0,0],"split_type":[0,0,0,0,0,0,0,0,0,0,0,0,0,0,0,0,0,0,0,0,0,0,0,0,0,0,0,0,0,0,0],"sum_hessian":[1.0440968E4,2.332775E3,8.108193E3,1.457635E3,8.7513995E2,6.7813385E1,8.0403794E3,1.2953972E3,1.6223778E2,2.3170534E2,6.4343463E2,5.5100174E0,6.230337E1,1.9796063E3,6.0607734E3,1.2644532E3,3.0943916E1,1.523707E2,9.86709E0,1.8874544E2,4.295989E1,7.802543E0,6.356321E2,2.5258293E0,2.984188E0,1.4170318E0,6.0886337E1,7.4595624E2,1.2336501E3,5.736194E3,3.2457935E2],"tree_param":{"num_deleted":"0","num_feature":"536","num_nodes":"31","size_leaf_vector":"0"}},{"base_weights":[-1.0009767E-2,1.1053024E-2,-1.5144607E-1,-3.768108E-2,7.383496E-2,-4.7658777E-1,-8.2586594E-2,1.5859705E-1,-8.901776E-2,1.4036739E-1,-8.632936E-2,-5.220034E-1,1.390149E0,9.320478E-1,-1.04704395E-1,6.5358534E-2,-8.4919125E-2,-3.5258334E-3,-5.910678E-2,4.7320195E-2,-1.5537871E-1,1.2221437E-2,-8.764408E-2,4.1862495E-2,-1.8541126E-1,6.4709485E-1,-2.3136227E-1,2.9765237E-2,6.1168826E-1,-1.9930577E-2,-1.8590245E-1],"categories":[],"categories_nodes":[],"categories_segments":[],"categories_sizes":[],"default_left":[0,0,0,0,0,0,0,0,0,0,0,0,0,0,0,0,0,0,0,0,0,0,0,0,0,0,0,0,0,0,0],"id":33,"left_children":[1,3,5,7,9,11,13,15,17,19,21,23,25,27,29,-1,-1,-1,-1,-1,-1,-1,-1,-1,-1,-1,-1,-1,-1,-1,-1],"loss_changes":[3.118837E1,2.788419E1,3.0342596E1,5.171525E1,4.245244E1,2.0814274E1,2.5255512E1,2.7915398E1,3.3943783E1,3.2254936E1,3.0597319E1,1.4828693E1,1.1443584E1,2.1938349E1,2.1598202E1,0E0,0E0,0E0,0E0,0E0,0E0,0E0,0E0,0E0,0E0,0E0,0E0,0E0,0E0,0E0,0E0],"parents":[2147483647,0,0,1,1,2,2,3,3,4,4,5,5,6,6,7,7,8,8,9,9,10,10,11,11,12,12,13,13,14,14],"right_children":[2,4,6,8,10,12,14,16,18,20,22,24,26,28,30,-1,-1,-1,-1,-1,-1,-1,-1,-1,-1,-1,-1,-1,-1,-1,-1],"split_conditions":[4.7368348E-1,1.5273498E-1,-2.1547757E-1,-1.2225578E-1,1.9762318E-1,5.499028E-1,-8.341484E-1,3.6005598E-1,9.714253E-2,6.048364E-1,-1.24512E-1,-3.001306E-1,1.15437336E-1,3.07E2,2.5526652E-1,6.5358534E-2,-8.4919125E-2,-3.5258334E-3,-5.910678E-2,4.7320195E-2,-1.5537871E-1,1.2221437E-2,-8.764408E-2,4.1862495E-2,-1.8541126E-1,6.4709485E-1,-2.3136227E-1,2.9765237E-2,6.1168826E-1,-1.9930577E-2,-1.8590245E-1],"split_indices":[348,292,297,408,287,466,394,181,178,500,360,55,358,533,77,0,0,0,0,0,0,0,0,0,0,0,0,0,0,0,0],"split_type":[0,0,0,0,0,0,0,0,0,0,0,0,0,0,0,0,0,0,0,0,0,0,0,0,0,0,0,0,0,0,0],"sum_hessian":[1.0467696E4,9.111698E3,1.3559984E3,5.129981E3,3.9817173E3,2.359526E2,1.1200458E3,1.0631387E3,4.066842E3,2.8132244E3,1.1684928E3,2.3105174E2,4.900866E0,2.301709E1,1.0970287E3,9.3780505E2,1.2533364E2,2.3714514E3,1.6953906E3,2.741657E3,7.156756E1,7.2295654E2,4.455363E2,2.9231718E1,2.0182002E2,3.618922E0,1.2819439E0,1.3756483E1,9.260607E0,1.022195E3,7.483365E1],"tree_param":{"num_deleted":"0","num_feature":"536","num_nodes":"31","size_leaf_vector":"0"}},{"base_weights":[4.1415496E-3,-9.7783476E-2,3.6179427E-2,6.950892E-2,-1.7289968E-1,-2.288537E-1,5.196168E-2,2.3216254E-4,6.246235E-1,-7.854556E-2,-3.400485E-1,-2.613629E-1,1.4380833E0,-1.5825938E-2,1.1783798E-1,-2.1899307E-2,1.3770221E-1,-6.2052865E-2,3.2243598E-1,1.0733356E-2,-8.364147E-2,-1.2119841E-1,1.0324751E-1,-1.7333882E-1,-3.631986E-2,-2.3500364E-1,8.3001727E-1,-1.9400299E-2,4.5957994E-2,5.578732E-2,-1.5330606E-2],"categories":[],"categories_nodes":[],"categories_segments":[],"categories_sizes":[],"default_left":[0,0,0,0,0,0,0,0,0,0,0,0,0,0,0,0,0,0,0,0,0,0,0,0,0,0,0,0,0,0,0],"id":34,"left_children":[1,3,5,7,9,11,13,15,17,19,21,23,25,27,29,-1,-1,-1,-1,-1,-1,-1,-1,-1,-1,-1,-1,-1,-1,-1,-1],"loss_changes":[3.416388E1,3.1454258E1,3.3307186E1,2.9843973E1,2.721085E1,2.462894E1,3.3553963E1,2.3246525E1,3.2450207E1,2.5312855E1,2.738993E1,1.9456303E1,2.7889757E1,3.0586256E1,4.3862095E1,0E0,0E0,0E0,0E0,0E0,0E0,0E0,0E0,0E0,0E0,0E0,0E0,0E0,0E0,0E0,0E0],"parents":[2147483647,0,0,1,1,2,2,3,3,4,4,5,5,6,6,7,7,8,8,9,9,10,10,11,11,12,12,13,13,14,14],"right_children":[2,4,6,8,10,12,14,16,18,20,22,24,26,28,30,-1,-1,-1,-1,-1,-1,-1,-1,-1,-1,-1,-1,-1,-1,-1,-1],"split_conditions":[-3.6229298E-1,-2.8218824E-1,-6.5137684E-1,8.7877303E-1,-4.133018E-2,7.2738737E-1,4.2296827E-2,4.903355E-1,-1.20760985E-1,2.2777903E-1,3.327406E-1,-1.9488202E-1,-2.2691531E-2,2.896196E-1,1.3831058E-1,-2.1899307E-2,1.3770221E-1,-6.2052865E-2,3.2243598E-1,1.0733356E-2,-8.364147E-2,-1.2119841E-1,1.0324751E-1,-1.7333882E-1,-3.631986E-2,-2.3500364E-1,8.3001727E-1,-1.9400299E-2,4.5957994E-2,5.578732E-2,-1.5330606E-2],"split_indices":[410,65,272,88,107,236,352,233,155,57,415,20,438,23,56,0,0,0,0,0,0,0,0,0,0,0,0,0,0,0,0],"split_type":[0,0,0,0,0,0,0,0,0,0,0,0,0,0,0,0,0,0,0,0,0,0,0,0,0,0,0,0,0,0,0],"sum_hessian":[1.0460106E4,2.5010942E3,7.959012E3,7.75048E2,1.7260461E3,4.4654984E2,7.5124624E3,6.899452E2,8.510282E1,1.1042028E3,6.218434E2,4.3883475E2,7.7151027E0,3.7028938E3,3.8095686E3,5.957002E2,9.424498E1,3.00816E1,5.5021217E1,7.0344415E2,4.0075867E2,5.690677E2,5.277569E1,1.3384186E2,3.049929E2,3.0410378E0,4.674065E0,2.87323E3,8.296638E2,2.7148071E3,1.0947614E3],"tree_param":{"num_deleted":"0","num_feature":"536","num_nodes":"31","size_leaf_vector":"0"}},{"base_weights":[-5.2619386E-3,-2.3531228E-1,1.3195638E-2,-2.7607688E-1,7.366591E-1,2.7363794E-2,-2.5499266E-1,-4.204966E-1,-5.578433E-2,1.6232845E0,-1.7601983E-1,-5.9733866E-3,1.3745677E-1,-4.297386E-1,9.523681E-2,2.3403993E-1,-1.3465162E-1,-1.0022508E-1,6.29971E-2,6.2873566E-1,-1.9639246E-1,2.1048717E-1,-2.6333627E-1,-7.819864E-3,7.6148316E-2,2.0579636E-2,1.1381263E-1,-1.6401686E-1,5.947199E-2,-3.9083883E-2,4.0885416E-1],"categories":[],"categories_nodes":[],"categories_segments":[],"categories_sizes":[],"default_left":[0,0,0,0,0,0,0,0,0,0,0,0,0,0,0,0,0,0,0,0,0,0,0,0,0,0,0,0,0,0,0],"id":35,"left_children":[1,3,5,7,9,11,13,15,17,19,21,23,25,27,29,-1,-1,-1,-1,-1,-1,-1,-1,-1,-1,-1,-1,-1,-1,-1,-1],"loss_changes":[4.4408836E1,3.0981495E1,3.6796127E1,2.3718296E1,2.580807E1,3.375596E1,2.978008E1,1.5683235E1,2.2012308E1,1.8696686E1,1.0743675E1,3.686289E1,3.558397E1,2.3936935E1,4.6649754E1,0E0,0E0,0E0,0E0,0E0,0E0,0E0,0E0,0E0,0E0,0E0,0E0,0E0,0E0,0E0,0E0],"parents":[2147483647,0,0,1,1,2,2,3,3,4,4,5,5,6,6,7,7,8,8,9,9,10,10,11,11,12,12,13,13,14,14],"right_children":[2,4,6,8,10,12,14,16,18,20,22,24,26,28,30,-1,-1,-1,-1,-1,-1,-1,-1,-1,-1,-1,-1,-1,-1,-1,-1],"split_conditions":[-4.4228488E-1,6.57714E-1,4.63E2,4.300083E-1,-1.7848875E-1,3.3905005E-1,3.1747743E-1,-8.9747214E-1,-1.0686157E-2,2.9926622E-1,1.4193133E-1,1E0,1.3207076E-1,1.56905E-1,4.3068102E-1,2.3403993E-1,-1.3465162E-1,-1.0022508E-1,6.29971E-2,6.2873566E-1,-1.9639246E-1,2.1048717E-1,-2.6333627E-1,-7.819864E-3,7.6148316E-2,2.0579636E-2,1.1381263E-1,-1.6401686E-1,5.947199E-2,-3.9083883E-2,4.0885416E-1],"split_indices":[448,87,533,156,327,71,109,38,76,416,504,526,394,331,353,0,0,0,0,0,0,0,0,0,0,0,0,0,0,0,0],"split_type":[0,0,0,0,0,0,0,0,0,0,0,0,0,0,0,0,0,0,0,0,0,0,0,0,0,0,0,0,0,0,0],"sum_hessian":[1.0456827E4,7.7579346E2,9.681033E3,7.452534E2,3.0540045E1,9.196108E3,4.849245E2,4.4959705E2,2.9565637E2,1.5096197E1,1.5443849E1,7.059402E3,2.1367068E3,3.2335864E2,1.6156584E2,9.756721E0,4.3984033E2,1.4429962E2,1.5135675E2,1.25690155E1,2.5271816E0,6.8621373E0,8.581711E0,6.553462E3,5.059402E2,1.6642812E3,4.7242557E2,2.726895E2,5.066912E1,1.3792525E2,2.3640606E1],"tree_param":{"num_deleted":"0","num_feature":"536","num_nodes":"31","size_leaf_vector":"0"}},{"base_weights":[-1.9563088E-2,6.69103E-2,-5.1861018E-2,-5.9872005E-2,1.6956118E-1,-2.5228387E-1,-2.807155E-2,-2.9031238E-1,2.9127676E-2,3.132703E-2,3.0030537E-1,-4.21918E-1,-2.9254919E-2,2.9889623E-2,-1.1697772E-1,-1.4463881E-2,-1.6837145E-1,-1.1030295E-1,2.9479926E-2,4.586968E-2,-7.256267E-2,5.7915747E-2,2.1104588E-1,-1.3544296E-1,3.1924614E-1,1.601001E-2,-2.2225223E-1,-4.5092646E-2,2.2720214E-2,-4.365254E-2,1.3788475E-1],"categories":[],"categories_nodes":[],"categories_segments":[],"categories_sizes":[],"default_left":[0,0,0,0,0,0,0,0,0,0,0,0,0,0,0,0,0,0,0,0,0,0,0,0,0,0,0,0,0,0,0],"id":36,"left_children":[1,3,5,7,9,11,13,15,17,19,21,23,25,27,29,-1,-1,-1,-1,-1,-1,-1,-1,-1,-1,-1,-1,-1,-1,-1,-1],"loss_changes":[2.883867E1,3.65543E1,3.5835663E1,2.5789793E1,2.8039097E1,3.0159431E1,3.46372E1,2.2951069E1,2.4939627E1,2.5129099E1,3.4348015E1,2.0374283E1,2.0358097E1,3.3628384E1,4.3704178E1,0E0,0E0,0E0,0E0,0E0,0E0,0E0,0E0,0E0,0E0,0E0,0E0,0E0,0E0,0E0,0E0],"parents":[2147483647,0,0,1,1,2,2,3,3,4,4,5,5,6,6,7,7,8,8,9,9,10,10,11,11,12,12,13,13,14,14],"right_children":[2,4,6,8,10,12,14,16,18,20,22,24,26,28,30,-1,-1,-1,-1,-1,-1,-1,-1,-1,-1,-1,-1,-1,-1,-1,-1],"split_conditions":[-2.0515709E-1,2.9520094E-3,-2.8738135E-1,-1.8481691E-1,1.2328625E-1,2.5324187E-1,1.4620516E-1,2.23E2,-1.9592267E-1,8.8593036E-2,4.0727162E-1,7.313364E-1,4.5086655E-1,-2.8350297E-1,7.1567047E-1,-1.4463881E-2,-1.6837145E-1,-1.1030295E-1,2.9479926E-2,4.586968E-2,-7.256267E-2,5.7915747E-2,2.1104588E-1,-1.3544296E-1,3.1924614E-1,1.601001E-2,-2.2225223E-1,-4.5092646E-2,2.2720214E-2,-4.365254E-2,1.3788475E-1],"split_indices":[354,60,361,16,321,384,184,533,207,419,498,293,350,495,353,0,0,0,0,0,0,0,0,0,0,0,0,0,0,0,0],"split_type":[0,0,0,0,0,0,0,0,0,0,0,0,0,0,0,0,0,0,0,0,0,0,0,0,0,0,0,0,0,0,0],"sum_hessian":[1.0323425E4,2.8069963E3,7.5164287E3,1.2560669E3,1.5509293E3,7.9649207E2,6.719937E3,3.493245E2,9.0674243E2,7.5447363E2,7.964557E2,4.5189352E2,3.4459854E2,4.0683167E3,2.65162E3,1.850984E2,1.642261E2,1.3390587E2,7.7283655E2,5.2243616E2,2.3203749E2,6.3027167E2,1.6618402E2,4.437631E2,8.130417E0,3.0957864E2,3.501991E1,8.2464514E2,3.2436716E3,2.5273125E3,1.2430769E2],"tree_param":{"num_deleted":"0","num_feature":"536","num_nodes":"31","size_leaf_vector":"0"}},{"base_weights":[4.0035117E-3,-3.567326E-2,9.770104E-2,-1.333669E-1,1.2328202E-2,4.0720203E-3,2.2973564E-1,-1.1297231E-2,-2.582305E-1,-3.1275311E-3,4.8051932E-1,1.13732725E-1,-1.7966929E-1,1.8945532E-1,1.0035268E0,-4.076588E-2,5.8790773E-2,9.079495E-2,-8.6463936E-2,3.859863E-2,-1.6357126E-2,5.267143E-1,8.195501E-2,2.3618238E-2,2.3849812E-1,-7.5324245E-2,1.8163212E-1,9.424466E-2,-8.331573E-3,5.2105373E-1,1.104537E-3],"categories":[],"categories_nodes":[],"categories_segments":[],"categories_sizes":[],"default_left":[0,0,0,0,0,0,0,0,0,0,0,0,0,0,0,0,0,0,0,0,0,0,0,0,0,0,0,0,0,0,0],"id":37,"left_children":[1,3,5,7,9,11,13,15,17,19,21,23,25,27,29,-1,-1,-1,-1,-1,-1,-1,-1,-1,-1,-1,-1,-1,-1,-1,-1],"loss_changes":[3.8161522E1,3.3819206E1,3.77495E1,3.6212234E1,3.499908E1,3.604138E1,3.9299515E1,3.1078634E1,1.9838608E1,3.1726381E1,4.0385777E1,2.6650585E1,3.763513E1,3.2662262E1,4.5787464E1,0E0,0E0,0E0,0E0,0E0,0E0,0E0,0E0,0E0,0E0,0E0,0E0,0E0,0E0,0E0,0E0],"parents":[2147483647,0,0,1,1,2,2,3,3,4,4,5,5,6,6,7,7,8,8,9,9,10,10,11,11,12,12,13,13,14,14],"right_children":[2,4,6,8,10,12,14,16,18,20,22,24,26,28,30,-1,-1,-1,-1,-1,-1,-1,-1,-1,-1,-1,-1,-1,-1,-1,-1],"split_conditions":[2.1351643E-1,-5.694881E-2,9.89468E-2,2.8476495E-1,6.410458E-1,1.2301089E-2,1E0,1.97165E-1,-9.565084E-1,-4.1309264E-1,-5.203452E-1,1.0623691E0,6.038112E-1,1.8770511E-1,3.4080097E-4,-4.076588E-2,5.8790773E-2,9.079495E-2,-8.6463936E-2,3.859863E-2,-1.6357126E-2,5.267143E-1,8.195501E-2,2.3618238E-2,2.3849812E-1,-7.5324245E-2,1.8163212E-1,9.424466E-2,-8.331573E-3,5.2105373E-1,1.104537E-3],"split_indices":[431,125,352,243,80,9,519,87,140,428,9,460,249,254,357,0,0,0,0,0,0,0,0,0,0,0,0,0,0,0,0],"split_type":[0,0,0,0,0,0,0,0,0,0,0,0,0,0,0,0,0,0,0,0,0,0,0,0,0,0,0,0,0,0,0],"sum_hessian":[1.0263115E4,7.210434E3,3.0526814E3,2.3750012E3,4.835433E3,1.7867109E3,1.2659705E3,1.201488E3,1.1735131E3,4.68187E3,1.5356267E2,1.119156E3,6.6755493E2,1.2045134E3,6.1457073E1,7.506266E2,4.5086148E2,5.908697E1,1.114426E3,1.3131646E3,3.3687056E3,2.0431738E1,1.3313092E2,1.0655217E3,5.3634205E1,6.125218E2,5.503318E1,7.649614E2,4.3955197E2,3.502874E1,2.6428335E1],"tree_param":{"num_deleted":"0","num_feature":"536","num_nodes":"31","size_leaf_vector":"0"}},{"base_weights":[-4.8651667E-3,3.3748835E-2,-8.387461E-2,3.8675967E-1,2.124507E-2,2.3512925E-1,-1.1174722E-1,8.315622E-1,1.2988357E-1,-2.0906799E-1,3.9055604E-2,1.6159165E-1,2.0486405E0,-1.5327281E-1,1.06122024E-1,-1.4164825E-1,3.0437234E-1,-9.272763E-2,1.6801095E-1,3.5445383E-1,-7.6338544E-2,1.1870381E-1,7.995447E-3,-4.227002E-2,1.6855694E-1,6.778467E-1,1.0750319E-1,-1.6956063E-1,-3.782083E-2,2.7275E-1,4.35977E-3],"categories":[],"categories_nodes":[],"categories_segments":[],"categories_sizes":[],"default_left":[0,0,0,0,0,0,0,0,0,0,0,0,0,0,0,0,0,0,0,0,0,0,0,0,0,0,0,0,0,0,0],"id":38,"left_children":[1,3,5,7,9,11,13,15,17,19,21,23,25,27,29,-1,-1,-1,-1,-1,-1,-1,-1,-1,-1,-1,-1,-1,-1,-1,-1],"loss_changes":[3.1537695E1,3.0641443E1,3.0199959E1,2.702623E1,2.752156E1,3.607722E1,2.8257378E1,2.1178158E1,2.8823086E1,3.0701962E1,2.7533901E1,3.1977032E1,2.9514732E0,2.9313217E1,3.6784676E1,0E0,0E0,0E0,0E0,0E0,0E0,0E0,0E0,0E0,0E0,0E0,0E0,0E0,0E0,0E0,0E0],"parents":[2147483647,0,0,1,1,2,2,3,3,4,4,5,5,6,6,7,7,8,8,9,9,10,10,11,11,12,12,13,13,14,14],"right_children":[2,4,6,8,10,12,14,16,18,20,22,24,26,28,30,-1,-1,-1,-1,-1,-1,-1,-1,-1,-1,-1,-1,-1,-1,-1,-1],"split_conditions":[9.490197E-2,-5.698039E-1,-5.4201597E-1,-8.335739E-2,-5.2108985E-1,6.8958586E-1,4.0271172E-1,-4.0685722E-1,3.972885E-2,-6.6480064E-1,-7.5724256E-1,1.2877816E-1,3.548235E-1,-3.6463675E-1,-7.0127E-1,-1.4164825E-1,3.0437234E-1,-9.272763E-2,1.6801095E-1,3.5445383E-1,-7.6338544E-2,1.1870381E-1,7.995447E-3,-4.227002E-2,1.6855694E-1,6.778467E-1,1.0750319E-1,-1.6956063E-1,-3.782083E-2,2.7275E-1,4.35977E-3],"split_indices":[146,217,419,87,484,320,22,148,61,220,6,98,284,375,360,0,0,0,0,0,0,0,0,0,0,0,0,0,0,0,0],"split_type":[0,0,0,0,0,0,0,0,0,0,0,0,0,0,0,0,0,0,0,0,0,0,0,0,0,0,0,0,0,0,0],"sum_hessian":[1.0335349E4,6.9427944E3,3.392554E3,2.3647975E2,6.706315E3,2.7200482E2,3.120549E3,8.575337E1,1.5072638E2,4.8061447E2,6.2257E3,2.6245154E2,9.553265E0,2.6212407E3,4.9930838E2,1.0361473E1,7.53919E1,7.473744E1,7.598893E1,1.4401928E1,4.6621255E2,2.0822556E2,6.0174746E3,1.4985202E2,1.12599525E2,8.194356E0,1.3589094E0,1.6115536E2,2.4600854E3,5.020355E1,4.4910483E2],"tree_param":{"num_deleted":"0","num_feature":"536","num_nodes":"31","size_leaf_vector":"0"}},{"base_weights":[1.8879717E-3,-5.5879526E-2,5.8005214E-2,-1.1544202E-1,8.4025286E-2,-1.1053962E-1,1.0146757E-1,-1.4033508E-1,2.6852685E-1,4.7219577E-1,3.0298794E-2,5.9188742E-2,-2.615184E-1,9.141478E-2,8.029118E-1,-1.14920974E-1,-2.9274253E-2,2.8024754E-1,2.5044484E-2,1.0821516E-1,6.0076064E-1,3.7349483E-3,3.826727E-1,-5.258444E-3,2.607902E-1,-1.282138E-2,-1.3204761E-1,5.460335E-2,4.2421804E-3,5.780327E-1,1.1982577E-1],"categories":[],"categories_nodes":[],"categories_segments":[],"categories_sizes":[],"default_left":[0,0,0,0,0,0,0,0,0,0,0,0,0,0,0,0,0,0,0,0,0,0,0,0,0,0,0,0,0,0,0],"id":39,"left_children":[1,3,5,7,9,11,13,15,17,19,21,23,25,27,29,-1,-1,-1,-1,-1,-1,-1,-1,-1,-1,-1,-1,-1,-1,-1,-1],"loss_changes":[3.3223824E1,4.2092777E1,3.8092808E1,3.3897835E1,3.144729E1,2.733759E1,2.907307E1,3.4495354E1,2.6530409E1,3.0556751E1,2.9462273E1,3.1261076E1,2.2041916E1,2.8533318E1,2.5655247E1,0E0,0E0,0E0,0E0,0E0,0E0,0E0,0E0,0E0,0E0,0E0,0E0,0E0,0E0,0E0,0E0],"parents":[2147483647,0,0,1,1,2,2,3,3,4,4,5,5,6,6,7,7,8,8,9,9,10,10,11,11,12,12,13,13,14,14],"right_children":[2,4,6,8,10,12,14,16,18,20,22,24,26,28,30,-1,-1,-1,-1,-1,-1,-1,-1,-1,-1,-1,-1,-1,-1,-1,-1],"split_conditions":[9.5295005E-2,2.9928467E-1,-7.109747E-2,1E0,-2.8312996E-1,-1.7776799E-1,7.469617E-1,-2.6642987E-1,-2.583739E-1,5.245754E-1,9.3810767E-1,3.1725493E-1,-8.041863E-2,-1.366383E-1,-4.6435764E-1,-1.14920974E-1,-2.9274253E-2,2.8024754E-1,2.5044484E-2,1.0821516E-1,6.0076064E-1,3.7349483E-3,3.826727E-1,-5.258444E-3,2.607902E-1,-1.282138E-2,-1.3204761E-1,5.460335E-2,4.2421804E-3,5.780327E-1,1.1982577E-1],"split_indices":[171,448,216,531,347,107,473,473,432,158,72,199,83,238,60,0,0,0,0,0,0,0,0,0,0,0,0,0,0,0,0],"split_type":[0,0,0,0,0,0,0,0,0,0,0,0,0,0,0,0,0,0,0,0,0,0,0,0,0,0,0,0,0,0,0],"sum_hessian":[1.0246723E4,5.049123E3,5.1975996E3,3.541538E3,1.507585E3,1.0652131E3,4.132386E3,3.3265117E3,2.1502638E2,1.8234743E2,1.3252375E3,5.0175482E2,5.634583E2,4.0751138E3,5.7272438E1,4.9697937E2,2.8295322E3,4.5893456E1,1.6913293E2,1.7111794E2,1.1229489E1,1.3075066E3,1.7730928E1,4.5924323E2,4.251157E1,2.5383107E2,3.0962723E2,1.8752327E3,2.199881E3,1.4132736E1,4.31397E1],"tree_param":{"num_deleted":"0","num_feature":"536","num_nodes":"31","size_leaf_vector":"0"}},{"base_weights":[4.6310835E-3,-4.995461E-2,6.6370465E-2,5.7877313E-2,-1.1273652E-1,8.3724245E-2,-3.2256117E-1,9.031984E-2,-3.507227E-1,-2.4411176E-1,-4.322689E-2,3.6393758E-3,1.6179557E-1,1.1601776E0,-3.9864552E-1,2.0168044E-2,2.005419E-1,-1.5326747E-1,1.357659E-1,-1.5072905E-1,-4.898153E-2,4.117292E-2,-3.8565055E-2,2.4286193E-1,-5.2987263E-3,-6.405366E-2,6.0013715E-2,-2.3936277E-2,6.900177E-1,1.4779499E-1,-1.528646E-1],"categories":[],"categories_nodes":[],"categories_segments":[],"categories_sizes":[],"default_left":[0,0,0,0,0,0,0,0,0,0,0,0,0,0,0,0,0,0,0,0,0,0,0,0,0,0,0,0,0,0,0],"id":40,"left_children":[1,3,5,7,9,11,13,15,17,19,21,23,25,27,29,-1,-1,-1,-1,-1,-1,-1,-1,-1,-1,-1,-1,-1,-1,-1,-1],"loss_changes":[3.4727913E1,3.7032986E1,3.2663803E1,2.6719078E1,3.155872E1,2.8946087E1,2.3786123E1,2.4867712E1,1.9310844E1,2.4893066E1,3.484963E1,3.9265587E1,3.3696762E1,1.4807737E1,1.9763395E1,0E0,0E0,0E0,0E0,0E0,0E0,0E0,0E0,0E0,0E0,0E0,0E0,0E0,0E0,0E0,0E0],"parents":[2147483647,0,0,1,1,2,2,3,3,4,4,5,5,6,6,7,7,8,8,9,9,10,10,11,11,12,12,13,13,14,14],"right_children":[2,4,6,8,10,12,14,16,18,20,22,24,26,28,30,-1,-1,-1,-1,-1,-1,-1,-1,-1,-1,-1,-1,-1,-1,-1,-1],"split_conditions":[1.3771302E-1,-3.1893837E-1,6.718958E-1,4.763987E-1,-2.193616E-1,4.3046847E-2,-6.333783E-1,6.299915E-1,2.144776E-1,-2.1595243E-1,-4.1932636E-1,-7.499186E-1,-4.0388077E-1,1.2244452E-1,-4.1765535E-1,2.0168044E-2,2.005419E-1,-1.5326747E-1,1.357659E-1,-1.5072905E-1,-4.898153E-2,4.117292E-2,-3.8565055E-2,2.4286193E-1,-5.2987263E-3,-6.405366E-2,6.0013715E-2,-2.3936277E-2,6.900177E-1,1.4779499E-1,-1.528646E-1],"split_indices":[263,474,212,402,441,23,32,238,63,400,126,296,388,219,295,0,0,0,0,0,0,0,0,0,0,0,0,0,0,0,0],"split_type":[0,0,0,0,0,0,0,0,0,0,0,0,0,0,0,0,0,0,0,0,0,0,0,0,0,0,0,0,0,0,0],"sum_hessian":[1.0302769E4,5.468282E3,4.8344863E3,2.012229E3,3.4560532E3,4.6287407E3,2.0574551E2,1.8649336E3,1.4729535E2,1.1949849E3,2.2610684E3,2.2854219E3,2.3433188E3,9.346743E0,1.9639877E2,1.7943774E3,7.055611E1,1.2311156E2,2.4183792E1,2.8358725E2,9.113976E2,7.2563873E2,1.5354297E3,5.790042E1,2.2275215E3,2.1631071E2,2.127008E3,4.92228E0,4.424463E0,2.1352545E1,1.7504622E2],"tree_param":{"num_deleted":"0","num_feature":"536","num_nodes":"31","size_leaf_vector":"0"}},{"base_weights":[6.2668477E-3,6.51893E-1,1.9797867E-3,9.5373267E-1,-5.0706893E-1,1.0405131E-2,-3.3939832E-1,1.4393514E0,3.0774838E-1,4.850205E-1,-9.8571956E-1,8.5696466E-2,-2.305736E-2,-4.936647E-1,3.6632833E-1,6.7333007E-1,2.198827E-1,3.1146768E-1,-1.9323255E-1,5.9917647E-1,-1.1862175E-1,-3.4067425E-1,5.1749855E-2,1.2845723E-2,1.0471445E-1,9.603501E-3,-2.9844843E-2,1.6300812E-3,-2.0049913E-1,7.3171073E-1,8.322462E-3],"categories":[],"categories_nodes":[],"categories_segments":[],"categories_sizes":[],"default_left":[0,0,0,0,0,0,0,0,0,0,0,0,0,0,0,0,0,0,0,0,0,0,0,0,0,0,0,0,0,0,0],"id":41,"left_children":[1,3,5,7,9,11,13,15,17,19,21,23,25,27,29,-1,-1,-1,-1,-1,-1,-1,-1,-1,-1,-1,-1,-1,-1,-1,-1],"loss_changes":[2.8438028E1,2.4192356E1,2.9364485E1,1.6533733E1,7.4380636E0,2.5103722E1,2.6952223E1,1.5769817E1,1.7701004E1,8.032927E0,1.9691896E0,3.460361E1,2.9036467E1,1.763208E1,3.1291363E1,0E0,0E0,0E0,0E0,0E0,0E0,0E0,0E0,0E0,0E0,0E0,0E0,0E0,0E0,0E0,0E0],"parents":[2147483647,0,0,1,1,2,2,3,3,4,4,5,5,6,6,7,7,8,8,9,9,10,10,11,11,12,12,13,13,14,14],"right_children":[2,4,6,8,10,12,14,16,18,20,22,24,26,28,30,-1,-1,-1,-1,-1,-1,-1,-1,-1,-1,-1,-1,-1,-1,-1,-1],"split_conditions":[-8.477481E-1,6.983758E-1,1.2079669E0,-4.2013086E-2,-1.4702648E-1,1.47E2,3.0407465E-1,-1.11486346E-1,1.03609055E-1,9.585E1,2.1561956E-1,3.089202E-1,-5.849023E-3,-1.2700412E-1,-7.654477E-1,6.7333007E-1,2.198827E-1,3.1146768E-1,-1.9323255E-1,5.9917647E-1,-1.1862175E-1,-3.4067425E-1,5.1749855E-2,1.2845723E-2,1.0471445E-1,9.603501E-3,-2.9844843E-2,1.6300812E-3,-2.0049913E-1,7.3171073E-1,8.322462E-3],"split_indices":[188,446,504,344,478,533,85,123,419,532,92,392,343,364,107,0,0,0,0,0,0,0,0,0,0,0,0,0,0,0,0],"split_type":[0,0,0,0,0,0,0,0,0,0,0,0,0,0,0,0,0,0,0,0,0,0,0,0,0,0,0,0,0,0,0],"sum_hessian":[1.0273919E4,6.6774E1,1.0207145E4,5.311725E1,1.3656758E1,9.962242E3,2.4490248E2,2.9621288E1,2.3495958E1,4.4402447E0,9.216514E0,3.0648044E3,6.8974375E3,2.0121822E2,4.3684258E1,1.2826225E1,1.6795063E1,1.3242567E1,1.0253391E1,1.1671025E0,3.273142E0,8.177922E0,1.0385908E0,2.6366785E3,4.28126E2,4.0091736E3,2.8882642E3,5.2414726E1,1.488035E2,5.2629266E0,3.8421333E1],"tree_param":{"num_deleted":"0","num_feature":"536","num_nodes":"31","size_leaf_vector":"0"}},{"base_weights":[-5.5705407E-3,-1.16036475E-1,2.0337343E-2,-1.5684202E-1,2.6798272E-1,-5.6559485E-1,2.6044086E-2,6.218898E-1,-1.7292713E-1,-1.5938851E-1,6.0402244E-1,1.3395826E0,-6.9330436E-1,-1.7299058E-2,1.0790675E-1,-7.857473E-2,5.264804E-1,-2.6158046E-2,-9.244557E-2,-2.3961492E-1,1.0664933E-1,5.5582333E-2,3.3093354E-1,-7.312395E-2,5.421932E-1,3.4181175E-1,-2.513209E-1,2.507803E-2,-2.4905557E-2,5.9633013E-3,7.090666E-2],"categories":[],"categories_nodes":[],"categories_segments":[],"categories_sizes":[],"default_left":[0,0,0,0,0,0,0,0,0,0,0,0,0,0,0,0,0,0,0,0,0,0,0,0,0,0,0,0,0,0,0],"id":42,"left_children":[1,3,5,7,9,11,13,15,17,19,21,23,25,27,29,-1,-1,-1,-1,-1,-1,-1,-1,-1,-1,-1,-1,-1,-1,-1,-1],"loss_changes":[2.9367064E1,3.0589241E1,2.7808205E1,2.2188103E1,2.704016E1,2.0446756E1,2.921341E1,3.6401413E1,2.0005074E1,2.7729528E1,2.1789646E1,4.4251766E0,2.1028698E1,3.5703957E1,3.222241E1,0E0,0E0,0E0,0E0,0E0,0E0,0E0,0E0,0E0,0E0,0E0,0E0,0E0,0E0,0E0,0E0],"parents":[2147483647,0,0,1,1,2,2,3,3,4,4,5,5,6,6,7,7,8,8,9,9,10,10,11,11,12,12,13,13,14,14],"right_children":[2,4,6,8,10,12,14,16,18,20,22,24,26,28,30,-1,-1,-1,-1,-1,-1,-1,-1,-1,-1,-1,-1,-1,-1,-1,-1],"split_conditions":[-4.3763134E-1,6.19579E-1,-7.6983607E-1,-9.3592787E-1,-1.0245609E-1,-7.44904E-1,1.408226E-1,3.347096E-1,2.1206404E-1,1.2281532E-1,5.2596398E-2,8.9369774E-2,-8.75975E-1,-5.0127324E-2,1.06728174E-1,-7.857473E-2,5.264804E-1,-2.6158046E-2,-9.244557E-2,-2.3961492E-1,1.0664933E-1,5.5582333E-2,3.3093354E-1,-7.312395E-2,5.421932E-1,3.4181175E-1,-2.513209E-1,2.507803E-2,-2.4905557E-2,5.9633013E-3,7.090666E-2],"split_indices":[266,28,388,447,277,317,492,404,303,292,47,79,390,498,145,0,0,0,0,0,0,0,0,0,0,0,0,0,0,0,0],"split_type":[0,0,0,0,0,0,0,0,0,0,0,0,0,0,0,0,0,0,0,0,0,0,0,0,0,0,0,0,0,0,0],"sum_hessian":[1.0259424E4,1.9483933E3,8.31103E3,1.7617798E3,1.866136E2,7.921898E1,8.231812E3,3.489183E1,1.726888E3,8.2375336E1,1.04238266E2,4.38054E0,7.483843E1,5.382678E3,2.8491333E3,2.003378E1,1.4858052E1,1.057848E3,6.690399E2,3.6501114E1,4.587422E1,5.7426918E1,4.6811348E1,1.1081518E0,3.272388E0,4.963874E0,6.9874565E1,2.12307E3,3.2596082E3,1.6912401E3,1.1578933E3],"tree_param":{"num_deleted":"0","num_feature":"536","num_nodes":"31","size_leaf_vector":"0"}},{"base_weights":[-3.1349154E-3,6.7717824E-3,-2.800922E-1,8.271873E-2,-3.0762423E-2,-3.6091653E-1,6.4835006E-1,1.003144E-2,2.1049559E-1,1.5216974E-2,-1.22356474E-1,2.027712E0,-3.9238158E-1,-4.6639867E-2,1.7930719E0,-6.0776327E-2,2.1008166E-2,3.8055472E-2,1.3969019E-1,1.4079899E-1,2.3762463E-4,-3.935262E-2,3.4950316E-1,8.173911E-1,-4.3598033E-2,-1.743979E-1,-1.7896982E-2,-3.244827E-1,2.3428942E-1,7.89521E-1,-1.7567322E-1],"categories":[],"categories_nodes":[],"categories_segments":[],"categories_sizes":[],"default_left":[0,0,0,0,0,0,0,0,0,0,0,0,0,0,0,0,0,0,0,0,0,0,0,0,0,0,0,0,0,0,0],"id":43,"left_children":[1,3,5,7,9,11,13,15,17,19,21,23,25,27,29,-1,-1,-1,-1,-1,-1,-1,-1,-1,-1,-1,-1,-1,-1,-1,-1],"loss_changes":[2.8155035E1,2.8244987E1,2.6826794E1,3.0435799E1,2.7929201E1,2.5345448E1,2.294592E1,2.6674244E1,2.5299126E1,2.892611E1,2.531604E1,7.0731316E0,2.028584E1,1.6995403E1,2.3248192E1,0E0,0E0,0E0,0E0,0E0,0E0,0E0,0E0,0E0,0E0,0E0,0E0,0E0,0E0,0E0,0E0],"parents":[2147483647,0,0,1,1,2,2,3,3,4,4,5,5,6,6,7,7,8,8,9,9,10,10,11,11,12,12,13,13,14,14],"right_children":[2,4,6,8,10,12,14,16,18,20,22,24,26,28,30,-1,-1,-1,-1,-1,-1,-1,-1,-1,-1,-1,-1,-1,-1,-1,-1],"split_conditions":[4.736231E-1,-1.9406512E-1,5.2801424E-1,2.3775294E-2,1.7431527E-1,-7.4482894E-1,3.8002127E-1,-2.1594347E-1,2.1517597E-1,8.001E1,8.829938E-1,-3.1023627E-2,1.06956035E-1,3.0341737E-2,-1.2278358E-1,-6.0776327E-2,2.1008166E-2,3.8055472E-2,1.3969019E-1,1.4079899E-1,2.3762463E-4,-3.935262E-2,3.4950316E-1,8.173911E-1,-4.3598033E-2,-1.743979E-1,-1.7896982E-2,-3.244827E-1,2.3428942E-1,7.89521E-1,-1.7567322E-1],"split_indices":[132,285,159,409,297,73,103,336,75,532,179,260,373,20,471,0,0,0,0,0,0,0,0,0,0,0,0,0,0,0,0],"split_type":[0,0,0,0,0,0,0,0,0,0,0,0,0,0,0,0,0,0,0,0,0,0,0,0,0,0,0,0,0,0,0],"sum_hessian":[1.0259893E4,9.906515E3,3.5337817E2,3.276209E3,6.6303057E3,3.2564117E2,2.7736994E1,2.0889597E3,1.1872493E3,4.4148994E3,2.2154062E3,3.4089901E0,3.2223218E2,1.7855637E1,9.881358E0,4.5920505E2,1.6297546E3,8.9524976E2,2.919996E2,1.3495076E2,4.2799487E3,2.201225E3,1.4181035E1,2.3889744E0,1.0200155E0,2.0504564E2,1.17186554E2,7.7974916E0,1.0058145E1,7.2268972E0,2.654461E0],"tree_param":{"num_deleted":"0","num_feature":"536","num_nodes":"31","size_leaf_vector":"0"}},{"base_weights":[8.808494E-3,-7.449052E-1,1.23018995E-2,1.1875901E0,-8.81579E-1,-1.4496642E-1,2.8083785E-2,-1.8863444E-1,8.296071E-1,1.4314373E-1,-9.241585E-1,-1.6108137E-1,1.7760683E0,5.2430284E-1,2.2300344E-2,9.828555E-3,-2.9039043E-1,-1.0285433E-1,7.24168E-3,8.052352E-1,-7.355166E-2,-6.759684E-3,2.7957022E-1,1.0621088E-1,4.179823E-3],"categories":[],"categories_nodes":[],"categories_segments":[],"categories_sizes":[],"default_left":[0,0,0,0,0,0,0,0,0,0,0,0,0,0,0,0,0,0,0,0,0,0,0,0,0],"id":44,"left_children":[1,3,5,7,9,11,13,-1,-1,-1,15,17,19,21,23,-1,-1,-1,-1,-1,-1,-1,-1,-1,-1],"loss_changes":[2.6936655E1,1.3512987E1,2.5272266E1,1.1894114E1,3.0243912E0,2.9033638E1,2.6543062E1,0E0,0E0,0E0,1.8611221E0,3.1042652E1,1.4989174E1,2.3771364E1,2.5386837E1,0E0,0E0,0E0,0E0,0E0,0E0,0E0,0E0,0E0,0E0],"parents":[2147483647,0,0,1,1,2,2,3,3,4,4,5,5,6,6,10,10,11,